<?xml version="1.0"?>
<opencv_storage>
<cascade>
  <stageType>BOOST</stageType>
  <featureType>LBP</featureType>
  <height>48</height>
  <width>48</width>
  <stageParams>
    <boostType>GAB</boostType>
    <minHitRate>9.9500000476837158e-01</minHitRate>
    <maxFalseAlarm>5.0000000000000000e-01</maxFalseAlarm>
    <weightTrimRate>9.4999999999999996e-01</weightTrimRate>
    <maxDepth>4</maxDepth>
    <maxWeakCount>100</maxWeakCount></stageParams>
  <featureParams>
    <maxCatCount>256</maxCatCount>
    <featSize>1</featSize></featureParams>
  <stageNum>7</stageNum>
  <stages>
    <!-- stage 0 -->
    <_>
      <maxWeakCount>2</maxWeakCount>
      <stageThreshold>-1.4720042943954468e+00</stageThreshold>
      <weakClassifiers>
        <_>
          <internalNodes>
            1 2 91 -21569 -21505 -1426347845 -4216150 -2375745 -263169
            -1145066837 -71325013 3 4 122 -1 -1077937221 -536870913
            -1077938373 -1 -1140851713 -1025 -1077952581 5 6 74 -1
            1068433343 -268435457 724299695 -129 1073725439 -16385
            738197375 7 8 126 -1 -20737 -335545925 -1053969 -67108929
            -257 -83906642 -21829 9 10 12 -1039997918 147099846 1220608
            -1069498360 -804306816 -2130689792 -795874749 -219156341 11
            12 206 -716179804 -771579512 -1994194660 -654063589
            -263200096 -670889829 -1815164799 -53484913 13 14 143
            -285234142 -269488210 1794026112 783215266 -25219324 -17
            -205050876 -389091580 0 -1 25 -11010050 -185142558
            -167780417 -168047442 -581636609 -541329801 -524289 -1 -2 -3
            37 1363190464 -1072135104 1107300417 -1694416895 -788086014
            1082130432 -929922871 -812669301 -4 -5 44 -715603757
            -787250877 69243185 -609942643 -805191597 -1073643519
            1092731483 -3935921 -6 -7 121 -1074886068 -1315090 -16846868
            -536940820 384 -2095054848 16809984 -9664402 -8 -9 165
            -144179201 -1056714622 131075 1140932748 -989216691
            -1742577655 -1065238354 -87033381 -10 -11 30 -150999177
            1728036847 -16777281 -500367633 -134840493 1711144828
            -1073741833 -464527491 -12 -13 135 -238551045 -269553665
            -1073741826 -276828164 -33554434 1073741815 -494895085
            -1083310153 -14 -15 140 125258098 805306367 1736398670
            805240703 36848656 655491071 73401344 21175558</internalNodes>
          <leafValues>
            -9.7909849882125854e-01 -6.1199623346328735e-01
            -8.8505744934082031e-01 6.2365591526031494e-01
            -9.3120390176773071e-01 6.4102566242218018e-01
            -7.5280898809432983e-01 8.6416864395141602e-01
            -9.5341098308563232e-01 5.3333336114883423e-01
            -5.5696201324462891e-01 8.4180790185928345e-01
            -8.7837839126586914e-01 1. -4.5882353186607361e-01
            9.4899815320968628e-01</leafValues></_>
        <_>
          <internalNodes>
            1 2 123 -2102545 -2049 -272848242 -3151186 -335827025 -513
            -34035030 -1316182 3 4 28 -222371870 -51599361 972804015
            -33816841 -713722382 -4718597 -84934657 -1 5 6 77 1409598720
            -169288320 -1075314692 -33703937 1431434737 -672259
            2076172287 -2049 7 8 72 -33554433 -573571107 -1076564013
            -136839303 -68158465 -5121 -8405297 -1 9 10 59 -254029569
            -129314060 1350754039 -863188344 1954804991 -1258579217
            -271778051 -528424224 11 12 147 -26739209 -70089833
            1090978051 -7962157 -215313749 -32931549 -100157302
            -1360075203 13 14 166 -1595528704 682010158 -293720558
            -1969082838 -404865776 -822149122 787910144 -2144719104 0 -1
            69 -262145 -638618671 -573572097 -33558034 -8915969 -1573965
            -134218821 -1 -2 -3 130 1712525461 -1223163727 1075843469
            295772361 1074037029 4194309 1614932430 -1467785142 -4 -5
            234 -50856013 -153124641 1460261143 -38674289 -158606377
            1887520419 -651192985 -1025 -6 -7 228 -16785918 -1132756993
            1879047798 1048493055 1879046000 1451229055 -67766412
            -151846914 -8 -9 85 -74587137 -1143483449 -1870495585
            1297940867 -774269697 -1920298079 -1597096801 -38161 -10 -11
            5 4243460 269484032 0 138494723 1342178305 0 134267136
            -796276773 -12 -13 70 -720276266 -268009460 83886353
            -1744437240 -1610497911 8519680 -2147450709 -209198976 -14
            -15 15 721317606 149827310 1056927743 237899055 2147450743
            109012991 2147450751 129976191</internalNodes>
          <leafValues>
            -9.6336615085601807e-01 -6.5341629087924957e-02
            -8.9761286973953247e-01 8.4927856922149658e-01
            -8.6000806093215942e-01 3.0440643429756165e-01
            -5.4432970285415649e-01 7.6465195417404175e-01
            -9.3460482358932495e-01 4.0890535712242126e-01
            -8.1314754486083984e-01 7.8095978498458862e-01
            -8.8513642549514771e-01 7.3119884729385376e-01
            -6.6469043493270874e-01 9.4248837232589722e-01</leafValues></_></weakClassifiers></_>
    <!-- stage 1 -->
    <_>
      <maxWeakCount>2</maxWeakCount>
      <stageThreshold>-1.7633769512176514e+00</stageThreshold>
      <weakClassifiers>
        <_>
          <internalNodes>
            1 2 83 -1 -1 -21573 -21829 -16449 -1 -17477 -21589 3 4 104
            -1 1069285311 -35651585 -33 -1 -1 -1 -1 5 6 142 -287379457
            -1649082625 -16781313 -2002718993 -269553681 -257 -318836753
            -2134193010 7 8 76 -1 -4097 -1 -62209 -1 -4097 -32769 -32769
            9 10 139 1171610453 -9 1341075279 2147483647 779304757
            804290723 32966496 265289679 11 12 191 -615548065 -640577531
            414187671 -1113227253 -1114995919 -1079459646 -1685415699
            -873477377 13 14 78 801110719 725596862 -1 800030639
            2147482623 1040171007 -1 935328767 0 -1 50 -285212673
            -16842753 -1 -66561 -67108865 -65 -1 -1 -2 -3 34 -1343234113
            -1426828290 -152043522 -419631108 -8201 -269156353 -34564981
            -402657345 -4 -5 151 1394071007 -225198075 16879897
            -1761378293 134256680 -2139062014 -522956614 -336597318 -6
            -7 156 -324477440 -2066939972 -285212675 2126512126
            -1807708032 -993731138 2005988372 -1404252324 -8 -9 17
            -48761633 -608102329 -1593819073 -121601129 -928415318
            -913743665 -710029157 -3147813 -10 -11 207 4358664
            1073758209 2 -2147483647 33418 -2147483648 136 131200 -12
            -13 204 855836699 1897269504 102401 -1862197248 -2012217344
            -938999799 136314888 -821321717 -14 -15 198 -1070808064
            -2139038484 -1103429840 1287450100 -1994555392 1283227620
            -415972352 -1958816214</internalNodes>
          <leafValues>
            -9.2542529106140137e-01 -4.2637151479721069e-01
            -6.1338287591934204e-01 6.3754045963287354e-01
            -8.3236992359161377e-01 5.3125000000000000e-01
            -5.2380955219268799e-01 8.3742332458496094e-01
            -9.0181815624237061e-01 3.2352942228317261e-01
            -9.4117647409439087e-01 9.1869920492172241e-01
            -9.0666669607162476e-01 6.2857145071029663e-01
            6.8273089826107025e-02 9.6113073825836182e-01</leafValues></_>
        <_>
          <internalNodes>
            1 2 97 -513 -1174405189 -1109524481 -1145064525 -1
            -1073746497 -131073 1001388987 3 4 125 1002389495 469679999
            -1073741825 -1074364417 -1073790977 -1074008129 -1073742340
            -1 5 6 174 -47787 -28673 -131075 -33864625 -179026689 -1
            1383416285 1442006097 7 8 169 1962011615 2138557951
            1912601593 -3151921 41512959 -415745 -1393037425 -3151873 9
            10 193 -329328640 410876766 -80626184 -1084360241 2070385540
            -391674629 -91537618 -16777221 11 12 197 1063206903 -2890789
            -1819192065 -1076144680 556756979 -268962901 1669028341
            -1076367371 13 14 160 -285233630 -1494569009 -1024545276
            -353570898 -134801568 -1879048321 -939525088 -289673714 0 -1
            129 -68157441 -335544465 -272635971 -35651585 -67244033
            -1075905089 -33554433 -5242929 -2 -3 231 -287850601
            -450895995 -988965790 2009395601 2110283122 -70278512
            1201128245 -536871017 -4 -5 63 -36970497 -8662369 1385550843
            -1211112557 -1041659706 -1173454495 -108143617 -4198465 -6
            -7 73 1427505094 664731694 1073770955 67239946 1364502783
            1611827499 1372105187 791263649 -8 -9 224 -538977285
            -138938426 -1824404737 -33564687 -741673477 -273970390
            -70276363 -6292609 -10 -11 131 721621286 436704256 285278621
            -1769000699 -1606287127 -1065254528 1653606738 -1110547557
            -12 -13 3 -929582913 -2138857454 67125406 -836108286
            47024283 16679067 -528313697 -71316413 -14 -15 46 1073792000
            4227584 -8194 -1364530194 1433433588 1198817236 2146795511
            2088075255</internalNodes>
          <leafValues>
            -9.5802688598632812e-01 -2.8722408413887024e-01
            -8.4960144758224487e-01 3.0995294451713562e-01
            -8.9108002185821533e-01 4.2287567257881165e-01
            -5.3602993488311768e-01 6.1786657571792603e-01
            -9.3144255876541138e-01 9.6124894917011261e-02
            -8.3795166015625000e-01 5.4059535264968872e-01
            -8.3562994003295898e-01 4.2580851912498474e-01
            -5.0695949792861938e-01 8.3910447359085083e-01</leafValues></_></weakClassifiers></_>
    <!-- stage 2 -->
    <_>
      <maxWeakCount>2</maxWeakCount>
      <stageThreshold>-1.6357419490814209e+00</stageThreshold>
      <weakClassifiers>
        <_>
          <internalNodes>
            1 2 90 -2098177 -2105889 -547509509 -2118945 -132097
            -2101793 -71320901 -21829 3 4 105 2147483647 332922641
            -33564705 -641 -1 -287297 -1 -1 5 6 138 -17830238 -285217090
            -17826130 -50467110 -591326 -18 -5598 -285285886 7 8 211
            -193 -2097281 -285223681 -1 -339755251 -2081 -1392530657 -1
            9 10 185 -143165441 -574137065 1074253307 -146587377
            1926054591 -301274999 -138846133 -118799359 11 12 1
            -888551505 -2120112573 1157717255 -884922074 1350694811
            453048587 -268305713 -6293505 13 14 94 729164479 1006518207
            799948795 1072639935 805189561 1069498239 805257215
            1073549047 0 -1 107 -17104903 -65604 -9 -16387 -268632131
            -132131 -33829991 -71368936 -2 -3 56 -544343041 -586866168
            1344503882 -742293374 -912807237 -893341687 -1701198865
            -11535649 -4 -5 4 -720769025 -431823437 -805242805
            -520082925 -1073689142 -1878990438 -402596869 -7741657 -6 -7
            217 -323435520 -1427964036 -285233236 -1371603525 -176750032
            903855935 1060509458 -1078067418 -8 -9 187 -193988609
            -241847918 -1995865718 -578301189 -2010388245 -74857337
            -1161041272 -39060529 -10 -11 190 -33554624 -788528960 -390
            -1631584258 -2 -554041345 -152993584 -1940385802 -12 -13 226
            -741492385 1493464097 -905969391 1880162319 -1602158522
            -1023180790 2013458953 -86816637 -14 -15 216 -1363268096
            733708175 -1346392065 -1463902425 775290880 660815635
            35858978 -1439973573</internalNodes>
          <leafValues>
            -9.4840502738952637e-01 -7.1187281608581543e-01
            -6.7604434490203857e-01 4.6527779102325439e-01
            -8.2029950618743896e-01 1.1594203114509583e-01
            -5.5038762092590332e-01 7.1580344438552856e-01
            -9.0496760606765747e-01 1.6940658945086007e-17
            -5.7142859697341919e-01 8.2198953628540039e-01
            -8.2935154438018799e-01 5.3982299566268921e-01
            -4.3795619159936905e-02 9.2657077312469482e-01</leafValues></_>
        <_>
          <internalNodes>
            1 2 141 -285278209 -535041 -268959809 -4333569 -352391489
            -5243921 -16781377 -1431638289 3 4 102 -528739 -35331
            -1048581 -8220 -570511361 -4419 -268435458 -1075951871 5 6
            180 1616920797 -294913 2147352575 -201588997 8650971
            1608470271 937248495 2071428979 7 8 237 -84943885 1742733039
            -216139341 -905976137 2003788647 -805606545 -268438203
            -272640013 9 10 27 -856699198 1859382403 1254295463
            -1034823825 1200843291 1653306243 -269922755 -1057873 11 12
            0 -1484279829 -364604938 -101450371 -1263875061 -842306625
            1655083039 1523297183 -603988869 13 14 14 1711333440
            1088471040 -16386 939523821 1431631701 1165326288 -134742153
            -1048577 0 -1 171 -4194337 -67117057 -545259521 -1283
            1475732735 -4755721 -606225 -4194305 -2 -3 179 1551330559
            2145638295 -716979873 -2534645 1624772607 -1090506261
            -133496562 2116891491 -4 -5 9 -576727073 -11546018
            -263150661 -230170914 -788010032 -111279165 -628438789
            -88084229 -6 -7 178 1189543526 -1611694083 -268501249
            2147483647 48562922 964689919 444018398 1056335855 -8 -9 202
            -672137217 -574120045 -1072827425 2147324285 -353634598
            -362039161 -70516785 -5377 -10 -11 62 -215486448 -592067372
            9512962 -587202280 601063785 -2125918192 604274824 469723722
            -12 -13 40 -201330133 1523650971 1937949000 -601686014
            -534738749 -897023994 -465008613 -542651117 -14 -15 18
            -2098581982 -353337348 -285938960 -1406877702 -285745179
            -1536888843 1446502389 -1914221197</internalNodes>
          <leafValues>
            -9.2386913299560547e-01 -2.5859618186950684e-01
            -8.4694081544876099e-01 1.3259077072143555e-01
            -8.6638593673706055e-01 2.0583295822143555e-01
            -5.7821351289749146e-01 6.2292242050170898e-01
            -8.6888074874877930e-01 5.8164727687835693e-01
            -6.9402617216110229e-01 5.7459425926208496e-01
            -8.5285860300064087e-01 4.3051779270172119e-01
            -1.2941077351570129e-01 8.1896901130676270e-01</leafValues></_></weakClassifiers></_>
    <!-- stage 3 -->
    <_>
      <maxWeakCount>2</maxWeakCount>
      <stageThreshold>-1.6037055253982544e+00</stageThreshold>
      <weakClassifiers>
        <_>
          <internalNodes>
            1 2 71 -35651585 -2097665 -1342330177 -21829 -65 -147457
            -16449 -17473 3 4 87 2012608375 926809875 -536874497 -8195
            -1 -1025 -72484867 -1 5 6 42 -1343295501 -1905594433
            -273156097 -827404694 -1884291073 -940113921 -10489857
            -268960265 7 8 20 -270532609 -286261249 -8388609 -16779265
            -269484033 -33583105 -1048577 -1 9 10 176 2037905407
            -10495041 1167309791 -6299219 1398877151 2063371630
            2035239499 2079285247 11 12 104 -44042275 1006588829
            -49947179 -33695745 -1048543216 -544178048 -377466492
            -1116987 13 14 114 1068761071 -1145307201 -1073741825
            331086783 -1090519041 -16777217 -3 992608239 0 -1 181
            -33554433 -131073 -551616513 -14696469 1718820287 -33025
            -11702273 -2136969 -2 -3 60 -549323796 -719455444 419975365
            -647013939 1970600689 965071523 -643164022 -2114865 -4 -5 26
            -824185889 -454310829 -762054561 -1021577729 -612183569
            -711929170 -70265873 -7341089 -6 -7 11 -269561921 -420544520
            -268435458 -291082488 -1484783649 -308879380 -4097
            -269502829 -8 -9 232 -1578713 -1853752765 -1021054365
            -95960037 -804582639 -788447222 -1064374126 -17 -10 -11 212
            -318845952 -285540385 -16843010 -290783297 -1619077532
            -2147483641 524288 -1072104922 -12 -13 31 -653801729
            -1315856375 1359282244 839929858 1073750083 311099400
            -1610514225 -1501046517 -14 -15 192 -939474944 -2080320112
            -310514064 1764554222 -319454208 -841089070 1732133888
            -865017898</internalNodes>
          <leafValues>
            -9.3099707365036011e-01 -6.4960348606109619e-01
            -7.9492598772048950e-01 9.2896178364753723e-02
            -8.3292078971862793e-01 3.7656903266906738e-02
            -3.2487308979034424e-01 7.5000000000000000e-01
            -8.6265289783477783e-01 1.0382513701915741e-01
            -6.1481481790542603e-01 7.8082191944122314e-01
            -8.3478260040283203e-01 5.0847458839416504e-01
            -3.2051283121109009e-01 9.2579507827758789e-01</leafValues></_>
        <_>
          <internalNodes>
            1 2 175 -67241995 -67117057 -2081 -134484097 -67115265
            -10305 -19270147 -135838719 3 4 222 218000893 -1111826571
            -10493953 -1077985285 -16806402 -270733313 -33883393
            -1074876481 5 6 227 -536912315 -8437905 -1216520259
            -77594769 2094423124 394262111 -319627712 -1090527365 7 8 65
            -285323651 -76186626 -537919489 -16777221 -805347457 -20721
            -33816585 -257 9 10 8 -2622601 -61876541 -551645930
            -1440183642 -98018443 -546861349 1904172222 -195048929 11 12
            99 -1476089957 -1384789563 -983720545 -808940083 -1727153249
            -40903715 -841011783 -1465012562 13 14 52 1072693230
            582987564 -17 791654318 2147446783 1006599679 -134217857
            666892279 0 -1 23 -681574497 -2753034 -69215281 -528714 -1
            -671940610 -84411393 -16385 -2 -3 33 -1424232649 751666046
            -184424045 -287265758 -1396638465 388571611 1606794087
            -19932175 -4 -5 39 -671092745 -153955625 -211838769
            -1459656017 1070455743 -67524165 -489452991 -103318697 -6 -7
            88 726281233 -951983657 394287837 625837403 555559281
            -763330415 -1476363338 -643354480 -8 -9 120 -12189961
            -54345265 -1127827508 -609375282 -82973329 -372799093
            -765198425 -540945 -10 -11 152 -354488788 -2147434367
            -2007757016 -905543153 1476468773 196608 -448412895
            1675463887 -12 -13 182 -795608101 1527841921 -1319532646
            -1525463776 -267153153 -578578430 -1870027511 -1181892374
            -14 -15 203 12 335593469 1862021102 665075455 930418478
            1073692671 1073614670 963055406</internalNodes>
          <leafValues>
            -9.4365888833999634e-01 -4.4812044501304626e-01
            -7.7078467607498169e-01 6.7034117877483368e-02
            -8.1049281358718872e-01 3.2382085919380188e-02
            -6.5489989519119263e-01 5.7891803979873657e-01
            -8.8067919015884399e-01 -1.0191750712692738e-02
            -6.7639982700347900e-01 5.4974198341369629e-01
            -9.2160713672637939e-01 4.4477289915084839e-01
            -6.0890614986419678e-01 8.1146442890167236e-01</leafValues></_></weakClassifiers></_>
    <!-- stage 4 -->
    <_>
      <maxWeakCount>2</maxWeakCount>
      <stageThreshold>-1.6874170303344727e+00</stageThreshold>
      <weakClassifiers>
        <_>
          <internalNodes>
            1 2 150 -1 -1 -77594625 -16777249 -1 -4456449 -4097
            -352391425 3 4 201 -129 -1 -1 -1 -262795 -1 -268435619 -1 5
            6 82 -1414550593 -20497 -1434572117 -21877 -16449 -16385
            -1145062465 -21829 7 8 186 -4241 -285213185 -1179937
            -16777249 -8948393 -17409 -411 -1 9 10 199 -668795186
            -900677169 -737001253 -643641087 -233588758 -1823309814
            -85203985 -2097409 11 12 229 -738470113 -137899205
            -1791552097 -777534481 -1679045307 1929509182 -1596728537
            -76547745 13 14 13 -396170144 -256836878 -272859138
            2130705918 -546183856 -202080265 -1778985352 -541851658 0 -1
            235 -268435457 -35651585 -1048577 -1 -402915435 -25
            -536874123 -65 -2 -3 132 -1218447433 563997115 -113126185
            -2238253 -1732602433 -175538022 -2588005 -607135541 -4 -5
            116 -124422307 -40004331 1560632089 -44575975 -1475810664
            -74341435 -1430082625 -388898324 -6 -7 89 -67192134 -279617
            -67109958 -21321046 -16463 -1 -214 -341136886 -8 -9 41
            -439091905 -744697045 -1002319489 -2046311914 -784289617
            -1695952661 1881776835 -2317 -10 -11 177 -1059008295
            1077940323 -2143223807 1090535489 426 1074387972 264331
            1368084583 -12 -13 57 -776087073 -1072512765 -2130681980
            -1447034679 29462657 134742016 -762753008 -829824169 -14 -15
            205 -458300416 -2080309764 -1095567304 -969343121 -705178412
            -65545 2004866834 -67117070</internalNodes>
          <leafValues>
            -9.3454319238662720e-01 -5.8916479349136353e-01
            -7.6332092285156250e-01 3.4965034574270248e-02
            -8.4114050865173340e-01 9.3457940965890884e-03
            -5.8878505229949951e-01 7.8005117177963257e-01
            -8.8888889551162720e-01 -1.6049382090568542e-01
            -7.1597635746002197e-01 6.1052632331848145e-01
            -8.5294115543365479e-01 3.7062937021255493e-01
            -9.6573211252689362e-02 8.9627659320831299e-01</leafValues></_>
        <_>
          <internalNodes>
            1 2 49 -1343225857 -1930514433 -2228393 -285280002
            -805306369 -301990913 -1537 -268435457 3 4 170 -1361072345
            -1498480961 -27791698 -352796690 -8390793 -9 -139 -8197 5 6
            96 -72220689 -4980805 2013265919 455327675 -1073741825 -1
            -268435473 999013279 7 8 38 -16781441 -865075241 -16843015
            -218169345 -272632541 -266251 -67240009 -16777249 9 10 64
            12133175 -42125481 -509258755 -2296580 -1465009281 -33822710
            -1144201217 -40379571 11 12 209 -707005497 -56768009
            1657098426 1463797495 -73601037 -743792726 -109053054
            -338956373 13 14 157 -285594110 720105135 -286544352
            720301734 -55454 -596122 -268966400 -424744926 0 -1 118
            -134217729 -67372035 -950755563 -536870913 -65 -1073877393
            -8389221 -268451845 -2 -3 158 -11440129 -788143549
            -1806435937 -573064737 -1199219269 -351796049 967525567
            -85249428 -4 -5 221 -1610612991 -1413742609 -1361055876
            -1109393937 -104334455 -540291969 -128999494 -285479169 -6
            -7 159 -289496316 147334786 -1018501880 -321507446
            -114725536 167903368 -930893280 -1027601756 -8 -9 111
            -235473929 1370544055 -578192897 -34106733 1511631295
            832825523 -367402529 -3671042 -10 -11 195 -1866153826
            289735173 33558576 1191319593 16781934 -888668160
            -2147352406 -1160970174 -12 -13 225 1632357363 -543354791
            1359028564 -108936902 -1060788565 1217249712 -2110893692
            -554993157 -14 -15 214 707538688 -1602310342 -1372737618
            -1448345601 422774528 662437753 657336864 -1438986437</internalNodes>
          <leafValues>
            -9.2409610748291016e-01 -3.6889192461967468e-01
            -7.3725122213363647e-01 3.4160685539245605e-01
            -7.9378968477249146e-01 1.5220671775750816e-04
            -6.1966812610626221e-01 5.4002726078033447e-01
            -8.6400902271270752e-01 5.7670038193464279e-02
            -8.4404122829437256e-01 6.9542276859283447e-01
            -8.8186997175216675e-01 4.8605942726135254e-01
            -2.4617816507816315e-01 8.2852667570114136e-01</leafValues></_></weakClassifiers></_>
    <!-- stage 5 -->
    <_>
      <maxWeakCount>3</maxWeakCount>
      <stageThreshold>-1.2621314525604248e+00</stageThreshold>
      <weakClassifiers>
        <_>
          <internalNodes>
            1 2 113 -134217729 -2752513 -10503425 -2101249 -274202625
            -2097665 -69229894 -23889 3 4 101 -1 -4097 -67108865 -1
            -1025 -33 -16449 -53265 5 6 210 -233 -8392833 -213 -8388737
            -134251243 2138570623 -655 -5 7 8 115 -1259594243 -98305
            -35651715 -8617993 -1 -4210689 -68419585 -1078182404 9 10 16
            -428880129 547334151 1677779113 -1039373503 -663751379
            1124180033 -444346146 -235409521 11 12 7 -15863857
            -336467825 -574529265 -1021892085 -880744229 -343903774
            -560595329 -5242881 13 14 84 1431687488 -647054176 -3
            -29372943 1431666559 1576828415 -671481867 -18883089 0 -1
            103 -33554433 -174718977 -276827905 -639639585 -1092616257
            -67108949 -285474817 -1025 -2 -3 236 -3279 -1219048614
            -1519102476 -413734437 1884229991 1958857995 -1601180123
            -34610177 -4 -5 58 -1399655981 -325562159 -247226153
            -473415178 -1005419801 -1414983117 -1048315217 -279193093 -6
            -7 184 751688912 -590544916 -16908321 1870462975 -1510217536
            -721977354 -317009340 -405275174 -8 -9 155 -547357697
            -1907603005 622592 134676480 -153617942 -1835744195
            -204998495 -294655533 -10 -11 164 1960097262 2138898430
            2130640894 -134352899 1610612961 -168493187 -1073741825
            -849805362 -12 -13 163 1164111583 545259780 1359224159
            352321569 1391032571 2063728769 -880117281 -894868982 -14
            -15 36 655685631 67144194 -537526273 11784 2144731125
            2004041725 2004320253 1090838383</internalNodes>
          <leafValues>
            -9.2171806097030640e-01 -4.6666666865348816e-01
            -7.7258807420730591e-01 -1.3874788582324982e-01
            -8.0102038383483887e-01 5.2325580269098282e-02
            -3.8532111048698425e-01 8.2205027341842651e-01
            -8.4658688306808472e-01 -6.7901231348514557e-02
            -5.8974361419677734e-01 7.4834436178207397e-01
            -6.8018019199371338e-01 4.9242424964904785e-01
            -3.0177515745162964e-01 8.9092576503753662e-01</leafValues></_>
        <_>
          <internalNodes>
            1 2 117 -1 865843131 -2621441 -1074003969 -4194305
            -1077952601 -2098241 -1145046085 3 4 136 -89461825 -329217
            -71830537 -66625 -2106881 -540801 -1076101125 -359989265 5 6
            194 1347472078 -573178433 -88539401 -61800577 1615859401
            -107954220 -160038913 -25170177 7 8 32 -76550401 -70293779
            1994850047 1852014318 -430454917 -49195 -25755906 -67928513
            9 10 67 780051451 -363662849 -1055656483 -1897364875
            962108407 -206401281 -1094194177 -2621969 11 12 45
            -203752233 -174698099 -1067782914 -41753014 -1957514918
            -271989857 -1433187561 -701233027 13 14 53 -368392704
            -353714178 2147483518 -286261506 639661824 -151027713
            -984777103 -268435533 0 -1 148 -2097153 -2654737 -52445185
            -102764545 -204226721 -272671895 -145555461 -257 -2 -3 93
            -1357230667 -76231459 -114823009 -6309096 -72163908
            -74475379 -35915539 -878442188 -4 -5 219 -33562881
            -342568618 -116262713 1438644978 -21037092 -540551541
            -604287676 -671352105 -6 -7 218 -1058634240 -2012952136
            1073745925 1911734980 1074074256 -1314782965 868909073
            -724567697 -8 -9 79 -262145 -109095657 -800426657 -68423093
            -1299527025 -16019249 -92411269 -8389233 -10 -11 54
            -960244316 -745553257 -1073377054 1555300418 1346577117
            897714240 1753547820 1128743489 -12 -13 68 -209455649
            1883308309 -2130325227 -1627351722 1090551947 -2013249533
            -1588483534 -7565080 -14 -15 106 302001216 272670818
            -1862246304 1470120580 -1050599016 -1878966272 1906360836
            1737228804</internalNodes>
          <leafValues>
            -8.9553004503250122e-01 -2.2682702541351318e-01
            -7.7318787574768066e-01 8.5928522050380707e-02
            -8.4135949611663818e-01 -4.1057672351598740e-02
            -5.6653767824172974e-01 5.7521569728851318e-01
            -8.2981914281845093e-01 3.7498152256011963e-01
            -7.5607788562774658e-01 4.9153447151184082e-01
            -8.3180707693099976e-01 5.2543181180953979e-01
            -6.1776638031005859e-01 8.1188011169433594e-01</leafValues></_>
        <_>
          <internalNodes>
            1 2 172 -1342197977 -1359282453 -860885472 -1363480852
            -33849565 -1409418257 -170 -8194 3 4 35 -269500513
            -1368457345 2079449019 -805945602 -268831233 -845365513
            -34603011 -4609 5 6 100 -2102346192 -156696655 -268640257
            -196884 1031573489 -1073741827 -1108595220 -335805180 7 8
            109 -13172747 -2229377 -1115138 -270410 -7421957 -71303237
            -262145 -39676 9 10 154 827916080 -741223717 -247402017
            2067972497 -387123452 -92406181 994139663 2080236923 11 12
            153 1324097109 -1076432657 -1081716385 332829497 -1681076227
            -2557205 -69518595 -1343602844 13 14 2 800993255 803942383
            1878487031 188295978 1610579839 1879015423 -1 1873766015 0
            -1 149 -1835009 -235935745 -548413441 -537919547 -562627098
            -37879873 -65605 -12583025 -2 -3 86 1561694617 1565890005
            -1652064039 1557172379 -1857806945 -587083563 -611601014
            -170410599 -4 -5 144 -134549521 -105555770 -789341252
            2104151790 -359945281 315261451 -404228721 -2643009 -6 -7
            134 1068776753 -1885356167 -553666569 -639109 469761343
            -301989889 -2013282456 -302039561 -8 -9 133 2071460863
            -77990433 -1718091809 -2103862 -1187186433 -72642890
            -1544573185 -524337 -10 -11 10 -278668693 1311998814
            268466664 167855823 -350305935 -1157382143 -1027468169
            1140972159 -12 -13 19 -18884641 -1281388353 1385908373
            -1606889069 -739905549 -1148149373 -606340137 -616515717 -14
            -15 167 1727991330 -75497538 -152163838 -1414795730
            561463334 1463795583 1617182724 1090863104</internalNodes>
          <leafValues>
            -9.1562902927398682e-01 -3.2919657230377197e-01
            -8.2643520832061768e-01 2.7470546960830688e-01
            -9.0182137489318848e-01 1.6475661098957062e-01
            -4.3958353996276855e-01 6.9216459989547729e-01
            -8.1780785322189331e-01 5.1121497154235840e-01
            -6.3857877254486084e-01 5.4251611232757568e-01
            -7.6953744888305664e-01 3.6247220635414124e-01
            -4.5577681064605713e-01 7.2405189275741577e-01</leafValues></_></weakClassifiers></_>
    <!-- stage 6 -->
    <_>
      <maxWeakCount>3</maxWeakCount>
      <stageThreshold>-1.2957587242126465e+00</stageThreshold>
      <weakClassifiers>
        <_>
          <internalNodes>
            1 2 168 -150994945 -2113537 -1075970561 -1048617 1157317887
            -1155333 -696321 -32897 3 4 213 -1 -1057 -2630145 -1 -1092
            -16385 -1359017844 -1426064641 5 6 95 1896215808 -134877723
            -1283237557 -34089829 -342377537 -87449464 -1992169309
            -73668450 7 8 61 -4849665 -6741286 -11077893 -712010
            -538189829 -268774406 -35684353 -34953 9 10 22 -145753345
            -924672826 -1957750629 -293448832 -1702128961 1670095043
            -2135962689 -1082585 11 12 233 -706745537 2031599711
            -1065160233 1325523275 -522378744 1129078857 -1332888566
            -606076961 13 14 196 -608436500 -756220036 679072416
            137411494 -33820950 -453136900 -56891392 59402 0 -1 189
            -617745414 1299504492 -154217605 -176948257 -4725112
            -194446601 -820781502 -273678341 -2 -3 66 -749209618
            -201468994 -508305174 -606077958 1963326205 -942554476
            -1113474854 -4996869 -4 -5 223 -603982861 -1794715221
            -869496489 -1644720989 -1877222525 -125058936 -1035798144
            -289407029 -6 -7 81 1431676292 -102903800 -33554435
            1577053563 -172457987 1608548341 -1 -1120403971 -8 -9 173
            -639894529 -51280495 285852623 -544220717 -242355713
            -136642328 -1181762629 -1161971537 -10 -11 98 -778721914
            -788496236 16779289 1698742336 648 -1073672192 1207992778
            868821706 -12 -13 21 -248006857 -985221045 1078002131
            -1560231936 -2013101873 -1811775480 -1072852069 -671634959
            -14 -15 51 100728543 782696171 2138570735 61422 2147352567
            -1572865 1072168958 18153326</internalNodes>
          <leafValues>
            -9.3096536397933960e-01 -7.0720863342285156e-01
            -7.5792878866195679e-01 8.9887641370296478e-03
            -8.5337245464324951e-01 -6.5088756382465363e-02
            -4.6695095300674438e-01 6.1344540119171143e-01
            -8.7346220016479492e-01 7.9646021127700806e-02
            -7.4193549156188965e-01 6.1344540119171143e-01
            -7.7477478981018066e-01 3.7634408473968506e-01
            -6.3043481111526489e-01 7.9420667886734009e-01</leafValues></_>
        <_>
          <internalNodes>
            1 2 128 -1426310795 -1107526145 -24577 -1074102345 -67305539
            -147457 -65 -1162331336 3 4 124 -42721995 1006436223 -1
            -75595777 -1090749955 -1073807361 -180225 -328195 5 6 230
            -152050944 919664455 -1365578869 -65 2038371106 589772658
            -1951431894 -201851141 7 8 162 -237502465 -533537 -538198049
            -145886593 -235604481 -140481 -17432609 -20753 9 10 215
            -697307136 886874092 1024393088 2107624443 -225707113
            -1282815613 -105121042 -1342445073 11 12 6 -386929974
            1146449637 -603569682 -545997666 1978291831 4675739
            -443069840 -42074117 13 14 112 -139423796 -5247236
            2080205422 -68227350 -1073758321 -1048593 -1115706742
            -80762230 0 -1 55 -3147009 2146434815 -21038353 -135995697
            1601945599 -538870999 -77597185 -829841 -2 -3 24 1241768003
            -1249869821 90946 -418143998 -1071864576 -1878917118
            -1065324470 -628661625 -4 -5 208 -10487825 -106987193
            -1291661049 -140548533 -102766601 -62668405 -121652741
            -4197377 -6 -7 43 1996619503 80006730 -801025835 33980608
            1239571844 1715724507 -1033517024 1472323820 -8 -9 127
            -204081170 2103431903 1925834371 -536872710 -1282024977
            -905936758 1792016174 -539120165 -10 -11 108 -1178339844
            -586299309 16877659 -1309291464 1376319916 -13939644
            466323927 768034727 -12 -13 110 -179604033 -1319388242
            85706368 -81820789 -1073631057 139403 -1171721462 1086540706
            -14 -15 94 246295200 968785775 268316410 1069530857
            792608698 1006583807 1072578366 767364469</internalNodes>
          <leafValues>
            -9.0073567628860474e-01 -4.3830186128616333e-01
            -7.7347886562347412e-01 5.8558303117752075e-01
            -8.6725002527236938e-01 4.4451436400413513e-01
            -7.1210044622421265e-01 4.8130747675895691e-01
            -8.1973993778228760e-01 -1.4622205495834351e-01
            -4.8891893029212952e-01 4.5059496164321899e-01
            -7.3479431867599487e-01 3.0124625563621521e-01
            -4.9946999549865723e-01 7.3682326078414917e-01</leafValues></_>
        <_>
          <internalNodes>
            1 2 220 -2146499 -2228769 -337708099 -42221633 -33685660
            -1116212613 -289539212 -21299265 3 4 145 -134482009
            598734775 2077864279 -301998609 -1146421889 654702971
            2072507319 -134223873 5 6 200 1086361230 1363181551
            -390533378 2134048607 -137189494 -42637314 2080095675
            -549386273 7 8 137 -4718593 1448898549 -545448400 -369632331
            -651297861 75713166 -1615864913 -100671685 9 10 47 -566753
            -782867105 1444543572 944770578 973855060 -808748485
            1028051716 -618510766 11 12 92 1591394234 -212231785
            -1770937345 1573294243 -1001261922 -2138796928 -1161696001
            -404251761 13 14 75 737816361 1059830327 682535738
            -1422218710 1073692466 -1077952577 -1346684102 993930794 0
            -1 188 -687865861 1943984493 -607137285 -1648361513
            -69469249 -1113065043 -3154177 -67108897 -2 -3 48 -698354755
            -49556969 542950750 -1231892477 -804624055 -1851281408
            -99028625 -1104737958 -4 -5 80 -537141249 -40160781
            -705617271 1029640763 -87796996 -1359475313 -139826949
            -537986241 -6 -7 119 679642030 -438898474 -922663483
            -362905396 -795430424 -670693246 774565002 -1460786550 -8 -9
            146 -249572353 -199374845 -854277385 -313027749 -36467201
            2031759369 -1526407553 -537395205 -10 -11 29 -2031625906
            1608384944 -1609891768 816251094 1636048962 411206149
            1629718604 -45953023 -12 -13 183 2039870455 286334993
            811631157 -1073709056 -99894842 1946880257 -1313879266
            1528803435 -14 -15 161 -353464830 178978790 -823474048
            14871300 -134775037 2013265919 -948550396 -1029312956</internalNodes>
          <leafValues>
            -8.4610086679458618e-01 -3.5885325632989407e-03
            -6.9698411226272583e-01 4.5396286249160767e-01
            -7.3554855585098267e-01 3.2924047112464905e-01
            -6.5854269266128540e-01 5.0398051738739014e-01
            -8.6295199394226074e-01 2.3467722535133362e-01
            -7.2575992345809937e-01 5.0851899385452271e-01
            -8.8958412408828735e-01 3.9726060628890991e-01
            -1.1469326913356781e-01 7.8571200370788574e-01</leafValues></_></weakClassifiers></_></stages>
  <features>
    <_>
      <rect>
        0 0 4 5</rect></_>
    <_>
      <rect>
        0 1 5 7</rect></_>
    <_>
      <rect>
        0 2 8 7</rect></_>
    <_>
      <rect>
        0 3 6 5</rect></_>
    <_>
      <rect>
        0 3 6 7</rect></_>
    <_>
      <rect>
        0 5 14 10</rect></_>
    <_>
      <rect>
        0 8 3 6</rect></_>
    <_>
      <rect>
        0 8 4 4</rect></_>
    <_>
      <rect>
        0 20 6 7</rect></_>
    <_>
      <rect>
        0 21 6 7</rect></_>
    <_>
      <rect>
        0 27 6 6</rect></_>
    <_>
      <rect>
        1 2 5 4</rect></_>
    <_>
      <rect>
        1 6 5 9</rect></_>
    <_>
      <rect>
        1 9 7 9</rect></_>
    <_>
      <rect>
        1 9 9 8</rect></_>
    <_>
      <rect>
        1 10 8 3</rect></_>
    <_>
      <rect>
        1 13 2 3</rect></_>
    <_>
      <rect>
        1 25 5 4</rect></_>
    <_>
      <rect>
        2 0 7 4</rect></_>
    <_>
      <rect>
        2 0 13 16</rect></_>
    <_>
      <rect>
        2 2 3 2</rect></_>
    <_>
      <rect>
        2 3 4 5</rect></_>
    <_>
      <rect>
        2 3 5 4</rect></_>
    <_>
      <rect>
        2 4 9 10</rect></_>
    <_>
      <rect>
        2 5 3 8</rect></_>
    <_>
      <rect>
        2 8 8 10</rect></_>
    <_>
      <rect>
        2 10 2 3</rect></_>
    <_>
      <rect>
        2 11 4 4</rect></_>
    <_>
      <rect>
        2 12 7 7</rect></_>
    <_>
      <rect>
        2 17 7 5</rect></_>
    <_>
      <rect>
        2 19 3 3</rect></_>
    <_>
      <rect>
        2 26 6 6</rect></_>
    <_>
      <rect>
        2 30 6 3</rect></_>
    <_>
      <rect>
        3 0 3 7</rect></_>
    <_>
      <rect>
        3 0 4 4</rect></_>
    <_>
      <rect>
        3 1 4 3</rect></_>
    <_>
      <rect>
        3 3 8 10</rect></_>
    <_>
      <rect>
        3 12 7 6</rect></_>
    <_>
      <rect>
        3 16 2 4</rect></_>
    <_>
      <rect>
        3 17 11 7</rect></_>
    <_>
      <rect>
        3 20 5 7</rect></_>
    <_>
      <rect>
        4 2 4 6</rect></_>
    <_>
      <rect>
        4 3 4 2</rect></_>
    <_>
      <rect>
        4 4 7 9</rect></_>
    <_>
      <rect>
        4 4 12 9</rect></_>
    <_>
      <rect>
        4 6 11 4</rect></_>
    <_>
      <rect>
        4 8 7 8</rect></_>
    <_>
      <rect>
        4 19 4 7</rect></_>
    <_>
      <rect>
        4 26 4 3</rect></_>
    <_>
      <rect>
        5 0 3 3</rect></_>
    <_>
      <rect>
        5 0 5 4</rect></_>
    <_>
      <rect>
        5 0 7 10</rect></_>
    <_>
      <rect>
        5 9 7 4</rect></_>
    <_>
      <rect>
        5 14 4 5</rect></_>
    <_>
      <rect>
        5 19 6 4</rect></_>
    <_>
      <rect>
        5 29 6 3</rect></_>
    <_>
      <rect>
        6 1 6 13</rect></_>
    <_>
      <rect>
        6 1 14 14</rect></_>
    <_>
      <rect>
        6 2 4 3</rect></_>
    <_>
      <rect>
        6 6 7 3</rect></_>
    <_>
      <rect>
        6 10 6 7</rect></_>
    <_>
      <rect>
        6 11 3 2</rect></_>
    <_>
      <rect>
        6 12 7 10</rect></_>
    <_>
      <rect>
        6 13 6 11</rect></_>
    <_>
      <rect>
        6 14 10 2</rect></_>
    <_>
      <rect>
        6 15 3 3</rect></_>
    <_>
      <rect>
        6 16 6 5</rect></_>
    <_>
      <rect>
        7 0 3 3</rect></_>
    <_>
      <rect>
        7 3 10 9</rect></_>
    <_>
      <rect>
        7 4 6 14</rect></_>
    <_>
      <rect>
        7 7 4 3</rect></_>
    <_>
      <rect>
        7 7 10 5</rect></_>
    <_>
      <rect>
        7 7 13 13</rect></_>
    <_>
      <rect>
        7 8 6 5</rect></_>
    <_>
      <rect>
        7 8 7 4</rect></_>
    <_>
      <rect>
        7 9 9 4</rect></_>
    <_>
      <rect>
        7 10 3 3</rect></_>
    <_>
      <rect>
        7 10 5 8</rect></_>
    <_>
      <rect>
        7 10 6 3</rect></_>
    <_>
      <rect>
        7 26 3 4</rect></_>
    <_>
      <rect>
        7 28 6 6</rect></_>
    <_>
      <rect>
        8 6 5 12</rect></_>
    <_>
      <rect>
        8 9 10 4</rect></_>
    <_>
      <rect>
        9 5 9 6</rect></_>
    <_>
      <rect>
        9 7 4 10</rect></_>
    <_>
      <rect>
        9 9 2 4</rect></_>
    <_>
      <rect>
        9 9 9 4</rect></_>
    <_>
      <rect>
        9 13 6 3</rect></_>
    <_>
      <rect>
        9 14 2 2</rect></_>
    <_>
      <rect>
        10 0 8 8</rect></_>
    <_>
      <rect>
        10 3 10 7</rect></_>
    <_>
      <rect>
        10 5 9 6</rect></_>
    <_>
      <rect>
        10 8 9 6</rect></_>
    <_>
      <rect>
        10 11 1 1</rect></_>
    <_>
      <rect>
        10 12 3 2</rect></_>
    <_>
      <rect>
        10 13 4 5</rect></_>
    <_>
      <rect>
        11 2 4 7</rect></_>
    <_>
      <rect>
        11 6 5 6</rect></_>
    <_>
      <rect>
        11 8 2 4</rect></_>
    <_>
      <rect>
        11 8 11 4</rect></_>
    <_>
      <rect>
        11 11 1 1</rect></_>
    <_>
      <rect>
        11 11 1 2</rect></_>
    <_>
      <rect>
        11 12 1 1</rect></_>
    <_>
      <rect>
        11 12 5 8</rect></_>
    <_>
      <rect>
        11 13 5 2</rect></_>
    <_>
      <rect>
        11 14 5 2</rect></_>
    <_>
      <rect>
        12 1 8 6</rect></_>
    <_>
      <rect>
        12 11 1 1</rect></_>
    <_>
      <rect>
        12 11 2 2</rect></_>
    <_>
      <rect>
        12 12 1 1</rect></_>
    <_>
      <rect>
        12 15 6 8</rect></_>
    <_>
      <rect>
        12 17 5 3</rect></_>
    <_>
      <rect>
        13 2 7 6</rect></_>
    <_>
      <rect>
        13 3 9 7</rect></_>
    <_>
      <rect>
        13 4 4 6</rect></_>
    <_>
      <rect>
        13 8 1 1</rect></_>
    <_>
      <rect>
        13 11 2 1</rect></_>
    <_>
      <rect>
        13 12 4 2</rect></_>
    <_>
      <rect>
        13 12 7 10</rect></_>
    <_>
      <rect>
        14 0 5 7</rect></_>
    <_>
      <rect>
        14 2 9 14</rect></_>
    <_>
      <rect>
        14 3 7 5</rect></_>
    <_>
      <rect>
        14 7 3 5</rect></_>
    <_>
      <rect>
        14 8 7 3</rect></_>
    <_>
      <rect>
        14 9 1 1</rect></_>
    <_>
      <rect>
        14 14 1 1</rect></_>
    <_>
      <rect>
        15 3 7 7</rect></_>
    <_>
      <rect>
        15 6 6 9</rect></_>
    <_>
      <rect>
        15 8 1 1</rect></_>
    <_>
      <rect>
        15 9 6 13</rect></_>
    <_>
      <rect>
        15 13 9 9</rect></_>
    <_>
      <rect>
        15 14 1 1</rect></_>
    <_>
      <rect>
        15 14 3 2</rect></_>
    <_>
      <rect>
        15 16 9 5</rect></_>
    <_>
      <rect>
        16 16 1 1</rect></_>
    <_>
      <rect>
        16 18 8 9</rect></_>
    <_>
      <rect>
        17 0 2 6</rect></_>
    <_>
      <rect>
        17 12 3 8</rect></_>
    <_>
      <rect>
        18 0 4 10</rect></_>
    <_>
      <rect>
        18 1 9 8</rect></_>
    <_>
      <rect>
        18 2 9 8</rect></_>
    <_>
      <rect>
        18 5 2 4</rect></_>
    <_>
      <rect>
        18 7 2 3</rect></_>
    <_>
      <rect>
        18 10 4 2</rect></_>
    <_>
      <rect>
        18 14 3 4</rect></_>
    <_>
      <rect>
        18 15 2 1</rect></_>
    <_>
      <rect>
        18 16 6 9</rect></_>
    <_>
      <rect>
        19 8 1 2</rect></_>
    <_>
      <rect>
        19 11 6 10</rect></_>
    <_>
      <rect>
        19 12 8 9</rect></_>
    <_>
      <rect>
        20 8 1 2</rect></_>
    <_>
      <rect>
        20 9 7 12</rect></_>
    <_>
      <rect>
        20 11 3 5</rect></_>
    <_>
      <rect>
        20 36 2 2</rect></_>
    <_>
      <rect>
        21 4 9 8</rect></_>
    <_>
      <rect>
        21 6 8 14</rect></_>
    <_>
      <rect>
        21 7 9 11</rect></_>
    <_>
      <rect>
        21 11 2 2</rect></_>
    <_>
      <rect>
        21 11 5 3</rect></_>
    <_>
      <rect>
        21 12 2 5</rect></_>
    <_>
      <rect>
        21 13 2 1</rect></_>
    <_>
      <rect>
        21 13 2 2</rect></_>
    <_>
      <rect>
        21 13 6 8</rect></_>
    <_>
      <rect>
        21 14 6 2</rect></_>
    <_>
      <rect>
        21 14 6 5</rect></_>
    <_>
      <rect>
        22 3 6 14</rect></_>
    <_>
      <rect>
        22 11 1 2</rect></_>
    <_>
      <rect>
        22 11 3 3</rect></_>
    <_>
      <rect>
        22 13 5 2</rect></_>
    <_>
      <rect>
        22 13 6 4</rect></_>
    <_>
      <rect>
        22 14 1 1</rect></_>
    <_>
      <rect>
        22 15 5 6</rect></_>
    <_>
      <rect>
        22 16 1 1</rect></_>
    <_>
      <rect>
        22 18 5 3</rect></_>
    <_>
      <rect>
        23 0 4 9</rect></_>
    <_>
      <rect>
        23 1 3 7</rect></_>
    <_>
      <rect>
        23 5 6 6</rect></_>
    <_>
      <rect>
        23 8 5 7</rect></_>
    <_>
      <rect>
        23 8 6 5</rect></_>
    <_>
      <rect>
        23 9 5 5</rect></_>
    <_>
      <rect>
        23 10 5 4</rect></_>
    <_>
      <rect>
        23 11 4 2</rect></_>
    <_>
      <rect>
        23 20 7 5</rect></_>
    <_>
      <rect>
        24 2 6 11</rect></_>
    <_>
      <rect>
        24 4 8 12</rect></_>
    <_>
      <rect>
        24 9 3 4</rect></_>
    <_>
      <rect>
        24 15 1 1</rect></_>
    <_>
      <rect>
        24 21 8 4</rect></_>
    <_>
      <rect>
        24 26 8 4</rect></_>
    <_>
      <rect>
        25 3 7 14</rect></_>
    <_>
      <rect>
        25 19 7 4</rect></_>
    <_>
      <rect>
        26 0 5 3</rect></_>
    <_>
      <rect>
        26 7 7 11</rect></_>
    <_>
      <rect>
        26 9 7 7</rect></_>
    <_>
      <rect>
        26 11 4 7</rect></_>
    <_>
      <rect>
        26 12 5 8</rect></_>
    <_>
      <rect>
        26 16 6 6</rect></_>
    <_>
      <rect>
        27 2 1 1</rect></_>
    <_>
      <rect>
        27 6 7 10</rect></_>
    <_>
      <rect>
        27 9 5 9</rect></_>
    <_>
      <rect>
        27 12 4 6</rect></_>
    <_>
      <rect>
        28 0 5 3</rect></_>
    <_>
      <rect>
        28 3 6 12</rect></_>
    <_>
      <rect>
        28 11 4 5</rect></_>
    <_>
      <rect>
        29 0 6 6</rect></_>
    <_>
      <rect>
        29 8 6 9</rect></_>
    <_>
      <rect>
        29 11 6 9</rect></_>
    <_>
      <rect>
        29 12 4 7</rect></_>
    <_>
      <rect>
        29 16 6 10</rect></_>
    <_>
      <rect>
        29 18 6 7</rect></_>
    <_>
      <rect>
        30 0 5 2</rect></_>
    <_>
      <rect>
        30 1 6 8</rect></_>
    <_>
      <rect>
        30 2 6 12</rect></_>
    <_>
      <rect>
        30 4 5 4</rect></_>
    <_>
      <rect>
        30 5 6 7</rect></_>
    <_>
      <rect>
        31 12 5 6</rect></_>
    <_>
      <rect>
        32 0 5 9</rect></_>
    <_>
      <rect>
        32 7 5 8</rect></_>
    <_>
      <rect>
        32 8 5 10</rect></_>
    <_>
      <rect>
        32 26 5 4</rect></_>
    <_>
      <rect>
        33 1 3 2</rect></_>
    <_>
      <rect>
        33 11 5 3</rect></_>
    <_>
      <rect>
        33 16 1 1</rect></_>
    <_>
      <rect>
        33 18 5 5</rect></_>
    <_>
      <rect>
        33 24 4 5</rect></_>
    <_>
      <rect>
        33 25 5 4</rect></_>
    <_>
      <rect>
        35 1 2 2</rect></_>
    <_>
      <rect>
        35 1 3 3</rect></_>
    <_>
      <rect>
        35 4 4 1</rect></_>
    <_>
      <rect>
        36 0 4 4</rect></_>
    <_>
      <rect>
        36 3 4 8</rect></_>
    <_>
      <rect>
        36 23 4 5</rect></_>
    <_>
      <rect>
        37 1 3 11</rect></_>
    <_>
      <rect>
        38 0 3 7</rect></_>
    <_>
      <rect>
        38 14 3 4</rect></_>
    <_>
      <rect>
        40 18 2 3</rect></_>
    <_>
      <rect>
        41 9 2 5</rect></_>
    <_>
      <rect>
        42 12 2 5</rect></_></features></cascade>
</opencv_storage>
