<?xml version="1.0"?>
<opencv_storage>
<stage7>
  <maxWeakCount>3</maxWeakCount>
  <stageThreshold>-1.5057616233825684e+00</stageThreshold>
  <weakClassifiers>
    <_>
      <internalNodes>
        1 2 54358 -11141121 -774508064 -71835929 -705302315 -78644993
        -2760705 -40894737 -1050625 3 4 2119 -4097 -2232577 -12375281
        -69341733 -69468161 -1310721 -74055681 -1 5 6 98726 1154803199
        -1081345 -4097 -5 3408127 -34817 872088575 -61697 7 8 104615 -1
        -536871425 -202376193 -4194321 -72351745 -4985937 -134221841
        -1054937 9 10 19560 -2058287683 -665779823 -2129362799 -40558207
        -1602224099 -1065336640 -1937429960 -542633708 11 12 24419
        -691612677 -574424073 -1642652173 -184494846 -1333929729
        -605892354 -1999643193 -526219 13 14 83 -1431371778 -1440546834
        1341718527 -295653656 1172831739 1190326262 268105703 -570429441
        0 -1 55384 -21037569 -4983816 -2108673 -592016 -1176648705
        -17830145 -1207980037 -43660 -2 -3 128582 -774376001 -179961727
        -1069462761 -799718567 1968221743 762150936 -1610183634
        -1346385157 -4 -5 104203 -179838721 -1047199735 -2109718390
        -1824325627 -520560130 -1987620480 549961914 -271584049 -6 -7
        113654 -261098328 -1656946945 -29427852 1047133176 -37749276
        -1221067268 -813712846 456190516 -8 -9 113923 1952012543
        -44063429 773017823 -940244469 1473327551 -71606126 -626077969
        -73405521 -10 -11 113011 285313279 1375785349 1157629121
        -654278656 272820616 2064138240 454002764 957179206 -12 -13
        38810 -2020444393 -837270525 352395527 -1493106431 -2011856895
        -1967062912 -1602184943 -1080866555 -14 -15 71227 -18006272
        -89194922 -37781916 -16777218 -33718976 -34111625 1023245648
        2088697339</internalNodes>
      <leafValues>
        -8.7361466884613037e-01 -5.7722467184066772e-01
        -6.5048545598983765e-01 2.7137547731399536e-01
        -7.8119659423828125e-01 4.2307692766189575e-01
        -4.3589743971824646e-01 7.4183005094528198e-01
        -8.5505008697509766e-01 -7.6923079788684845e-02
        -6.4102566242218018e-01 5.2595937252044678e-01
        -6.7198175191879272e-01 4.5528456568717957e-01
        -3.2051283121109009e-01 8.8255035877227783e-01</leafValues></_>
    <_>
      <internalNodes>
        1 2 88017 -2105345 -565305 2136471543 -549881001 -54534177
        -4202745 -2097153 -1440022529 3 4 136559 -268959817 -965479545
        -1866 -269500954 1199563495 -1917197785 1675064864 -402656797 5
        6 55828 1359345408 -148767011 1475439776 -537034763 903198141
        -537591843 2124414461 -537547307 7 8 128951 -54534315 920510271
        -1348599841 -1209010189 -9000 -8651466 -1196900712 -1426325505 9
        10 108054 -228989185 -172844725 -1035678337 -81855655 182011615
        -99904785 -20230168 -17479826 11 12 102239 -221974017 -16282737
        1604383187 -175976161 542198269 -40918134 -1083220993 -3445090
        13 14 1006 -1372657765 547549162 -286263726 1084419008
        -411044585 21364607 -704650703 1154471355 0 -1 121728 -572522573
        -1183495 -337642503 -135266533 -2098177 -1080317185 2146156195
        -262661 -2 -3 67864 -646325517 -614804720 1279579509 -1063264005
        -528285143 -2013036416 -346693315 -579388513 -4 -5 61530
        -204584806 -740306055 1971435309 -537431147 -1730004806
        1488129019 1931104079 1275004939 -6 -7 15599 -677556134
        -102477674 -1039925238 -1562336670 -1050836350 1173659688
        -1719663613 1363493444 -8 -9 30691 -612370465 -273819169
        -879765249 -305357427 -2136362289 -1182553969 -500534789
        -9438981 -10 -11 120299 -2143178196 -1778335655 1359024466
        -922632192 -1828222720 209821896 -1442643424 -1509426386 -12 -13
        1040 -965483865 -2098740705 -1005555712 1107656731 -1961766217
        -400326238 -1290702590 -187446614 -14 -15 113201 8910 905068415
        -1073741834 939491327 268110762 1073709055 1878985740 615523653</internalNodes>
      <leafValues>
        -8.7149339914321899e-01 -2.7169027924537659e-01
        -6.1465722322463989e-01 2.6628178358078003e-01
        -7.9031288623809814e-01 -5.8536035940051079e-03
        -6.9427454471588135e-01 5.1714557409286499e-01
        -7.9374361038208008e-01 1.3134816288948059e-01
        -6.3287001848220825e-01 5.8227479457855225e-01
        -5.9955614805221558e-01 4.5721822977066040e-01
        -4.9304068088531494e-01 7.5932168960571289e-01</leafValues></_>
    <_>
      <internalNodes>
        1 2 55277 -203425842 -704645203 -855916565 -704807009
        -1611681825 -1073778969 -271612753 738195375 3 4 103416
        783817845 -1879281795 -134811651 -1095098379 -677822467
        -1140999171 -1124143178 -1097318824 5 6 102013 -319347196
        754905079 -352342418 -1360490834 -1073908429 -2097297 -142645468
        -152058624 7 8 139846 -538181705 -85983297 -2005034660
        -268449313 -577393161 -63444849 -93916811 -67635589 9 10 5048
        -218644738 -750539109 -1270845796 304280679 -227116428
        -716784773 -745086997 -532194693 11 12 37458 -77926409
        -755773289 -184321073 -1194163050 -202515746 -1714281911
        -350064162 -144451717 13 14 120824 524 306205532 -945862449
        1977381086 1120669406 1070467231 1603800602 1001531935 0 -1
        119293 -2107649 -538975299 -136344579 -67108873 -71565313
        -1900037957 -170926885 -2097153 -2 -3 12282 -86141357 1958881619
        -402230915 13222081 -796735213 1501560843 352378987 -607389479
        -4 -5 3388 -67376129 1990110807 -2108765601 -656617006
        -124887211 -193806041 -1342440769 -956565278 -6 -7 45842
        1364317408 1145624656 -1071588764 -844208961 239901475
        2003404960 445166 1369254383 -8 -9 45381 -201326865 -170660355
        1377013899 -308283349 -1165315221 -72377947 -2138603365 -529 -10
        -11 99674 -347175969 -712732669 335546514 -134183466 -2141683063
        -2146172923 -1056796070 130519467 -12 -13 72023 -788400513
        -743061115 -1609869097 -11021873 1208582847 -11960271 -643073409
        -5383521 -14 -15 130501 -936460288 -1931150049 -1128747612
        19914216 -411618560 1367342003 640229920 -1396709445</internalNodes>
      <leafValues>
        -8.9599919319152832e-01 -2.7613366022706032e-02
        -8.0104762315750122e-01 4.5572313666343689e-01
        -7.9674232006072998e-01 -1.5003960579633713e-03
        -5.5735933780670166e-01 4.4933363795280457e-01
        -8.7149590253829956e-01 1.8909160792827606e-01
        -6.2886887788772583e-01 6.9373393058776855e-01
        -8.2358235120773315e-01 5.0014603137969971e-01
        -5.7043515145778656e-02 7.0306617021560669e-01</leafValues></_></weakClassifiers></stage7>
</opencv_storage>
