<?xml version="1.0"?>
<opencv_storage>
<cascade>
  <stageType>BOOST</stageType>
  <featureType>LBP</featureType>
  <height>48</height>
  <width>48</width>
  <stageParams>
    <boostType>GAB</boostType>
    <minHitRate>9.9500000476837158e-01</minHitRate>
    <maxFalseAlarm>5.0000000000000000e-01</maxFalseAlarm>
    <weightTrimRate>9.4999999999999996e-01</weightTrimRate>
    <maxDepth>1</maxDepth>
    <maxWeakCount>100</maxWeakCount></stageParams>
  <featureParams>
    <maxCatCount>256</maxCatCount>
    <featSize>1</featSize></featureParams>
  <stageNum>13</stageNum>
  <stages>
    <!-- stage 0 -->
    <_>
      <maxWeakCount>3</maxWeakCount>
      <stageThreshold>-1.2341481447219849e+00</stageThreshold>
      <weakClassifiers>
        <_>
          <internalNodes>
            0 -1 57 -20817 -2118741 -1963359574 -6315478 -71323713
            -71329553 -1145066838 -72373590</internalNodes>
          <leafValues>
            -8.7369936704635620e-01 6.5766108036041260e-01</leafValues></_>
        <_>
          <internalNodes>
            0 -1 41 -733952768 -198712 -53619232 -2100271 -716122115
            -4859408 -84017153 -1</internalNodes>
          <leafValues>
            -7.9399663209915161e-01 5.7872545719146729e-01</leafValues></_>
        <_>
          <internalNodes>
            0 -1 73 -3216702 -2101266 -297800562 -556872820 -85987446
            -604030214 -341390708 -326180214</internalNodes>
          <leafValues>
            -7.5435173511505127e-01 4.3354782462120056e-01</leafValues></_></weakClassifiers></_>
    <!-- stage 1 -->
    <_>
      <maxWeakCount>6</maxWeakCount>
      <stageThreshold>-1.7758421897888184e+00</stageThreshold>
      <weakClassifiers>
        <_>
          <internalNodes>
            0 -1 25 -1 -4196353 -10493985 800042927 -1 -1 -1 1073741823</internalNodes>
          <leafValues>
            -8.3335119485855103e-01 4.8828193545341492e-01</leafValues></_>
        <_>
          <internalNodes>
            0 -1 44 -201344325 -8409345 2111742138 -7361878 -67125313
            -513 -356537685 -21845</internalNodes>
          <leafValues>
            -6.5480542182922363e-01 5.3552955389022827e-01</leafValues></_>
        <_>
          <internalNodes>
            0 -1 7 -496843066 -2132088978 -28856405 -487610410
            -228109979 -277547009 -294913 -67109185</internalNodes>
          <leafValues>
            -6.4506095647811890e-01 3.8643363118171692e-01</leafValues></_>
        <_>
          <internalNodes>
            0 -1 94 -1437618393 -1360068689 -537985502 -1427193874
            -2130057 -34607105 -6396 -285286722</internalNodes>
          <leafValues>
            -5.8476698398590088e-01 4.0519562363624573e-01</leafValues></_>
        <_>
          <internalNodes>
            0 -1 64 -321601708 -81953 -1074331649 -169935363 -52298763
            -4194371 -151650308 -51352364</internalNodes>
          <leafValues>
            -4.9580022692680359e-01 4.6916458010673523e-01</leafValues></_>
        <_>
          <internalNodes>
            0 -1 133 -850931456 1151661874 -1541881584 -419797257
            -524873455 1798830066 -221055743 -8913293</internalNodes>
          <leafValues>
            -5.5766481161117554e-01 4.0644803643226624e-01</leafValues></_></weakClassifiers></_>
    <!-- stage 2 -->
    <_>
      <maxWeakCount>7</maxWeakCount>
      <stageThreshold>-1.9410438537597656e+00</stageThreshold>
      <weakClassifiers>
        <_>
          <internalNodes>
            0 -1 39 -538968065 -2228225 -1081243205 -4216133 -639778881
            -135169 -1346389061 -21589</internalNodes>
          <leafValues>
            -6.9221013784408569e-01 6.6717171669006348e-01</leafValues></_>
        <_>
          <internalNodes>
            0 -1 54 290846515 825303857 -2237441 1067449331 -1
            -1077952513 -4349953 -1</internalNodes>
          <leafValues>
            -5.9846776723861694e-01 5.1855462789535522e-01</leafValues></_>
        <_>
          <internalNodes>
            0 -1 103 1609957341 -524297 2011069439 -2098177 264700620
            -1073742913 245566029 2145341135</internalNodes>
          <leafValues>
            -5.1830446720123291e-01 4.5466983318328857e-01</leafValues></_>
        <_>
          <internalNodes>
            0 -1 72 -1430896779 -1132711937 -69763073 -1073992705
            -83952131 -67109185 -1048643 -1162315984</internalNodes>
          <leafValues>
            -5.2490234375000000e-01 4.0610566735267639e-01</leafValues></_>
        <_>
          <internalNodes>
            0 -1 20 -1366642693 -2107180546 -536870945 -1494318408
            1277033983 1844902399 -410009601 -838861105</internalNodes>
          <leafValues>
            -4.3930131196975708e-01 4.5625305175781250e-01</leafValues></_>
        <_>
          <internalNodes>
            0 -1 83 -823210393 -864764961 -291835905 -1430851589
            -54530097 -1090552833 -608261393 -387260246</internalNodes>
          <leafValues>
            -4.8176720738410950e-01 3.9483389258384705e-01</leafValues></_>
        <_>
          <internalNodes>
            0 -1 130 -541081600 -530661377 -1687699751 -312475815
            459756304 -84547073 -185401088 -1073742029</internalNodes>
          <leafValues>
            -4.9933055043220520e-01 3.8290134072303772e-01</leafValues></_></weakClassifiers></_>
    <!-- stage 3 -->
    <_>
      <maxWeakCount>8</maxWeakCount>
      <stageThreshold>-1.6447988748550415e+00</stageThreshold>
      <weakClassifiers>
        <_>
          <internalNodes>
            0 -1 63 -2097153 -1077936197 -36315137 -1077936129 -2105345
            -1145307201 -7348481 -1145046085</internalNodes>
          <leafValues>
            -6.7974227666854858e-01 4.8897886276245117e-01</leafValues></_>
        <_>
          <internalNodes>
            0 -1 98 -134217729 -302081 -33554433 -2400257 1615544575
            -71327745 1911374079 2013216803</internalNodes>
          <leafValues>
            -6.1218512058258057e-01 4.6046152710914612e-01</leafValues></_>
        <_>
          <internalNodes>
            0 -1 30 -179964480 -134219845 -1111493329 -169871746
            1901459383 -545010177 -648023557 -3841</internalNodes>
          <leafValues>
            -4.8304548859596252e-01 4.2732477188110352e-01</leafValues></_>
        <_>
          <internalNodes>
            0 -1 68 -137958707 -2561 720142542 -68226322 -1103384657
            -67108897 -1109267730 -101848434</internalNodes>
          <leafValues>
            -4.8817789554595947e-01 3.9766874909400940e-01</leafValues></_>
        <_>
          <internalNodes>
            0 -1 115 -1170227947 -1612103777 -268439811 -1073741889
            532647940 -4219555 -1462958076 -1358955841</internalNodes>
          <leafValues>
            -4.1924360394477844e-01 4.5220613479614258e-01</leafValues></_>
        <_>
          <internalNodes>
            0 -1 78 -1159848067 -1090601093 -6324481 -1301357315
            -889201795 -2119759 -2294019 -1125065740</internalNodes>
          <leafValues>
            -5.3640604019165039e-01 3.0693557858467102e-01</leafValues></_>
        <_>
          <internalNodes>
            0 -1 58 779108112 -63103553 -104898563 -1109772455
            -1093812547 -19541043 -1883643916 -1075307260</internalNodes>
          <leafValues>
            -5.3032213449478149e-01 3.0717360973358154e-01</leafValues></_>
        <_>
          <internalNodes>
            0 -1 11 -1361055745 -1896957828 -842549767 -957442094
            -1897926661 1149218235 -941149233 -805317257</internalNodes>
          <leafValues>
            -4.2651918530464172e-01 3.8953238725662231e-01</leafValues></_></weakClassifiers></_>
    <!-- stage 4 -->
    <_>
      <maxWeakCount>9</maxWeakCount>
      <stageThreshold>-1.9139627218246460e+00</stageThreshold>
      <weakClassifiers>
        <_>
          <internalNodes>
            0 -1 56 -2098177 -539497505 -152901 -152865 -100803649
            -570556961 -73682245 -2121045</internalNodes>
          <leafValues>
            -6.5956223011016846e-01 4.0794065594673157e-01</leafValues></_>
        <_>
          <internalNodes>
            0 -1 65 -536870989 62615859 -9046575 1073739763 -2359809
            -1140850753 -1179649 -1</internalNodes>
          <leafValues>
            -5.2475762367248535e-01 4.4870999455451965e-01</leafValues></_>
        <_>
          <internalNodes>
            0 -1 0 -271585281 -521208322 -38142993 -285291778 -269500673
            1089993707 -1610746113 -671091201</internalNodes>
          <leafValues>
            -4.5650404691696167e-01 4.0577623248100281e-01</leafValues></_>
        <_>
          <internalNodes>
            0 -1 122 -856964096 -2146900284 -1496674304 -257755512
            1978652032 -939529773 -945834864 -743702785</internalNodes>
          <leafValues>
            -5.8565884828567505e-01 3.0239504575729370e-01</leafValues></_>
        <_>
          <internalNodes>
            0 -1 29 -3768321 -54529 2142719999 536806651 1064450935
            -606212097 397360991 2078228351</internalNodes>
          <leafValues>
            -4.8346078395843506e-01 3.7278828024864197e-01</leafValues></_>
        <_>
          <internalNodes>
            0 -1 19 -18 -1586209 -66323926 -222102942 1985458243
            -44871278 -671628586 -143147005</internalNodes>
          <leafValues>
            -4.4745862483978271e-01 3.2774311304092407e-01</leafValues></_>
        <_>
          <internalNodes>
            0 -1 97 -1477771 -203954209 -36176417 -673225137 1542344703
            -83960693 -28225319 -211598335</internalNodes>
          <leafValues>
            -3.9629730582237244e-01 3.8259273767471313e-01</leafValues></_>
        <_>
          <internalNodes>
            0 -1 120 -37851563 -2255529 -16818369 -278006945 -134705584
            -316772809 -897134048 -1367425153</internalNodes>
          <leafValues>
            -4.1044551134109497e-01 3.3736398816108704e-01</leafValues></_>
        <_>
          <internalNodes>
            0 -1 49 1895955328 290498465 597615649 -134876279 332560381
            -1610814479 975422713 -39992595</internalNodes>
          <leafValues>
            -4.5822253823280334e-01 3.0587923526763916e-01</leafValues></_></weakClassifiers></_>
    <!-- stage 5 -->
    <_>
      <maxWeakCount>10</maxWeakCount>
      <stageThreshold>-1.6598240137100220e+00</stageThreshold>
      <weakClassifiers>
        <_>
          <internalNodes>
            0 -1 28 -671745 -35782657 -1344558401 -21845 -36913217
            -2245123 -2244673 -17473</internalNodes>
          <leafValues>
            -6.4352208375930786e-01 3.4897610545158386e-01</leafValues></_>
        <_>
          <internalNodes>
            0 -1 77 -287379457 -524289 -338168353 -67109377 -286266385
            -7345233 -16782353 -1465717009</internalNodes>
          <leafValues>
            -5.3187561035156250e-01 3.7583088874816895e-01</leafValues></_>
        <_>
          <internalNodes>
            0 -1 46 -167772161 -574619657 -1 -537034753 -135233
            -1073741825 1056911295 536833151</internalNodes>
          <leafValues>
            -4.2823529243469238e-01 4.6495214104652405e-01</leafValues></_>
        <_>
          <internalNodes>
            0 -1 108 1347477230 1355930045 -218971434 -13370761
            -802100024 -187650356 -204214373 -77860869</internalNodes>
          <leafValues>
            -4.4691294431686401e-01 3.8331609964370728e-01</leafValues></_>
        <_>
          <internalNodes>
            0 -1 2 -486609169 1088355679 -360804765 -520103265
            1347898231 1411374047 -1587717 -234881105</internalNodes>
          <leafValues>
            -4.1048231720924377e-01 4.1474825143814087e-01</leafValues></_>
        <_>
          <internalNodes>
            0 -1 90 -1382306009 44875247 -876876416 -1561396890
            -237110921 1458961387 -67111051 -402653259</internalNodes>
          <leafValues>
            -5.3266477584838867e-01 2.5796392560005188e-01</leafValues></_>
        <_>
          <internalNodes>
            0 -1 114 -637580009 -33587353 -16781345 -13107329 -399
            -8470858 -272237307 -559940641</internalNodes>
          <leafValues>
            -3.5308846831321716e-01 4.4495835900306702e-01</leafValues></_>
        <_>
          <internalNodes>
            0 -1 104 1079312379 -136684545 -41910273 1943796991
            1610615039 1557987295 -202891057 1498768223</internalNodes>
          <leafValues>
            -4.1003504395484924e-01 3.3185344934463501e-01</leafValues></_>
        <_>
          <internalNodes>
            0 -1 62 162537301 -1210550849 -1082155169 -1613086946
            -1144111139 -17060866 -1622200355 -1364186800</internalNodes>
          <leafValues>
            -5.1228463649749756e-01 2.4685324728488922e-01</leafValues></_>
        <_>
          <internalNodes>
            0 -1 22 1380319199 1246027906 1855190655 4243466 1363541631
            1700653563 2104970070 1665267695</internalNodes>
          <leafValues>
            -4.9482977390289307e-01 2.7802172303199768e-01</leafValues></_></weakClassifiers></_>
    <!-- stage 6 -->
    <_>
      <maxWeakCount>10</maxWeakCount>
      <stageThreshold>-1.5592482089996338e+00</stageThreshold>
      <weakClassifiers>
        <_>
          <internalNodes>
            0 -1 53 -2097153 1002437555 -1 -513 -9473 -1121 -41289217
            -1537</internalNodes>
          <leafValues>
            -5.9629595279693604e-01 3.1909954547882080e-01</leafValues></_>
        <_>
          <internalNodes>
            0 -1 24 -1358970881 -420544513 -545521673 -290787329 -262145
            -352322817 -1 -33</internalNodes>
          <leafValues>
            -4.4977843761444092e-01 4.4694766402244568e-01</leafValues></_>
        <_>
          <internalNodes>
            0 -1 107 -139 -138678409 -707007619 -7169 -268435475 -545793
            -33563155 -44719</internalNodes>
          <leafValues>
            -3.9931833744049072e-01 4.3052580952644348e-01</leafValues></_>
        <_>
          <internalNodes>
            0 -1 105 -285266169 -286261249 -288690450 -50331649
            -1352194281 -8929921 -1184252 -1</internalNodes>
          <leafValues>
            -4.1130533814430237e-01 4.1015082597732544e-01</leafValues></_>
        <_>
          <internalNodes>
            0 -1 51 -1296556464 -9111555 -136520769 -458756 -1364206672
            -1077940227 -370369603 -1304812</internalNodes>
          <leafValues>
            -4.9423152208328247e-01 3.1921339035034180e-01</leafValues></_>
        <_>
          <internalNodes>
            0 -1 126 -8699 897548159 -268435461 -42467457 -64508
            360576775 -1529377784 -50350177</internalNodes>
          <leafValues>
            -3.6336880922317505e-01 3.9360484480857849e-01</leafValues></_>
        <_>
          <internalNodes>
            0 -1 13 -750454078 -701437854 923226175 -788737 1886677333
            1194359044 -873997699 -9289</internalNodes>
          <leafValues>
            -5.1155120134353638e-01 2.9433065652847290e-01</leafValues></_>
        <_>
          <internalNodes>
            0 -1 61 -1433653831 -1075868835 -1109710919 -269579825
            448510713 -1076506627 1844781624 -1918226770</internalNodes>
          <leafValues>
            -4.5350810885429382e-01 2.6495787501335144e-01</leafValues></_>
        <_>
          <internalNodes>
            0 -1 87 -825233626 -958438657 -1459860826 -285577265 -32973
            -1074793734 -268968672 -337135762</internalNodes>
          <leafValues>
            -5.0631797313690186e-01 2.5327137112617493e-01</leafValues></_>
        <_>
          <internalNodes>
            0 -1 119 515387189 -115841 -168067203 -100795523 -1373668387
            -1200729 -68124707 -1142146959</internalNodes>
          <leafValues>
            -3.9403706789016724e-01 3.0398261547088623e-01</leafValues></_></weakClassifiers></_>
    <!-- stage 7 -->
    <_>
      <maxWeakCount>12</maxWeakCount>
      <stageThreshold>-1.5368325710296631e+00</stageThreshold>
      <weakClassifiers>
        <_>
          <internalNodes>
            0 -1 37 -35784193 -170535457 -573203525 -69358951 -33685505
            -539894307 -74597445 -67130470</internalNodes>
          <leafValues>
            -6.3691532611846924e-01 1.9970604777336121e-01</leafValues></_>
        <_>
          <internalNodes>
            0 -1 136 -134217949 -411041925 -268964481 -76677273
            2134850339 929264447 -1363170517 -65</internalNodes>
          <leafValues>
            -3.8166317343711853e-01 4.4155839085578918e-01</leafValues></_>
        <_>
          <internalNodes>
            0 -1 71 -134219869 53737267 -100794369 2011168711
            -1278742533 872320255 -31986689 -6</internalNodes>
          <leafValues>
            -4.1215971112251282e-01 3.7505012750625610e-01</leafValues></_>
        <_>
          <internalNodes>
            0 -1 26 -206372877 -3997720 -73646 -614368 -26148877
            -608501789 1878488951 -34957</internalNodes>
          <leafValues>
            -3.6007943749427795e-01 3.9076864719390869e-01</leafValues></_>
        <_>
          <internalNodes>
            0 -1 4 -1402028033 -425000982 -16394 -1394162014 -1929646337
            1085791991 -973119489 -268438029</internalNodes>
          <leafValues>
            -3.4236899018287659e-01 4.0907457470893860e-01</leafValues></_>
        <_>
          <internalNodes>
            0 -1 42 1895954180 -136980481 -17945300 -4211313 893779861
            -621220927 -140653175 -638220676</internalNodes>
          <leafValues>
            -4.6008893847465515e-01 2.5134807825088501e-01</leafValues></_>
        <_>
          <internalNodes>
            0 -1 89 1617192447 -17977345 -1418731521 -76644382 6619327
            -67272705 -2129953 -9211929</internalNodes>
          <leafValues>
            -3.0312636494636536e-01 3.9649453759193420e-01</leafValues></_>
        <_>
          <internalNodes>
            0 -1 86 -1463902281 -146868353 -437855304 -19417249
            -288371717 -69361185 -23135713 -1432170633</internalNodes>
          <leafValues>
            -4.3826177716255188e-01 2.8655609488487244e-01</leafValues></_>
        <_>
          <internalNodes>
            0 -1 3 -12677 2071716955 -2025919958 807725582 -512668304
            2120613750 1862032460 -260842441</internalNodes>
          <leafValues>
            -4.2784991860389709e-01 2.7588722109794617e-01</leafValues></_>
        <_>
          <internalNodes>
            0 -1 17 -152504363 -16822082 -525817084 -2132768220
            -808237775 -2124104 -282854842 -318788131</internalNodes>
          <leafValues>
            -3.6177614331245422e-01 3.2324299216270447e-01</leafValues></_>
        <_>
          <internalNodes>
            0 -1 106 581178736 -1124188207 2043666431 -1078178055
            -1158710531 -304547401 -1146716167 -1094960588</internalNodes>
          <leafValues>
            -4.4508942961692810e-01 2.5663909316062927e-01</leafValues></_>
        <_>
          <internalNodes>
            0 -1 21 -429240768 1859365513 -805306393 -202999509
            420676689 2009538601 -38306958 -14434849</internalNodes>
          <leafValues>
            -5.1670247316360474e-01 2.1371731162071228e-01</leafValues></_></weakClassifiers></_>
    <!-- stage 8 -->
    <_>
      <maxWeakCount>14</maxWeakCount>
      <stageThreshold>-1.6300387382507324e+00</stageThreshold>
      <weakClassifiers>
        <_>
          <internalNodes>
            0 -1 18 -572674049 -136978953 -1377359425 -4347734 -36651073
            -2827009 -1078509761 -8442049</internalNodes>
          <leafValues>
            -6.4942717552185059e-01 1.3962389528751373e-01</leafValues></_>
        <_>
          <internalNodes>
            0 -1 111 -16777441 -78719305 -1595955233 -11265 -73422065
            -1377 725486090 -1077936193</internalNodes>
          <leafValues>
            -4.1467368602752686e-01 3.8464501500129700e-01</leafValues></_>
        <_>
          <internalNodes>
            0 -1 76 -20783873 -8454209 -284716769 -80020129 -16790529
            -8655937 -270537745 -1442644257</internalNodes>
          <leafValues>
            -4.3376114964485168e-01 3.3163896203041077e-01</leafValues></_>
        <_>
          <internalNodes>
            0 -1 59 -168296450 -38285323 -11016195 -394081 1073741823
            -788225 796912639 1073708543</internalNodes>
          <leafValues>
            -3.7880757451057434e-01 3.7002363801002502e-01</leafValues></_>
        <_>
          <internalNodes>
            0 -1 99 -287396052 -1397819601 -334395890 -353713214
            -78414588 -570703898 -558367232 -1048672</internalNodes>
          <leafValues>
            -4.4866165518760681e-01 3.0796405673027039e-01</leafValues></_>
        <_>
          <internalNodes>
            0 -1 14 -486551825 1618865775 -897637858 -704657429
            1828672463 1895821183 -134233185 -17</internalNodes>
          <leafValues>
            -3.1407764554023743e-01 3.9948084950447083e-01</leafValues></_>
        <_>
          <internalNodes>
            0 -1 75 -689583582 -2105690 1613758126 -346035474 -559424864
            -207881796 2069294890 -1060771318</internalNodes>
          <leafValues>
            -4.3139776587486267e-01 2.7695310115814209e-01</leafValues></_>
        <_>
          <internalNodes>
            0 -1 60 -1540612619 -1250551299 -250350753 -4702249
            -67724292 -1148395009 -67191809 -1079493007</internalNodes>
          <leafValues>
            -4.2392757534980774e-01 3.0100855231285095e-01</leafValues></_>
        <_>
          <internalNodes>
            0 -1 129 -4981854 1696790327 -180629488 -2081953920
            -336737865 -1432757621 -726204352 -773849689</internalNodes>
          <leafValues>
            -3.7213832139968872e-01 3.1502458453178406e-01</leafValues></_>
        <_>
          <internalNodes>
            0 -1 127 212569148 -1397116835 -1411408419 -2032149029
            -389378916 -46142145 145271448 -1430344034</internalNodes>
          <leafValues>
            -4.3036723136901855e-01 2.5990906357765198e-01</leafValues></_>
        <_>
          <internalNodes>
            0 -1 32 2101867780 -181277700 -44323314 -1209177379
            1630926839 -4892948 1606165912 -573703947</internalNodes>
          <leafValues>
            -3.7230503559112549e-01 2.8280389308929443e-01</leafValues></_>
        <_>
          <internalNodes>
            0 -1 135 -671621857 -143130765 -453059429 -1593835521
            -159509500 1566793301 -352344355 -230686881</internalNodes>
          <leafValues>
            -2.8593882918357849e-01 3.5467591881752014e-01</leafValues></_>
        <_>
          <internalNodes>
            0 -1 123 224395636 -1761835009 -1089080353 -598954 937065469
            -1076038433 -1459692611 -1363663696</internalNodes>
          <leafValues>
            -4.5789831876754761e-01 2.2425316274166107e-01</leafValues></_>
        <_>
          <internalNodes>
            0 -1 47 -2134463713 1758307677 -2116998855 -41375555
            -654001220 -582443688 -1177900390 -1097480277</internalNodes>
          <leafValues>
            -3.3494558930397034e-01 3.1731188297271729e-01</leafValues></_></weakClassifiers></_>
    <!-- stage 9 -->
    <_>
      <maxWeakCount>14</maxWeakCount>
      <stageThreshold>-1.6333789825439453e+00</stageThreshold>
      <weakClassifiers>
        <_>
          <internalNodes>
            0 -1 93 -16781313 -2121729 -1177419777 -1180673 1090471167
            -134251777 -421048321 -32897</internalNodes>
          <leafValues>
            -5.8518660068511963e-01 2.2584800422191620e-01</leafValues></_>
        <_>
          <internalNodes>
            0 -1 1 -137101313 -268455937 -47055873 268373771 -868156421
            -1280573445 -255787009 -36865</internalNodes>
          <leafValues>
            -4.0765681862831116e-01 3.4217375516891479e-01</leafValues></_>
        <_>
          <internalNodes>
            0 -1 84 -8392922 -71569426 -850919945 -68161554 -10487825
            1936716767 -806356182 -83892704</internalNodes>
          <leafValues>
            -3.7809044122695923e-01 3.4525418281555176e-01</leafValues></_>
        <_>
          <internalNodes>
            0 -1 48 -4523531 -606284 -1 -65676 -1392664583 -16842755 -1
            -536935356</internalNodes>
          <leafValues>
            -2.9175636172294617e-01 4.3018472194671631e-01</leafValues></_>
        <_>
          <internalNodes>
            0 -1 138 -135273725 650894591 -402654207 -219680824
            1394038613 1428680039 -183548415 -134227969</internalNodes>
          <leafValues>
            -3.3626824617385864e-01 3.4278675913810730e-01</leafValues></_>
        <_>
          <internalNodes>
            0 -1 67 768070573 938689727 1826073751 294875579 -539112243
            -33828451 -1080069667 329507203</internalNodes>
          <leafValues>
            -5.6100094318389893e-01 2.0350278913974762e-01</leafValues></_>
        <_>
          <internalNodes>
            0 -1 109 -797966772 1421635070 -1290011552 1899197871
            -218370596 -1395881868 -21254518 134661642</internalNodes>
          <leafValues>
            -4.4029444456100464e-01 2.3627363145351410e-01</leafValues></_>
        <_>
          <internalNodes>
            0 -1 74 -1795275755 356009853 -148899909 865473375
            -136352775 -16803329 -65537 -1162330259</internalNodes>
          <leafValues>
            -3.8837853074073792e-01 2.6575979590415955e-01</leafValues></_>
        <_>
          <internalNodes>
            0 -1 9 -33 1917833215 -319493592 -490541060 -13124296
            276201239 -19923194 -185335821</internalNodes>
          <leafValues>
            -2.9630160331726074e-01 3.5168299078941345e-01</leafValues></_>
        <_>
          <internalNodes>
            0 -1 91 -539648 -8391841 520883782 -35935329 1410614770
            -294405139 1078223983 1932607727</internalNodes>
          <leafValues>
            -4.4026973843574524e-01 2.1135482192039490e-01</leafValues></_>
        <_>
          <internalNodes>
            0 -1 102 112201077 -1227047555 2147170301 2146120429
            -159619713 -1238405461 -421785611 -1363657244</internalNodes>
          <leafValues>
            -4.0299677848815918e-01 2.4284003674983978e-01</leafValues></_>
        <_>
          <internalNodes>
            0 -1 125 1423930453 2102990715 -109060611 -109052459
            -171009792 1606215285 -86049744 -1426346117</internalNodes>
          <leafValues>
            -3.4104296565055847e-01 2.8406739234924316e-01</leafValues></_>
        <_>
          <internalNodes>
            0 -1 95 -1368937435 -2102660225 -337661816 -287917590
            -482383611 2143278919 -176066783 -71326777</internalNodes>
          <leafValues>
            -4.2201784253120422e-01 2.3736299574375153e-01</leafValues></_>
        <_>
          <internalNodes>
            0 -1 5 267530111 -316933 -1427462307 572596343 -172654787
            -256142375 -1151142018 -34180363</internalNodes>
          <leafValues>
            -3.4271228313446045e-01 2.6709491014480591e-01</leafValues></_></weakClassifiers></_>
    <!-- stage 10 -->
    <_>
      <maxWeakCount>13</maxWeakCount>
      <stageThreshold>-1.7219793796539307e+00</stageThreshold>
      <weakClassifiers>
        <_>
          <internalNodes>
            0 -1 113 1346431694 -246284449 -87897601 2144534335
            -52580369 -497476 -88630273 -4129</internalNodes>
          <leafValues>
            -6.8866747617721558e-01 7.6040171086788177e-02</leafValues></_>
        <_>
          <internalNodes>
            0 -1 69 -237640977 2098853485 1073848558 -236653588
            -1051466753 -605326113 -220862230 -236064018</internalNodes>
          <leafValues>
            -6.0010391473770142e-01 2.3552201688289642e-01</leafValues></_>
        <_>
          <internalNodes>
            0 -1 31 -134230017 -616881929 2132750303 1610548466
            525025279 -1169463154 2141011455 2142205563</internalNodes>
          <leafValues>
            -3.8601797819137573e-01 3.7645676732063293e-01</leafValues></_>
        <_>
          <internalNodes>
            0 -1 38 -716046376 -720072704 -79963178 -782372567 269852607
            1462868629 1779034263 -15731201</internalNodes>
          <leafValues>
            -3.7210944294929504e-01 3.5452091693878174e-01</leafValues></_>
        <_>
          <internalNodes>
            0 -1 16 -319881217 -824017026 -341049359 -268771846
            -1495294065 -990413058 666759163 -536870913</internalNodes>
          <leafValues>
            -3.2705184817314148e-01 3.7556260824203491e-01</leafValues></_>
        <_>
          <internalNodes>
            0 -1 35 1568143103 1608491690 2095841279 797417730
            2004677371 1677675167 -505676057 1464202147</internalNodes>
          <leafValues>
            -4.0255030989646912e-01 2.7942803502082825e-01</leafValues></_>
        <_>
          <internalNodes>
            0 -1 96 -136846578 1932392719 1321651247 -236066145
            1345680245 1701931845 -490344321 1896872655</internalNodes>
          <leafValues>
            -3.9606183767318726e-01 2.6483899354934692e-01</leafValues></_>
        <_>
          <internalNodes>
            0 -1 118 -847515166 -1423382638 -242941824 -712771344
            -339375701 -2118282955 10961088 -987505273</internalNodes>
          <leafValues>
            -3.8870283961296082e-01 2.6165878772735596e-01</leafValues></_>
        <_>
          <internalNodes>
            0 -1 70 -392936172 -36617403 -543431235 -176200777
            -220672524 -74738815 -107177512 -1999600620</internalNodes>
          <leafValues>
            -4.6641799807548523e-01 2.1722242236137390e-01</leafValues></_>
        <_>
          <internalNodes>
            0 -1 33 -822358025 -362876291 -654846278 -495537988
            -333829051 -924114342 -477138988 -22161424</internalNodes>
          <leafValues>
            -4.3391034007072449e-01 2.3660111427307129e-01</leafValues></_>
        <_>
          <internalNodes>
            0 -1 88 -352407802 721136863 -525091290 1177993710
            1973711732 1592520953 -1483474652 -304091369</internalNodes>
          <leafValues>
            -6.0535258054733276e-01 1.4212235808372498e-01</leafValues></_>
        <_>
          <internalNodes>
            0 -1 100 144974932 -1078065158 -1186206721 -1074249795
            -1354731527 -106080031 -1078054932 -1145421908</internalNodes>
          <leafValues>
            -3.6690419912338257e-01 2.7164730429649353e-01</leafValues></_>
        <_>
          <internalNodes>
            0 -1 27 -700004130 -194998 -268376374 841103938 -714062775
            1215448657 1073770536 1175807583</internalNodes>
          <leafValues>
            -4.8770922422409058e-01 2.0156379044055939e-01</leafValues></_></weakClassifiers></_>
    <!-- stage 11 -->
    <_>
      <maxWeakCount>16</maxWeakCount>
      <stageThreshold>-1.5129289627075195e+00</stageThreshold>
      <weakClassifiers>
        <_>
          <internalNodes>
            0 -1 92 -1 -68443685 1543205259 -5512197 1885399295
            -13374593 1917971423 -76021777</internalNodes>
          <leafValues>
            -5.2114403247833252e-01 2.6096612215042114e-01</leafValues></_>
        <_>
          <internalNodes>
            0 -1 117 -603988395 -2148481 -1097337153 -8577 -117470060
            -1245971427 -1460008756 -1361051649</internalNodes>
          <leafValues>
            -3.5745403170585632e-01 3.4573701024055481e-01</leafValues></_>
        <_>
          <internalNodes>
            0 -1 36 -87163905 -7973 -305673729 2113347829 -1094736966
            -70321221 2145348607 2147450719</internalNodes>
          <leafValues>
            -3.3119732141494751e-01 3.5765025019645691e-01</leafValues></_>
        <_>
          <internalNodes>
            0 -1 8 -352334129 16122847 -501297437 1892937455 -171216001
            1247693471 -436217229 -134218081</internalNodes>
          <leafValues>
            -3.0714675784111023e-01 3.5948151350021362e-01</leafValues></_>
        <_>
          <internalNodes>
            0 -1 55 -172510211 2147463167 2080287453 -135271697
            -306970625 -1 -1291867461 -5265265</internalNodes>
          <leafValues>
            -2.9940265417098999e-01 3.5863971710205078e-01</leafValues></_>
        <_>
          <internalNodes>
            0 -1 121 -64752640 -1366255816 -2109354067 -2031681801
            1731440914 582861614 931373346 -1433542722</internalNodes>
          <leafValues>
            -4.5197525620460510e-01 2.3528739809989929e-01</leafValues></_>
        <_>
          <internalNodes>
            0 -1 43 -289509505 -891505705 -153631745 -491062332
            -306481283 -710024961 -604508252 -358158960</internalNodes>
          <leafValues>
            -4.1048759222030640e-01 2.2851529717445374e-01</leafValues></_>
        <_>
          <internalNodes>
            0 -1 52 -742879360 -742869619 -112207363 -536937044
            -2059915355 -1148540485 -1439723603 -1881405436</internalNodes>
          <leafValues>
            -3.8703343272209167e-01 2.3829528689384460e-01</leafValues></_>
        <_>
          <internalNodes>
            0 -1 6 -1382011521 -1343420610 755805181 -1491325941
            2035185465 -835163524 -4128898 -8815235</internalNodes>
          <leafValues>
            -3.7030699849128723e-01 2.5853028893470764e-01</leafValues></_>
        <_>
          <internalNodes>
            0 -1 79 -27337539 -42246425 -133837861 -583310611 -61943201
            -540525 -69272837 -1364525265</internalNodes>
          <leafValues>
            -3.3733108639717102e-01 2.7787944674491882e-01</leafValues></_>
        <_>
          <internalNodes>
            0 -1 81 -74713693 13819903 1474624435 -139081333 -1260394057
            53606625 -208538633 -671088909</internalNodes>
          <leafValues>
            -3.0951705574989319e-01 3.0300065875053406e-01</leafValues></_>
        <_>
          <internalNodes>
            0 -1 128 -4194317 -1398743720 -1929399920 -929718748
            2142213563 -2141538401 1438074304 -708315661</internalNodes>
          <leafValues>
            -2.9452571272850037e-01 3.0903205275535583e-01</leafValues></_>
        <_>
          <internalNodes>
            0 -1 131 -1395385276 -1611249570 -807412809 -1141207497
            -1180606507 -1447300165 -201426436 -1431820196</internalNodes>
          <leafValues>
            -4.2806053161621094e-01 1.9766178727149963e-01</leafValues></_>
        <_>
          <internalNodes>
            0 -1 66 1222265864 1536903420 -20444866 329909771 1276120312
            1456226909 -1831841970 1259555587</internalNodes>
          <leafValues>
            -4.0265017747879028e-01 2.2320553660392761e-01</leafValues></_>
        <_>
          <internalNodes>
            0 -1 23 -926485051 -230033681 -331065788 -389615681
            1999893271 -217737003 -1245482683 -7733321</internalNodes>
          <leafValues>
            -3.5415342450141907e-01 2.5859966874122620e-01</leafValues></_>
        <_>
          <internalNodes>
            0 -1 101 649600853 -1125878915 -1376257157 -1073850409
            1056385021 -105268787 -106005507 -1075175960</internalNodes>
          <leafValues>
            -3.2800531387329102e-01 2.5947883725166321e-01</leafValues></_></weakClassifiers></_>
    <!-- stage 12 -->
    <_>
      <maxWeakCount>17</maxWeakCount>
      <stageThreshold>-1.6611490249633789e+00</stageThreshold>
      <weakClassifiers>
        <_>
          <internalNodes>
            0 -1 50 -2097153 -707399404 -911224529 1375073781 -12063761
            -67109905 -356341269 -570427393</internalNodes>
          <leafValues>
            -5.3907775878906250e-01 1.8452520668506622e-01</leafValues></_>
        <_>
          <internalNodes>
            0 -1 112 -800000306 1364543903 1891825599 1972624239
            -73466933 -3438391 -70275073 -79458673</internalNodes>
          <leafValues>
            -4.1120213270187378e-01 2.7144250273704529e-01</leafValues></_>
        <_>
          <internalNodes>
            0 -1 110 -137155273 -1077936769 -108668993 -101458661
            -67416201 -411154 -564138379 -2359345</internalNodes>
          <leafValues>
            -3.3488327264785767e-01 3.3504903316497803e-01</leafValues></_>
        <_>
          <internalNodes>
            0 -1 40 705003951 -660945635 145295753 -142230614 -664945217
            -1736286092 -1618363479 -246549590</internalNodes>
          <leafValues>
            -4.4112446904182434e-01 2.2439338266849518e-01</leafValues></_>
        <_>
          <internalNodes>
            0 -1 12 -1410340449 -1035556150 -1886157097 -462499630
            -268439553 1077135309 -747712425 -672140033</internalNodes>
          <leafValues>
            -3.5003826022148132e-01 2.9538562893867493e-01</leafValues></_>
        <_>
          <internalNodes>
            0 -1 45 -1365242832 -113303619 -206881 -33710191 117704068
            -1076904451 -176963 -1617097615</internalNodes>
          <leafValues>
            -2.9743716120719910e-01 3.1830176711082458e-01</leafValues></_>
        <_>
          <internalNodes>
            0 -1 124 -1576076028 -1910706892 -1108628834 -1078005314
            -136599608 -74545345 -1423230024 -1972306810</internalNodes>
          <leafValues>
            -4.4572296738624573e-01 1.9672302901744843e-01</leafValues></_>
        <_>
          <internalNodes>
            0 -1 10 -134480065 315482735 1042210482 -1599677306
            -782827403 -162303885 -27371964 -196608489</internalNodes>
          <leafValues>
            -3.7558156251907349e-01 2.1629790961742401e-01</leafValues></_>
        <_>
          <internalNodes>
            0 -1 132 -1461932768 -1076069923 -1074742339 -1617415761
            -1817388035 -100822277 -5722115 -1427363156</internalNodes>
          <leafValues>
            -3.4730452299118042e-01 2.3630642890930176e-01</leafValues></_>
        <_>
          <internalNodes>
            0 -1 137 -67115001 1988036603 -1801498377 1121056635
            1951596544 1431513886 -1602047488 1112795027</internalNodes>
          <leafValues>
            -3.9885216951370239e-01 2.0931239426136017e-01</leafValues></_>
        <_>
          <internalNodes>
            0 -1 85 -1230069728 -797056835 1634853243 -676335710
            -503336012 -1210129670 1491857258 -355490302</internalNodes>
          <leafValues>
            -4.2594996094703674e-01 2.0110189914703369e-01</leafValues></_>
        <_>
          <internalNodes>
            0 -1 80 -1213484239 -1917454514 -676502254 -18048 345601846
            -513087079 1575703863 -672401615</internalNodes>
          <leafValues>
            -3.2714393734931946e-01 2.4907813966274261e-01</leafValues></_>
        <_>
          <internalNodes>
            0 -1 82 -329630664 1553226735 -1650734021 935005215
            -933229135 -489165316 -1101657077 467085867</internalNodes>
          <leafValues>
            -3.1669121980667114e-01 2.5935617089271545e-01</leafValues></_>
        <_>
          <internalNodes>
            0 -1 34 -1570361546 -288213062 -1143582956 -299305748
            -1903395531 -34605903 -1820640431 -382199872</internalNodes>
          <leafValues>
            -5.0361794233322144e-01 1.6563311219215393e-01</leafValues></_>
        <_>
          <internalNodes>
            0 -1 15 -848909527 994563228 223022799 -202030890 1296789367
            1444055237 1518411119 -16520829</internalNodes>
          <leafValues>
            -4.2335039377212524e-01 1.9759221374988556e-01</leafValues></_>
        <_>
          <internalNodes>
            0 -1 116 -1568665227 -1074001131 -1254633473 -2236423
            -1414458663 -38427911 769137149 -239147</internalNodes>
          <leafValues>
            -3.3632495999336243e-01 2.4076044559478760e-01</leafValues></_>
        <_>
          <internalNodes>
            0 -1 134 -537933950 741535033 256495648 -1425507456
            -284691673 1313794803 1361528704 -705180453</internalNodes>
          <leafValues>
            -3.5081550478935242e-01 2.3652245104312897e-01</leafValues></_></weakClassifiers></_></stages>
  <features>
    <_>
      <rect>
        0 3 5 2</rect></_>
    <_>
      <rect>
        0 3 7 7</rect></_>
    <_>
      <rect>
        0 13 4 4</rect></_>
    <_>
      <rect>
        0 22 6 6</rect></_>
    <_>
      <rect>
        1 2 5 4</rect></_>
    <_>
      <rect>
        1 6 12 7</rect></_>
    <_>
      <rect>
        1 10 12 4</rect></_>
    <_>
      <rect>
        1 11 6 6</rect></_>
    <_>
      <rect>
        1 12 2 3</rect></_>
    <_>
      <rect>
        1 18 3 3</rect></_>
    <_>
      <rect>
        1 22 4 4</rect></_>
    <_>
      <rect>
        2 0 5 3</rect></_>
    <_>
      <rect>
        2 4 3 2</rect></_>
    <_>
      <rect>
        2 8 8 10</rect></_>
    <_>
      <rect>
        2 11 3 4</rect></_>
    <_>
      <rect>
        2 14 5 1</rect></_>
    <_>
      <rect>
        3 0 5 4</rect></_>
    <_>
      <rect>
        3 3 12 11</rect></_>
    <_>
      <rect>
        3 8 12 4</rect></_>
    <_>
      <rect>
        3 19 6 5</rect></_>
    <_>
      <rect>
        4 0 3 3</rect></_>
    <_>
      <rect>
        4 15 4 2</rect></_>
    <_>
      <rect>
        5 2 7 11</rect></_>
    <_>
      <rect>
        6 1 14 15</rect></_>
    <_>
      <rect>
        6 2 4 2</rect></_>
    <_>
      <rect>
        6 6 7 5</rect></_>
    <_>
      <rect>
        6 12 3 1</rect></_>
    <_>
      <rect>
        6 27 5 4</rect></_>
    <_>
      <rect>
        7 7 10 5</rect></_>
    <_>
      <rect>
        7 10 3 3</rect></_>
    <_>
      <rect>
        7 11 5 8</rect></_>
    <_>
      <rect>
        7 12 2 2</rect></_>
    <_>
      <rect>
        7 17 5 3</rect></_>
    <_>
      <rect>
        7 22 2 1</rect></_>
    <_>
      <rect>
        8 0 6 3</rect></_>
    <_>
      <rect>
        8 3 5 9</rect></_>
    <_>
      <rect>
        8 11 3 2</rect></_>
    <_>
      <rect>
        9 2 9 8</rect></_>
    <_>
      <rect>
        9 5 5 11</rect></_>
    <_>
      <rect>
        9 5 9 6</rect></_>
    <_>
      <rect>
        9 11 9 3</rect></_>
    <_>
      <rect>
        9 12 4 7</rect></_>
    <_>
      <rect>
        9 16 4 4</rect></_>
    <_>
      <rect>
        9 23 1 1</rect></_>
    <_>
      <rect>
        10 3 9 7</rect></_>
    <_>
      <rect>
        10 10 2 1</rect></_>
    <_>
      <rect>
        10 11 3 2</rect></_>
    <_>
      <rect>
        10 11 11 3</rect></_>
    <_>
      <rect>
        10 12 1 1</rect></_>
    <_>
      <rect>
        10 14 5 4</rect></_>
    <_>
      <rect>
        11 5 5 12</rect></_>
    <_>
      <rect>
        11 11 1 1</rect></_>
    <_>
      <rect>
        11 12 1 1</rect></_>
    <_>
      <rect>
        11 13 5 2</rect></_>
    <_>
      <rect>
        11 13 5 3</rect></_>
    <_>
      <rect>
        12 4 9 6</rect></_>
    <_>
      <rect>
        12 4 9 7</rect></_>
    <_>
      <rect>
        12 8 8 4</rect></_>
    <_>
      <rect>
        12 10 1 1</rect></_>
    <_>
      <rect>
        12 11 2 2</rect></_>
    <_>
      <rect>
        13 8 1 1</rect></_>
    <_>
      <rect>
        13 8 10 4</rect></_>
    <_>
      <rect>
        13 9 1 1</rect></_>
    <_>
      <rect>
        13 10 4 3</rect></_>
    <_>
      <rect>
        13 11 1 1</rect></_>
    <_>
      <rect>
        13 13 4 2</rect></_>
    <_>
      <rect>
        13 28 4 3</rect></_>
    <_>
      <rect>
        14 6 4 6</rect></_>
    <_>
      <rect>
        14 8 7 3</rect></_>
    <_>
      <rect>
        14 10 7 2</rect></_>
    <_>
      <rect>
        14 11 1 1</rect></_>
    <_>
      <rect>
        14 14 4 2</rect></_>
    <_>
      <rect>
        15 8 1 1</rect></_>
    <_>
      <rect>
        16 5 5 4</rect></_>
    <_>
      <rect>
        16 9 1 1</rect></_>
    <_>
      <rect>
        17 0 5 12</rect></_>
    <_>
      <rect>
        17 4 2 4</rect></_>
    <_>
      <rect>
        18 5 2 4</rect></_>
    <_>
      <rect>
        18 8 1 1</rect></_>
    <_>
      <rect>
        18 8 1 2</rect></_>
    <_>
      <rect>
        18 16 1 1</rect></_>
    <_>
      <rect>
        18 17 2 1</rect></_>
    <_>
      <rect>
        18 26 3 3</rect></_>
    <_>
      <rect>
        19 9 2 2</rect></_>
    <_>
      <rect>
        20 1 3 9</rect></_>
    <_>
      <rect>
        20 4 3 5</rect></_>
    <_>
      <rect>
        20 6 1 4</rect></_>
    <_>
      <rect>
        21 12 2 1</rect></_>
    <_>
      <rect>
        21 13 2 1</rect></_>
    <_>
      <rect>
        21 13 6 3</rect></_>
    <_>
      <rect>
        21 16 1 1</rect></_>
    <_>
      <rect>
        22 7 4 8</rect></_>
    <_>
      <rect>
        22 8 5 10</rect></_>
    <_>
      <rect>
        22 13 5 2</rect></_>
    <_>
      <rect>
        22 14 1 1</rect></_>
    <_>
      <rect>
        22 15 1 1</rect></_>
    <_>
      <rect>
        22 15 3 2</rect></_>
    <_>
      <rect>
        23 1 3 7</rect></_>
    <_>
      <rect>
        23 5 4 6</rect></_>
    <_>
      <rect>
        23 14 1 1</rect></_>
    <_>
      <rect>
        23 30 1 1</rect></_>
    <_>
      <rect>
        23 36 1 1</rect></_>
    <_>
      <rect>
        23 39 1 1</rect></_>
    <_>
      <rect>
        24 3 6 7</rect></_>
    <_>
      <rect>
        24 8 5 6</rect></_>
    <_>
      <rect>
        24 15 1 1</rect></_>
    <_>
      <rect>
        24 32 1 1</rect></_>
    <_>
      <rect>
        25 3 2 5</rect></_>
    <_>
      <rect>
        25 10 5 8</rect></_>
    <_>
      <rect>
        26 16 6 6</rect></_>
    <_>
      <rect>
        27 0 4 1</rect></_>
    <_>
      <rect>
        27 0 7 9</rect></_>
    <_>
      <rect>
        27 11 4 8</rect></_>
    <_>
      <rect>
        27 12 4 6</rect></_>
    <_>
      <rect>
        28 0 5 3</rect></_>
    <_>
      <rect>
        29 3 6 5</rect></_>
    <_>
      <rect>
        29 9 1 1</rect></_>
    <_>
      <rect>
        30 0 5 5</rect></_>
    <_>
      <rect>
        30 29 5 4</rect></_>
    <_>
      <rect>
        31 10 1 1</rect></_>
    <_>
      <rect>
        32 3 4 2</rect></_>
    <_>
      <rect>
        32 7 5 7</rect></_>
    <_>
      <rect>
        32 9 5 9</rect></_>
    <_>
      <rect>
        32 10 1 1</rect></_>
    <_>
      <rect>
        32 14 4 4</rect></_>
    <_>
      <rect>
        33 1 3 3</rect></_>
    <_>
      <rect>
        33 1 5 5</rect></_>
    <_>
      <rect>
        33 10 3 2</rect></_>
    <_>
      <rect>
        33 26 5 5</rect></_>
    <_>
      <rect>
        33 27 4 3</rect></_>
    <_>
      <rect>
        34 9 4 7</rect></_>
    <_>
      <rect>
        34 10 1 1</rect></_>
    <_>
      <rect>
        34 12 1 1</rect></_>
    <_>
      <rect>
        35 8 4 8</rect></_>
    <_>
      <rect>
        35 25 4 4</rect></_>
    <_>
      <rect>
        36 0 4 4</rect></_>
    <_>
      <rect>
        36 3 4 7</rect></_>
    <_>
      <rect>
        39 4 3 3</rect></_>
    <_>
      <rect>
        41 14 2 3</rect></_></features></cascade>
</opencv_storage>
