<?xml version="1.0"?>
<opencv_storage>
<cascade>
  <stageType>BOOST</stageType>
  <featureType>LBP</featureType>
  <height>48</height>
  <width>48</width>
  <stageParams>
    <boostType>GAB</boostType>
    <minHitRate>9.9500000476837158e-01</minHitRate>
    <maxFalseAlarm>5.0000000000000000e-01</maxFalseAlarm>
    <weightTrimRate>9.4999999999999996e-01</weightTrimRate>
    <maxDepth>1</maxDepth>
    <maxWeakCount>100</maxWeakCount></stageParams>
  <featureParams>
    <maxCatCount>256</maxCatCount>
    <featSize>1</featSize></featureParams>
  <stageNum>12</stageNum>
  <stages>
    <!-- stage 0 -->
    <_>
      <maxWeakCount>4</maxWeakCount>
      <stageThreshold>-1.1575047969818115e+00</stageThreshold>
      <weakClassifiers>
        <_>
          <internalNodes>
            0 -1 61 -167793991 -21521 -1565283670 -5264726 -337658949
            -16449 -1430541654 -1145066838</internalNodes>
          <leafValues>
            -5.7893157005310059e-01 8.7083387374877930e-01</leafValues></_>
        <_>
          <internalNodes>
            0 -1 20 -297604608 -261706206 -269177081 -281597097
            -717163184 -35133449 -34083137 -33</internalNodes>
          <leafValues>
            -6.3263434171676636e-01 7.0263797044754028e-01</leafValues></_>
        <_>
          <internalNodes>
            0 -1 1 -85004294 -151322626 -1141232898 -3120400 -470351898
            -328201 -21098501 -16413</internalNodes>
          <leafValues>
            -4.4212868809700012e-01 6.3879507780075073e-01</leafValues></_>
        <_>
          <internalNodes>
            0 -1 154 -990919232 -1941244052 -733981680 -833955360
            70284544 1223930821 -2080046028 -5767173</internalNodes>
          <leafValues>
            -4.9502047896385193e-01 4.9618980288505554e-01</leafValues></_></weakClassifiers></_>
    <!-- stage 1 -->
    <_>
      <maxWeakCount>8</maxWeakCount>
      <stageThreshold>-1.5070489645004272e+00</stageThreshold>
      <weakClassifiers>
        <_>
          <internalNodes>
            0 -1 40 2146828287 926396331 -4718593 723726123 -1 -16385 -1
            800030639</internalNodes>
          <leafValues>
            -6.3865840435028076e-01 7.7973246574401855e-01</leafValues></_>
        <_>
          <internalNodes>
            0 -1 88 -201348179 -704776259 -1564899190 -36853110
            -136855617 -528449 -1141134454 -100685142</internalNodes>
          <leafValues>
            -4.9387145042419434e-01 6.7992341518402100e-01</leafValues></_>
        <_>
          <internalNodes>
            0 -1 6 -17895902 -536695294 -55181478 -2004481440 -42496175
            -299553409 -657025 -2097205</internalNodes>
          <leafValues>
            -5.4757946729660034e-01 4.5863178372383118e-01</leafValues></_>
        <_>
          <internalNodes>
            0 -1 71 -312044 -100799115 1073650908 -143130665 -301990412
            -1124238155 -33874532 -587255873</internalNodes>
          <leafValues>
            -4.7620710730552673e-01 4.4332915544509888e-01</leafValues></_>
        <_>
          <internalNodes>
            0 -1 123 -857735958 1154285510 -59474447 -915800657
            -450062112 -864231685 2127952378 -14157825</internalNodes>
          <leafValues>
            -4.0981519222259521e-01 4.6413037180900574e-01</leafValues></_>
        <_>
          <internalNodes>
            0 -1 128 707999541 -1347108869 -32769 -196610 1031740789
            -544769 2054442352 -18847888</internalNodes>
          <leafValues>
            -5.2799075841903687e-01 3.3063906431198120e-01</leafValues></_>
        <_>
          <internalNodes>
            0 -1 22 -285216913 8302567 -822120718 -1595215144 -269652444
            1915748158 -2412 -232329738</internalNodes>
          <leafValues>
            -4.7416901588439941e-01 3.0716320872306824e-01</leafValues></_>
        <_>
          <internalNodes>
            0 -1 70 3815221 -1359319177 1014775799 -1225756708
            1054818295 -553651233 -1359249422 -1091797068</internalNodes>
          <leafValues>
            -4.6338796615600586e-01 3.2866707444190979e-01</leafValues></_></weakClassifiers></_>
    <!-- stage 2 -->
    <_>
      <maxWeakCount>9</maxWeakCount>
      <stageThreshold>-1.5230393409729004e+00</stageThreshold>
      <weakClassifiers>
        <_>
          <internalNodes>
            0 -1 62 -1 -1145832517 -1073741889 1002156955 -131073
            -1077936129 -1 1002388395</internalNodes>
          <leafValues>
            -5.2600586414337158e-01 7.7536594867706299e-01</leafValues></_>
        <_>
          <internalNodes>
            0 -1 53 -237521999 -152577 -539514184 -21846 -134759489 -1
            -71325014 -1070454</internalNodes>
          <leafValues>
            -4.8454657196998596e-01 6.8116182088851929e-01</leafValues></_>
        <_>
          <internalNodes>
            0 -1 50 -261820400 1425863679 352657681 -2721 -1181238349
            -257 -1147849797 -17409</internalNodes>
          <leafValues>
            -4.5066964626312256e-01 5.0128430128097534e-01</leafValues></_>
        <_>
          <internalNodes>
            0 -1 25 -1364791301 -1365056257 -1048577 -1664182 -859529217
            -805898241 -816054273 -7185</internalNodes>
          <leafValues>
            -3.7044575810432434e-01 5.6708514690399170e-01</leafValues></_>
        <_>
          <internalNodes>
            0 -1 93 717110647 -1426292993 -4097 -1074237473 2061402045
            -4227073 -41059 -1430716484</internalNodes>
          <leafValues>
            -4.4281467795372009e-01 3.7654447555541992e-01</leafValues></_>
        <_>
          <internalNodes>
            0 -1 163 -134217805 -1347682453 -16528 -141099294 -134893577
            -302777353 -136334256 -36176141</internalNodes>
          <leafValues>
            -3.6417794227600098e-01 4.3628296256065369e-01</leafValues></_>
        <_>
          <internalNodes>
            0 -1 12 -25231598 -51005569 -32740304 -1744822238 -12077228
            -93119125 -26393080 -599670782</internalNodes>
          <leafValues>
            -4.8309665918350220e-01 3.0241906642913818e-01</leafValues></_>
        <_>
          <internalNodes>
            0 -1 83 188354423 603910013 -26265609 -721185 469578751
            -1077954053 -604078081 -4683</internalNodes>
          <leafValues>
            -3.8069468736648560e-01 3.6919355392456055e-01</leafValues></_>
        <_>
          <internalNodes>
            0 -1 150 -1705043179 201317899 -1879048965 -1073754145
            905915396 -1193312828 -1392882680 -1392515097</internalNodes>
          <leafValues>
            -3.8679045438766479e-01 3.5959240794181824e-01</leafValues></_></weakClassifiers></_>
    <!-- stage 3 -->
    <_>
      <maxWeakCount>11</maxWeakCount>
      <stageThreshold>-1.5197492837905884e+00</stageThreshold>
      <weakClassifiers>
        <_>
          <internalNodes>
            0 -1 19 -136839169 -4097 -71303169 800008111 -1 -1 -67108865
            805306111</internalNodes>
          <leafValues>
            -4.2100858688354492e-01 7.6729530096054077e-01</leafValues></_>
        <_>
          <internalNodes>
            0 -1 111 1432739327 2113929215 -16798785 -17729 4456703
            1609392127 1945567375 2147418755</internalNodes>
          <leafValues>
            -5.0030630826950073e-01 5.8008033037185669e-01</leafValues></_>
        <_>
          <internalNodes>
            0 -1 68 -526401 825884599 -33554465 2111831029 -34210065
            -4325889 -12976657 -318898187</internalNodes>
          <leafValues>
            -3.1779295206069946e-01 6.4564406871795654e-01</leafValues></_>
        <_>
          <internalNodes>
            0 -1 141 -67158249 -8421505 -32769 -12600961 -171 -12681601
            -17043891 -21</internalNodes>
          <leafValues>
            -3.2815337181091309e-01 5.7296520471572876e-01</leafValues></_>
        <_>
          <internalNodes>
            0 -1 11 -495259953 7137125 -1472673098 539032567 -16777385
            1282959951 -857412291 -231211141</internalNodes>
          <leafValues>
            -4.4442465901374817e-01 3.2469630241394043e-01</leafValues></_>
        <_>
          <internalNodes>
            0 -1 43 -805242895 -722095205 16855959 -590005249 -155992073
            -16777218 -1183728965 -1797964867</internalNodes>
          <leafValues>
            -3.4567400813102722e-01 3.9725065231323242e-01</leafValues></_>
        <_>
          <internalNodes>
            0 -1 72 -1391446672 -1242273828 -807403531 -7045380
            -1416094288 -50466817 -145195023 -17033984</internalNodes>
          <leafValues>
            -4.7057241201400757e-01 2.7486038208007812e-01</leafValues></_>
        <_>
          <internalNodes>
            0 -1 122 202913557 -1615314953 -8653345 -8512547 -1221623819
            -21364742 -269453572 -1079501776</internalNodes>
          <leafValues>
            -3.9392849802970886e-01 3.1028729677200317e-01</leafValues></_>
        <_>
          <internalNodes>
            0 -1 38 -889196673 -286261249 -281285633 -487130490
            2147243863 -605294593 -2249 -145490573</internalNodes>
          <leafValues>
            -3.6259734630584717e-01 3.2764849066734314e-01</leafValues></_>
        <_>
          <internalNodes>
            0 -1 76 1414834896 -170546451 -1866432358 894430911
            1418066869 -105392689 559065768 2033164938</internalNodes>
          <leafValues>
            -4.3591207265853882e-01 2.4820192158222198e-01</leafValues></_>
        <_>
          <internalNodes>
            0 -1 153 -20731 1836840831 2130698187 1915221815 -29504767
            2021519204 -1896305496 -1426130081</internalNodes>
          <leafValues>
            -3.4707564115524292e-01 3.1805574893951416e-01</leafValues></_></weakClassifiers></_>
    <!-- stage 4 -->
    <_>
      <maxWeakCount>14</maxWeakCount>
      <stageThreshold>-1.4692410230636597e+00</stageThreshold>
      <weakClassifiers>
        <_>
          <internalNodes>
            0 -1 54 -1025 -4097 -67130693 -2250069 -1089 -131077
            -67388501 -67130709</internalNodes>
          <leafValues>
            -2.4572242796421051e-01 8.4181970357894897e-01</leafValues></_>
        <_>
          <internalNodes>
            0 -1 7 -202985473 -273797202 -76083409 -1349636598
            -269516929 -282169489 -32897 -36993</internalNodes>
          <leafValues>
            -4.2102673649787903e-01 5.4071593284606934e-01</leafValues></_>
        <_>
          <internalNodes>
            0 -1 143 -704645916 -995172354 -326502176 -951320833
            -991632240 -726204689 -1052778061 -1</internalNodes>
          <leafValues>
            -4.3166631460189819e-01 4.3951243162155151e-01</leafValues></_>
        <_>
          <internalNodes>
            0 -1 79 -524801 -1241645121 -129 -1644167169 -16777217
            -1141114455 -1 -1140852741</internalNodes>
          <leafValues>
            -2.8528580069541931e-01 6.2555509805679321e-01</leafValues></_>
        <_>
          <internalNodes>
            0 -1 149 -673 -579076737 -33554563 1904214015 -4796
            1031798367 -1360019828 -365961537</internalNodes>
          <leafValues>
            -3.3479630947113037e-01 4.4784536957740784e-01</leafValues></_>
        <_>
          <internalNodes>
            0 -1 100 110894589 -1233633843 -379716163 -1082066433
            -1079443457 -236001 -277561345 -1363611656</internalNodes>
          <leafValues>
            -4.1212835907936096e-01 3.1448745727539062e-01</leafValues></_>
        <_>
          <internalNodes>
            0 -1 14 -3670222 -67395873 -204807678 1885743658 -42016909
            -545810087 1341639751 -564706301</internalNodes>
          <leafValues>
            -4.1489368677139282e-01 2.9402488470077515e-01</leafValues></_>
        <_>
          <internalNodes>
            0 -1 86 -19029366 -659786 -257361182 2088627886 -705298517
            -35931857 -748584278 302359050</internalNodes>
          <leafValues>
            -4.6015980839729309e-01 2.3488281667232513e-01</leafValues></_>
        <_>
          <internalNodes>
            0 -1 124 1354821326 1349964397 1903342356 1363208176
            282338780 -120563051 -294293521 -201324544</internalNodes>
          <leafValues>
            -4.2879548668861389e-01 2.3447702825069427e-01</leafValues></_>
        <_>
          <internalNodes>
            0 -1 18 -939786257 -1969050654 -68174009 -856761360 98526447
            80216047 1134467062 -940620681</internalNodes>
          <leafValues>
            -3.5490643978118896e-01 2.7596089243888855e-01</leafValues></_>
        <_>
          <internalNodes>
            0 -1 127 100668725 -1761985108 -107380737 -1073762945
            -1688715523 -1076004215 -1078002179 -1078062916</internalNodes>
          <leafValues>
            -3.2978403568267822e-01 3.1143960356712341e-01</leafValues></_>
        <_>
          <internalNodes>
            0 -1 45 1430643972 896887909 367602624 -1145750465
            1544873982 -23069199 -67666947 2145213365</internalNodes>
          <leafValues>
            -3.6766350269317627e-01 2.7576792240142822e-01</leafValues></_>
        <_>
          <internalNodes>
            0 -1 102 1348531185 1900513 -1211386949 2042475147
            1088694052 1284535261 1760371202 1104001951</internalNodes>
          <leafValues>
            -4.4314685463905334e-01 2.1661242842674255e-01</leafValues></_>
        <_>
          <internalNodes>
            0 -1 29 -427889029 -488935553 -1104347938 543322086
            -828422555 -786213505 -998511502 -416068254</internalNodes>
          <leafValues>
            -3.7960770726203918e-01 2.4967707693576813e-01</leafValues></_></weakClassifiers></_>
    <!-- stage 5 -->
    <_>
      <maxWeakCount>14</maxWeakCount>
      <stageThreshold>-1.5465716123580933e+00</stageThreshold>
      <weakClassifiers>
        <_>
          <internalNodes>
            0 -1 48 -2113537 -132097 -537023557 -152917 -131137 -1
            -268452949 -21589</internalNodes>
          <leafValues>
            -2.2373540699481964e-01 8.0196398496627808e-01</leafValues></_>
        <_>
          <internalNodes>
            0 -1 99 -16842753 -2164737 -1 -65537 -286261249 -1 -16777217
            -358416785</internalNodes>
          <leafValues>
            -3.2079413533210754e-01 5.9309315681457520e-01</leafValues></_>
        <_>
          <internalNodes>
            0 -1 9 -353375505 149417679 -525219089 -69234997 1879046527
            234878207 -67109377 -1</internalNodes>
          <leafValues>
            -3.1866803765296936e-01 5.4851883649826050e-01</leafValues></_>
        <_>
          <internalNodes>
            0 -1 74 -176816176 1427208517 1430343937 1435881937
            -33620225 -1935148545 -786549 -1650499941</internalNodes>
          <leafValues>
            -4.1000497341156006e-01 3.9995279908180237e-01</leafValues></_>
        <_>
          <internalNodes>
            0 -1 81 -67587 -1118241 -1077026817 -2097155 -4260867
            -6297857 -1077968897 788477437</internalNodes>
          <leafValues>
            -3.9608651399612427e-01 3.2656595110893250e-01</leafValues></_>
        <_>
          <internalNodes>
            0 -1 167 -268437705 589821951 -412100781 -1346895885
            1140319269 1130618163 -956870316 -25168009</internalNodes>
          <leafValues>
            -3.5196590423583984e-01 3.8941526412963867e-01</leafValues></_>
        <_>
          <internalNodes>
            0 -1 137 -17387 1065327959 -1073758273 -193 -1073746731
            -1654662315 -1393652596 -1107312901</internalNodes>
          <leafValues>
            -2.8599724173545837e-01 4.1916143894195557e-01</leafValues></_>
        <_>
          <internalNodes>
            0 -1 120 -1361178843 -1896039425 -51057106 -1364529218
            -33730811 -25231757 -50483376 -285233404</internalNodes>
          <leafValues>
            -4.3415522575378418e-01 2.8267452120780945e-01</leafValues></_>
        <_>
          <internalNodes>
            0 -1 113 1079689966 399769599 -488789074 972680167 8192253
            2029344765 2069516271 -42772954</internalNodes>
          <leafValues>
            -3.7646460533142090e-01 2.7606534957885742e-01</leafValues></_>
        <_>
          <internalNodes>
            0 -1 39 -1368200897 -1360090115 -268567181 -289491023
            804204485 -271859969 2139085299 -805353435</internalNodes>
          <leafValues>
            -3.5097509622573853e-01 2.9531314969062805e-01</leafValues></_>
        <_>
          <internalNodes>
            0 -1 16 -595333 -57725313 -561852718 -262086934 -100481983
            -765820571 -50139064 -698093877</internalNodes>
          <leafValues>
            -3.3685097098350525e-01 2.8750807046890259e-01</leafValues></_>
        <_>
          <internalNodes>
            0 -1 85 922959120 1073151391 1038812945 -7505997 780091317
            -4720193 -1112732164 -38066377</internalNodes>
          <leafValues>
            -4.0733638405799866e-01 2.5932738184928894e-01</leafValues></_>
        <_>
          <internalNodes>
            0 -1 138 98241317 261964671 -67289283 1314807796 -1378402795
            -542576513 -1163922380 -307691644</internalNodes>
          <leafValues>
            -4.5645967125892639e-01 2.1158419549465179e-01</leafValues></_>
        <_>
          <internalNodes>
            0 -1 144 -530918912 10550684 -1842430563 -1254494625
            1291660685 1556053482 -1197268550 -1107625237</internalNodes>
          <leafValues>
            -3.9978519082069397e-01 2.5229984521865845e-01</leafValues></_></weakClassifiers></_>
    <!-- stage 6 -->
    <_>
      <maxWeakCount>15</maxWeakCount>
      <stageThreshold>-1.4516807794570923e+00</stageThreshold>
      <weakClassifiers>
        <_>
          <internalNodes>
            0 -1 119 -3 -1 -34078721 -1 1946123263 -1 2013222399
            2147435810</internalNodes>
          <leafValues>
            -3.3039376139640808e-01 7.0519655942916870e-01</leafValues></_>
        <_>
          <internalNodes>
            0 -1 84 -262217 867432243 -12582913 -2057 -1 -1073743873
            -2130945 -1343258625</internalNodes>
          <leafValues>
            -3.0064553022384644e-01 6.6197520494461060e-01</leafValues></_>
        <_>
          <internalNodes>
            0 -1 148 -2146505 -41097 -71303169 1937767935 -604258475
            -8405145 -1048713 -8388609</internalNodes>
          <leafValues>
            -3.5556492209434509e-01 5.0963068008422852e-01</leafValues></_>
        <_>
          <internalNodes>
            0 -1 65 -38739971 -537068035 -1704449 -33554945 1066974207
            -1048577 2142056447 1006575099</internalNodes>
          <leafValues>
            -3.5883951187133789e-01 4.5618224143981934e-01</leafValues></_>
        <_>
          <internalNodes>
            0 -1 23 -17305601 -696785057 -26018178 -1072502066 -161
            -231211169 -9601 -151521329</internalNodes>
          <leafValues>
            -3.7391296029090881e-01 3.8647431135177612e-01</leafValues></_>
        <_>
          <internalNodes>
            0 -1 134 -572522498 -858980354 2103505657 -326111745
            -666829328 -557907973 1600125643 -544211013</internalNodes>
          <leafValues>
            -3.1211280822753906e-01 3.8377320766448975e-01</leafValues></_>
        <_>
          <internalNodes>
            0 -1 96 1044126937 967342975 -680788481 469647356 -14680067
            -33629825 -1161899009 -1430765572</internalNodes>
          <leafValues>
            -4.0838363766670227e-01 2.7581325173377991e-01</leafValues></_>
        <_>
          <internalNodes>
            0 -1 2 542257142 -16881665 -554561614 -51240206 1717383125
            -67115073 -1090707721 536806647</internalNodes>
          <leafValues>
            -4.4225499033927917e-01 2.3931190371513367e-01</leafValues></_>
        <_>
          <internalNodes>
            0 -1 164 -33559801 1879015277 -1432373849 -520093953
            -1610890240 292942621 -352388604 -244842945</internalNodes>
          <leafValues>
            -3.1920653581619263e-01 3.0634206533432007e-01</leafValues></_>
        <_>
          <internalNodes>
            0 -1 8 632344560 636812671 -1889600001 795356159 1727299428
            -37945858 2138013655 2144696191</internalNodes>
          <leafValues>
            -4.6024870872497559e-01 2.0496268570423126e-01</leafValues></_>
        <_>
          <internalNodes>
            0 -1 117 171314549 -1616085807 1159651327 -1073842211
            -1765247499 -38539330 -1076011523 -1096275460</internalNodes>
          <leafValues>
            -3.6905810236930847e-01 2.3369967937469482e-01</leafValues></_>
        <_>
          <internalNodes>
            0 -1 10 -1023750581 1012281255 -688412893 2076118790
            1979668305 343031938 -16777349 -211296941</internalNodes>
          <leafValues>
            -3.0966979265213013e-01 2.8509491682052612e-01</leafValues></_>
        <_>
          <internalNodes>
            0 -1 36 -1348030597 1856684254 -23216779 -275880236
            -1234190851 -882066434 -1281110021 -806795951</internalNodes>
          <leafValues>
            -3.1032624840736389e-01 2.8026992082595825e-01</leafValues></_>
        <_>
          <internalNodes>
            0 -1 135 1355873964 84999093 -204429134 -213249 1089217710
            1026079675 -244315506 1033715631</internalNodes>
          <leafValues>
            -3.9423969388008118e-01 2.2241677343845367e-01</leafValues></_>
        <_>
          <internalNodes>
            0 -1 169 -818151517 -1595232319 -85983387 -897843230
            -137889805 -323619385 -218639100 -705692683</internalNodes>
          <leafValues>
            -2.6581269502639771e-01 3.3389493823051453e-01</leafValues></_></weakClassifiers></_>
    <!-- stage 7 -->
    <_>
      <maxWeakCount>15</maxWeakCount>
      <stageThreshold>-1.4274829626083374e+00</stageThreshold>
      <weakClassifiers>
        <_>
          <internalNodes>
            0 -1 77 -134221827 -1 2144185070 -4370 -204476481 -1
            -67130710 -34624854</internalNodes>
          <leafValues>
            -3.0331206321716309e-01 6.9373995065689087e-01</leafValues></_>
        <_>
          <internalNodes>
            0 -1 58 -65 1035993019 -33554465 -131073 -262913 -1073938433
            -33685585 -1392672769</internalNodes>
          <leafValues>
            -3.0590668320655823e-01 6.2840580940246582e-01</leafValues></_>
        <_>
          <internalNodes>
            0 -1 42 -28377344 -105660118 -139076801 -33825 -672796303
            -1381 -70256129 -32769</internalNodes>
          <leafValues>
            -4.9098438024520874e-01 3.4561914205551147e-01</leafValues></_>
        <_>
          <internalNodes>
            0 -1 146 -193 -4231337 -8388609 1929379839 -171 2139094879
            -1031 -1089</internalNodes>
          <leafValues>
            -3.2550203800201416e-01 4.6594703197479248e-01</leafValues></_>
        <_>
          <internalNodes>
            0 -1 136 -1060837138 1154547679 -118426892 -67712413
            1150680575 -41877778 -3073 -62559514</internalNodes>
          <leafValues>
            -4.4096288084983826e-01 2.6100739836692810e-01</leafValues></_>
        <_>
          <internalNodes>
            0 -1 13 -285217041 1123020775 -360553938 -2132607261
            -69997713 1193279341 -573 -134742017</internalNodes>
          <leafValues>
            -3.9332377910614014e-01 3.0404141545295715e-01</leafValues></_>
        <_>
          <internalNodes>
            0 -1 78 -1363403275 -1365708803 -33693697 -100909059
            -1141981191 -269485057 -393217 -1078428164</internalNodes>
          <leafValues>
            -3.7840583920478821e-01 2.8871479630470276e-01</leafValues></_>
        <_>
          <internalNodes>
            0 -1 107 -6356 535291783 -328441300 -1077943890 1962230901
            1037024575 2009409423 -1345355217</internalNodes>
          <leafValues>
            -3.3971238136291504e-01 3.1173694133758545e-01</leafValues></_>
        <_>
          <internalNodes>
            0 -1 160 -33560605 -437342425 -201851008 -712050704
            -1611139149 67092475 355955712 -839919161</internalNodes>
          <leafValues>
            -3.2648161053657532e-01 3.0385398864746094e-01</leafValues></_>
        <_>
          <internalNodes>
            0 -1 126 715657521 -1116323971 -2113795 -122882 938835453
            -1074200602 -1210308867 -1342425864</internalNodes>
          <leafValues>
            -3.5818687081336975e-01 2.7986600995063782e-01</leafValues></_>
        <_>
          <internalNodes>
            0 -1 115 -268458233 -1935671297 -411064802 -421594646
            -138420425 -268447243 -1050796 -356521138</internalNodes>
          <leafValues>
            -2.9945757985115051e-01 3.1855472922325134e-01</leafValues></_>
        <_>
          <internalNodes>
            0 -1 147 754200309 -176541857 -67534857 -67257875
            -1213268513 -221185 -1344290817 -1097068060</internalNodes>
          <leafValues>
            -3.1566646695137024e-01 3.0180066823959351e-01</leafValues></_>
        <_>
          <internalNodes>
            0 -1 3 -339739153 776994799 -258281489 -55051782 -2034516037
            117169151 134198727 -941627913</internalNodes>
          <leafValues>
            -2.9204830527305603e-01 3.3358067274093628e-01</leafValues></_>
        <_>
          <internalNodes>
            0 -1 35 -522191085 1894906623 -437634815 -330301809
            368570659 1912469469 -1823395837 -36718097</internalNodes>
          <leafValues>
            -2.7263441681861877e-01 3.4069451689720154e-01</leafValues></_>
        <_>
          <internalNodes>
            0 -1 92 1416014464 -1243305137 -187761989 -68899913
            1926753262 -4211201 721723560 545530506</internalNodes>
          <leafValues>
            -4.9041232466697693e-01 1.7582717537879944e-01</leafValues></_></weakClassifiers></_>
    <!-- stage 8 -->
    <_>
      <maxWeakCount>19</maxWeakCount>
      <stageThreshold>-1.3794494867324829e+00</stageThreshold>
      <weakClassifiers>
        <_>
          <internalNodes>
            0 -1 49 -33571907 -34079745 1006349243 -21573 -34603075
            -4113 -67392597 -21571</internalNodes>
          <leafValues>
            -1.8836688995361328e-01 7.3431587219238281e-01</leafValues></_>
        <_>
          <internalNodes>
            0 -1 26 -134217729 -139808853 -134479873 -1356715486 -1025
            -418433 -16777217 -37009</internalNodes>
          <leafValues>
            -3.1015622615814209e-01 5.5673062801361084e-01</leafValues></_>
        <_>
          <internalNodes>
            0 -1 108 -257 -11147915 1718550224 -177881387 1342235374
            -575418833 1077988078 -8912913</internalNodes>
          <leafValues>
            -2.7177858352661133e-01 5.6394368410110474e-01</leafValues></_>
        <_>
          <internalNodes>
            0 -1 139 -67125291 -8353 -4194305 -1 -1836 -1646285411
            -1359229748 -1090519041</internalNodes>
          <leafValues>
            -2.6447427272796631e-01 4.9643617868423462e-01</leafValues></_>
        <_>
          <internalNodes>
            0 -1 166 -134219993 639627059 -138421967 -337117252
            1163347493 893874037 -831040251 -269486089</internalNodes>
          <leafValues>
            -3.2624852657318115e-01 3.5785630345344543e-01</leafValues></_>
        <_>
          <internalNodes>
            0 -1 80 -1392765584 -4475395 -607323171 -2105859 -1414463495
            -1073890369 -67305539 -507672</internalNodes>
          <leafValues>
            -3.6215370893478394e-01 2.9979583621025085e-01</leafValues></_>
        <_>
          <internalNodes>
            0 -1 98 -134217821 28376051 -8390863 -169871389 1407260645
            91289591 -141569 650114991</internalNodes>
          <leafValues>
            -3.2556006312370300e-01 3.0146116018295288e-01</leafValues></_>
        <_>
          <internalNodes>
            0 -1 28 -353374481 -262406161 -285565372 1617099704
            -210339489 1913870105 -9048301 -160694494</internalNodes>
          <leafValues>
            -3.1889277696609497e-01 2.9576653242111206e-01</leafValues></_>
        <_>
          <internalNodes>
            0 -1 89 6562095 467199865 668283199 -37378266 2005367551
            -4063862 -168064022 -103905368</internalNodes>
          <leafValues>
            -3.1566989421844482e-01 2.9366016387939453e-01</leafValues></_>
        <_>
          <internalNodes>
            0 -1 41 1967507008 40992 -199282191 834208002 1364313540
            1963020273 -1693764635 1069416377</internalNodes>
          <leafValues>
            -5.1764607429504395e-01 1.7688454687595367e-01</leafValues></_>
        <_>
          <internalNodes>
            0 -1 4 -341069893 -475336726 -357582981 -572897246 224395263
            676265527 -705178385 -536905729</internalNodes>
          <leafValues>
            -2.5251975655555725e-01 3.5271161794662476e-01</leafValues></_>
        <_>
          <internalNodes>
            0 -1 90 506346801 -1208895559 -1145062927 -545293446
            258619069 -1142947849 1006580413 -16902767</internalNodes>
          <leafValues>
            -3.2887610793113708e-01 2.4474322795867920e-01</leafValues></_>
        <_>
          <internalNodes>
            0 -1 157 683150388 -1075569189 1073414143 -1241564595
            1018976245 2136381691 -145998596 -1364709984</internalNodes>
          <leafValues>
            -3.9012286067008972e-01 2.0390830934047699e-01</leafValues></_>
        <_>
          <internalNodes>
            0 -1 24 -16784801 -592240553 1648390842 1893756582
            -430555132 -277651708 -503026166 -736887681</internalNodes>
          <leafValues>
            -3.2810810208320618e-01 2.5582364201545715e-01</leafValues></_>
        <_>
          <internalNodes>
            0 -1 159 -88618997 -1342751233 -557860941 159378935
            -1075641340 1410154358 -1373729784 -1494747185</internalNodes>
          <leafValues>
            -3.1664705276489258e-01 2.5165989995002747e-01</leafValues></_>
        <_>
          <internalNodes>
            0 -1 73 -165484632 1572661756 -1357908177 -33710609
            660107259 -1145831441 -1162097201 1004752127</internalNodes>
          <leafValues>
            -2.8537642955780029e-01 2.7522867918014526e-01</leafValues></_>
        <_>
          <internalNodes>
            0 -1 140 712979765 -1417224490 -3146529 -536912068
            -1169244427 -1627887111 770640893 -1078059528</internalNodes>
          <leafValues>
            -2.8161725401878357e-01 2.7421078085899353e-01</leafValues></_>
        <_>
          <internalNodes>
            0 -1 121 -286349274 -290525329 -425480498 -1565619370
            -411085772 -74269185 2005128196 -319235020</internalNodes>
          <leafValues>
            -4.0080338716506958e-01 1.9618676602840424e-01</leafValues></_>
        <_>
          <internalNodes>
            0 -1 125 -268842 -1977036788 -645593040 -2094297080
            -1938030852 -2006132350 959135744 556258563</internalNodes>
          <leafValues>
            -3.9155727624893188e-01 1.9373862445354462e-01</leafValues></_></weakClassifiers></_>
    <!-- stage 9 -->
    <_>
      <maxWeakCount>19</maxWeakCount>
      <stageThreshold>-1.4328097105026245e+00</stageThreshold>
      <weakClassifiers>
        <_>
          <internalNodes>
            0 -1 94 -19 -1 -235410706 -33554450 -134222865 -1025 -21590
            -168826194</internalNodes>
          <leafValues>
            -2.5339469313621521e-01 6.6636186838150024e-01</leafValues></_>
        <_>
          <internalNodes>
            0 -1 129 -252641538 -1057497505 1379991549 -48504898
            -253694225 -1133253041 -1 -14718209</internalNodes>
          <leafValues>
            -3.6491501331329346e-01 4.5872625708580017e-01</leafValues></_>
        <_>
          <internalNodes>
            0 -1 37 -262145 -1642574 1877741567 -55344 -12877829 -296970
            2146467839 -294913</internalNodes>
          <leafValues>
            -2.6060494780540466e-01 5.6289172172546387e-01</leafValues></_>
        <_>
          <internalNodes>
            0 -1 52 -1363214337 -556859457 -671088641 -65537 -69633
            -4194305 -3276817 -1</internalNodes>
          <leafValues>
            -2.8723347187042236e-01 4.9857875704765320e-01</leafValues></_>
        <_>
          <internalNodes>
            0 -1 91 1979678580 1978629983 -805591044 -1073741829
            -1464877132 -1073742105 788473376 603958271</internalNodes>
          <leafValues>
            -4.6544858813285828e-01 2.1917480230331421e-01</leafValues></_>
        <_>
          <internalNodes>
            0 -1 21 -362099134 1425256111 -18928743 -1089010753
            -13122799 -113161595 -67141849 -67665945</internalNodes>
          <leafValues>
            -4.5426940917968750e-01 2.2651509940624237e-01</leafValues></_>
        <_>
          <internalNodes>
            0 -1 165 -403703821 -1364197703 -1744993520 -5571152
            -717757517 1156562879 1973749088 -721431305</internalNodes>
          <leafValues>
            -3.2428383827209473e-01 2.9030752182006836e-01</leafValues></_>
        <_>
          <internalNodes>
            0 -1 151 710819121 -1610817537 -585122817 -410639
            -1140950283 -4164 -204145219 -1090777604</internalNodes>
          <leafValues>
            -3.6100760102272034e-01 2.4835872650146484e-01</leafValues></_>
        <_>
          <internalNodes>
            0 -1 114 -805312730 -1899298881 -486611282 -421273298
            1366775558 -244068297 -412221694 -285214065</internalNodes>
          <leafValues>
            -3.3382228016853333e-01 2.6667582988739014e-01</leafValues></_>
        <_>
          <internalNodes>
            0 -1 87 -125143609 -1615144113 -947917957 -16203909
            939473407 -8390661 -269672453 -2004324697</internalNodes>
          <leafValues>
            -3.5407382249832153e-01 2.2813621163368225e-01</leafValues></_>
        <_>
          <internalNodes>
            0 -1 132 36715829 -1143187971 -11035393 -820737 -1125337347
            -1078200343 1035975161 -1412558936</internalNodes>
          <leafValues>
            -2.8153568506240845e-01 2.8932648897171021e-01</leafValues></_>
        <_>
          <internalNodes>
            0 -1 162 -8433873 -1544061921 -153101781 276786879
            -135806716 1951654227 -1535459492 -479988933</internalNodes>
          <leafValues>
            -3.0175754427909851e-01 2.7082189917564392e-01</leafValues></_>
        <_>
          <internalNodes>
            0 -1 63 -1078977103 -114799 -268435465 -213027 1002487807
            -805323201 -1879080961 -1078257547</internalNodes>
          <leafValues>
            -2.4848803877830505e-01 3.2085293531417847e-01</leafValues></_>
        <_>
          <internalNodes>
            0 -1 104 -723190672 1615133558 2143108027 1508744187
            2020880032 -168100883 2138318879 2027926331</internalNodes>
          <leafValues>
            -3.4432557225227356e-01 2.3257069289684296e-01</leafValues></_>
        <_>
          <internalNodes>
            0 -1 34 -1060638125 -742392124 1145370449 -1058362166
            -203951581 2142685754 -1220033007 -292030127</internalNodes>
          <leafValues>
            -2.6593446731567383e-01 2.9082700610160828e-01</leafValues></_>
        <_>
          <internalNodes>
            0 -1 51 -1426100481 -430019585 -1147342863 -454098948
            -71355525 -268700221 -1934807111 -826619696</internalNodes>
          <leafValues>
            -3.0659401416778564e-01 2.4956864118576050e-01</leafValues></_>
        <_>
          <internalNodes>
            0 -1 133 -1490889296 -719294368 387828217 -1112531740
            -1650787843 -1165969512 514523359 254740509</internalNodes>
          <leafValues>
            -3.0844041705131531e-01 2.3621916770935059e-01</leafValues></_>
        <_>
          <internalNodes>
            0 -1 0 -1348221525 -427360350 -52519089 -498141570 247197439
            1088132048 1965414391 -144708106</internalNodes>
          <leafValues>
            -3.2660081982612610e-01 2.2283150255680084e-01</leafValues></_>
        <_>
          <internalNodes>
            0 -1 59 1903556481 288733105 -1319156934 -1745939501
            -581834503 -1076116559 1605395346 -1210584065</internalNodes>
          <leafValues>
            -2.7396506071090698e-01 2.7199786901473999e-01</leafValues></_></weakClassifiers></_>
    <!-- stage 10 -->
    <_>
      <maxWeakCount>21</maxWeakCount>
      <stageThreshold>-1.4129285812377930e+00</stageThreshold>
      <weakClassifiers>
        <_>
          <internalNodes>
            0 -1 66 -524289 -1178730567 -33687553 -1107296257 -4194817
            -1128268359 -34604033 -1376780353</internalNodes>
          <leafValues>
            -9.2179402709007263e-02 7.4709618091583252e-01</leafValues></_>
        <_>
          <internalNodes>
            0 -1 95 -33554435 -34078721 -570441729 -34603009 -285736961
            -1245185 1341065993 1878993855</internalNodes>
          <leafValues>
            -3.9820277690887451e-01 4.5666846632957458e-01</leafValues></_>
        <_>
          <internalNodes>
            0 -1 5 -336597009 730770730 -68424433 -345100798 -337641665
            1204514127 -201326593 -538968193</internalNodes>
          <leafValues>
            -3.5068494081497192e-01 3.9224952459335327e-01</leafValues></_>
        <_>
          <internalNodes>
            0 -1 55 -195692553 -1054812 1146484561 -723650625 -17409
            -27263010 -8912997 -10485861</internalNodes>
          <leafValues>
            -2.6780283451080322e-01 4.4175225496292114e-01</leafValues></_>
        <_>
          <internalNodes>
            0 -1 105 -16777217 -136364193 -8258081 -10485825 -155205633
            -67388417 -285233217 -1430622385</internalNodes>
          <leafValues>
            -3.0030828714370728e-01 3.2507410645484924e-01</leafValues></_>
        <_>
          <internalNodes>
            0 -1 158 -710937328 -990445572 -1762787788 -305135649
            1198994867 1708647287 1068433547 -1080037461</internalNodes>
          <leafValues>
            -3.3909231424331665e-01 2.7916294336318970e-01</leafValues></_>
        <_>
          <internalNodes>
            0 -1 142 -1110465 2101311583 -858399233 845109055 -36045199
            -8389289 -1974890980 -861209873</internalNodes>
          <leafValues>
            -3.1090193986892700e-01 2.6432055234909058e-01</leafValues></_>
        <_>
          <internalNodes>
            0 -1 67 611953551 274527385 50921647 1439420810 -784814661
            544778441 -477365351 1103755944</internalNodes>
          <leafValues>
            -3.6186471581459045e-01 2.4837842583656311e-01</leafValues></_>
        <_>
          <internalNodes>
            0 -1 57 -1371611663 -488112 -4261387 -10908 -1347114051
            -17115138 -1107312677 -536919980</internalNodes>
          <leafValues>
            -2.3807971179485321e-01 3.3017000555992126e-01</leafValues></_>
        <_>
          <internalNodes>
            0 -1 15 -67380609 -799025105 2054352606 811792974
            -1285601724 1044505909 -46354267 -733741317</internalNodes>
          <leafValues>
            -2.9248577356338501e-01 2.7780336141586304e-01</leafValues></_>
        <_>
          <internalNodes>
            0 -1 112 -294768892 -1601983244 -391467302 -824247362
            -168105632 -4720979 -8990972 -295506140</internalNodes>
          <leafValues>
            -4.2586550116539001e-01 1.7668904364109039e-01</leafValues></_>
        <_>
          <internalNodes>
            0 -1 156 948964404 -1175162497 -1146388609 -1612724841
            -1149381639 -33555521 -1091765250 -1415041628</internalNodes>
          <leafValues>
            -3.1039571762084961e-01 2.2922244668006897e-01</leafValues></_>
        <_>
          <internalNodes>
            0 -1 47 -1397775393 -1365062692 -690360109 -293819439
            -1362383361 -1968518931 -17714189 -541091339</internalNodes>
          <leafValues>
            -2.8878453373908997e-01 2.5184282660484314e-01</leafValues></_>
        <_>
          <internalNodes>
            0 -1 75 926250865 -4434285 -201884169 -539510665 1068316151
            -1143054595 95359132 -1348522579</internalNodes>
          <leafValues>
            -2.4422253668308258e-01 3.0587983131408691e-01</leafValues></_>
        <_>
          <internalNodes>
            0 -1 44 -566341921 -554693505 -51348865 169480063 -956611392
            -397278513 -91062690 -81049077</internalNodes>
          <leafValues>
            -2.4465677142143250e-01 2.9787924885749817e-01</leafValues></_>
        <_>
          <internalNodes>
            0 -1 116 -204476690 813558070 -520510326 838835839 812994877
            556086644 -357717073 556893482</internalNodes>
          <leafValues>
            -2.9448401927947998e-01 2.3390619456768036e-01</leafValues></_>
        <_>
          <internalNodes>
            0 -1 130 14983850 354483855 -1865151848 -109006423
            1683041197 2085892040 -1296291138 2030136678</internalNodes>
          <leafValues>
            -4.2251491546630859e-01 1.6145284473896027e-01</leafValues></_>
        <_>
          <internalNodes>
            0 -1 110 108273008 -494927 -1118824451 -1115930768 38547440
            -1145479980 -1730657559 -1409668004</internalNodes>
          <leafValues>
            -3.2959467172622681e-01 1.9844128191471100e-01</leafValues></_>
        <_>
          <internalNodes>
            0 -1 161 -482345301 -442715166 -170925760 -267870640
            114816647 -2070699109 1441781120 -1042813453</internalNodes>
          <leafValues>
            -2.8578561544418335e-01 2.4432213604450226e-01</leafValues></_>
        <_>
          <internalNodes>
            0 -1 31 1189496932 -1172307800 2126216461 -220263550
            1945530481 1191332076 -21414923 -641417</internalNodes>
          <leafValues>
            -4.4327446818351746e-01 1.4808976650238037e-01</leafValues></_>
        <_>
          <internalNodes>
            0 -1 64 -18682596 -85541634 -50331787 -6418 -1078752321
            -25235457 -1918261589 -1090580933</internalNodes>
          <leafValues>
            -2.2307594120502472e-01 2.9919505119323730e-01</leafValues></_></weakClassifiers></_>
    <!-- stage 11 -->
    <_>
      <maxWeakCount>21</maxWeakCount>
      <stageThreshold>-1.3881297111511230e+00</stageThreshold>
      <weakClassifiers>
        <_>
          <internalNodes>
            0 -1 97 -33559060 -771885585 2019664040 -777133138
            -235406341 -587333635 -656725 -1045</internalNodes>
          <leafValues>
            -2.5931209325790405e-01 6.5315198898315430e-01</leafValues></_>
        <_>
          <internalNodes>
            0 -1 103 -1 -786697 -288566280 -176816653 63487 -50331649
            805630971 -8391749</internalNodes>
          <leafValues>
            -2.4745808541774750e-01 6.3120126724243164e-01</leafValues></_>
        <_>
          <internalNodes>
            0 -1 69 5513525 867491710 -1076413121 -4907011 -1347047745
            -1402739 -1115312401 -4486518</internalNodes>
          <leafValues>
            -3.8639140129089355e-01 3.9737835526466370e-01</leafValues></_>
        <_>
          <internalNodes>
            0 -1 60 -33555457 -581569212 -44085437 1439777024 -11538449
            -136316949 -789025 1436407195</internalNodes>
          <leafValues>
            -3.0421018600463867e-01 4.2283213138580322e-01</leafValues></_>
        <_>
          <internalNodes>
            0 -1 30 -1347702785 -822151169 -1083714605 -1082593
            -806371329 -839651841 1206908927 -1569</internalNodes>
          <leafValues>
            -2.8854796290397644e-01 3.6460861563682556e-01</leafValues></_>
        <_>
          <internalNodes>
            0 -1 32 651889431 206441220 -879411715 -4214436 2080210815
            -149939710 -4137044 1963780872</internalNodes>
          <leafValues>
            -3.7315413355827332e-01 2.5770422816276550e-01</leafValues></_>
        <_>
          <internalNodes>
            0 -1 17 -740304150 -611910964 990718671 -1954029173
            -655753276 -264146000 2078248719 1330629199</internalNodes>
          <leafValues>
            -3.0853191018104553e-01 2.9259142279624939e-01</leafValues></_>
        <_>
          <internalNodes>
            0 -1 152 -555793323 -67111085 -1124140673 -10543337 -14183
            -1644176099 -2005008132 -1359221761</internalNodes>
          <leafValues>
            -2.6967045664787292e-01 3.0742183327674866e-01</leafValues></_>
        <_>
          <internalNodes>
            0 -1 131 -237643026 -1051202017 -767496968 287338058
            -730540817 -1543222208 -28973861 704841258</internalNodes>
          <leafValues>
            -3.2876765727996826e-01 2.5256365537643433e-01</leafValues></_>
        <_>
          <internalNodes>
            0 -1 82 -1049344 -704647412 -990642513 -573575177 1815195104
            -323025756 -656896564 -1999646801</internalNodes>
          <leafValues>
            -2.1204142272472382e-01 3.8069924712181091e-01</leafValues></_>
        <_>
          <internalNodes>
            0 -1 101 -100664405 603842303 1541404545 -134351943
            -612371057 666544186 -10093581 1744269799</internalNodes>
          <leafValues>
            -2.7450564503669739e-01 2.7992653846740723e-01</leafValues></_>
        <_>
          <internalNodes>
            0 -1 33 -227286305 -12604881 1651912895 1916985891
            1459487823 -4257977 -856231185 -260833729</internalNodes>
          <leafValues>
            -2.4215382337570190e-01 3.1949016451835632e-01</leafValues></_>
        <_>
          <internalNodes>
            0 -1 106 -176162066 -42609195 585509908 -875170189 608213104
            -822387100 1634064532 -8923425</internalNodes>
          <leafValues>
            -2.4494937062263489e-01 3.1485140323638916e-01</leafValues></_>
        <_>
          <internalNodes>
            0 -1 46 2135415514 -204764209 2074277546 -183844334
            -86994180 -117438002 -1304411968 1359298639</internalNodes>
          <leafValues>
            -3.1291651725769043e-01 2.2904355823993683e-01</leafValues></_>
        <_>
          <internalNodes>
            0 -1 118 251149429 2128281599 -68191233 -1077231617
            1202940396 -1140897361 -318062660 -1612180552</internalNodes>
          <leafValues>
            -2.9856926202774048e-01 2.3854796588420868e-01</leafValues></_>
        <_>
          <internalNodes>
            0 -1 27 1967449074 1843896526 903103743 193003937 1136931574
            1995962855 1934686681 1196749727</internalNodes>
          <leafValues>
            -3.6774080991744995e-01 1.8060787022113800e-01</leafValues></_>
        <_>
          <internalNodes>
            0 -1 155 -1393019555 -71424547 -278013953 -31841 -72576587
            -20973345 -4292611 -1414908491</internalNodes>
          <leafValues>
            -2.5745970010757446e-01 2.7374136447906494e-01</leafValues></_>
        <_>
          <internalNodes>
            0 -1 109 -671387859 -1192251541 1861657805 1576200886
            1380145151 -1233225793 -261227265 -790629470</internalNodes>
          <leafValues>
            -2.0985174179077148e-01 3.2550594210624695e-01</leafValues></_>
        <_>
          <internalNodes>
            0 -1 168 -469762537 288088234 1332205603 1057209042 74442640
            1436951351 1173782804 -41950233</internalNodes>
          <leafValues>
            -2.2979344427585602e-01 2.8996044397354126e-01</leafValues></_>
        <_>
          <internalNodes>
            0 -1 56 -1356136656 -283968236 -52628609 -134284844
            -1356170759 -67372289 536008636 -537181852</internalNodes>
          <leafValues>
            -2.6696524024009705e-01 2.4274450540542603e-01</leafValues></_>
        <_>
          <internalNodes>
            0 -1 145 1041444643 -1287684605 -9177630 -138512047
            1811701509 -10813903 -777488332 -106508</internalNodes>
          <leafValues>
            -3.4377610683441162e-01 1.8829368054866791e-01</leafValues></_></weakClassifiers></_></stages>
  <features>
    <_>
      <rect>
        0 0 4 2</rect></_>
    <_>
      <rect>
        0 0 12 5</rect></_>
    <_>
      <rect>
        0 0 12 6</rect></_>
    <_>
      <rect>
        0 1 3 2</rect></_>
    <_>
      <rect>
        0 1 5 5</rect></_>
    <_>
      <rect>
        0 4 4 5</rect></_>
    <_>
      <rect>
        0 4 7 12</rect></_>
    <_>
      <rect>
        0 6 6 5</rect></_>
    <_>
      <rect>
        0 7 11 5</rect></_>
    <_>
      <rect>
        0 8 3 5</rect></_>
    <_>
      <rect>
        0 12 5 4</rect></_>
    <_>
      <rect>
        0 14 3 5</rect></_>
    <_>
      <rect>
        0 16 7 9</rect></_>
    <_>
      <rect>
        0 17 3 2</rect></_>
    <_>
      <rect>
        0 20 8 6</rect></_>
    <_>
      <rect>
        0 24 4 5</rect></_>
    <_>
      <rect>
        0 25 6 5</rect></_>
    <_>
      <rect>
        0 29 16 5</rect></_>
    <_>
      <rect>
        1 0 4 3</rect></_>
    <_>
      <rect>
        1 5 9 6</rect></_>
    <_>
      <rect>
        1 9 7 9</rect></_>
    <_>
      <rect>
        1 10 6 7</rect></_>
    <_>
      <rect>
        1 20 2 2</rect></_>
    <_>
      <rect>
        1 22 4 4</rect></_>
    <_>
      <rect>
        1 28 5 4</rect></_>
    <_>
      <rect>
        3 0 5 4</rect></_>
    <_>
      <rect>
        3 5 5 5</rect></_>
    <_>
      <rect>
        3 6 7 7</rect></_>
    <_>
      <rect>
        3 18 3 3</rect></_>
    <_>
      <rect>
        3 22 3 3</rect></_>
    <_>
      <rect>
        4 0 4 3</rect></_>
    <_>
      <rect>
        4 13 4 4</rect></_>
    <_>
      <rect>
        4 13 11 2</rect></_>
    <_>
      <rect>
        5 39 6 2</rect></_>
    <_>
      <rect>
        6 0 12 15</rect></_>
    <_>
      <rect>
        6 4 14 11</rect></_>
    <_>
      <rect>
        6 5 3 2</rect></_>
    <_>
      <rect>
        6 12 3 2</rect></_>
    <_>
      <rect>
        6 23 2 1</rect></_>
    <_>
      <rect>
        7 1 3 3</rect></_>
    <_>
      <rect>
        7 4 6 7</rect></_>
    <_>
      <rect>
        7 7 6 9</rect></_>
    <_>
      <rect>
        7 9 4 10</rect></_>
    <_>
      <rect>
        7 11 12 7</rect></_>
    <_>
      <rect>
        7 34 7 4</rect></_>
    <_>
      <rect>
        8 13 5 5</rect></_>
    <_>
      <rect>
        8 23 5 3</rect></_>
    <_>
      <rect>
        9 0 2 1</rect></_>
    <_>
      <rect>
        9 5 9 6</rect></_>
    <_>
      <rect>
        9 8 9 5</rect></_>
    <_>
      <rect>
        9 9 13 8</rect></_>
    <_>
      <rect>
        9 22 1 1</rect></_>
    <_>
      <rect>
        10 0 2 4</rect></_>
    <_>
      <rect>
        10 4 9 6</rect></_>
    <_>
      <rect>
        10 4 9 7</rect></_>
    <_>
      <rect>
        10 8 9 11</rect></_>
    <_>
      <rect>
        10 11 1 1</rect></_>
    <_>
      <rect>
        10 12 1 1</rect></_>
    <_>
      <rect>
        10 13 5 2</rect></_>
    <_>
      <rect>
        10 14 5 3</rect></_>
    <_>
      <rect>
        11 2 5 14</rect></_>
    <_>
      <rect>
        11 5 9 6</rect></_>
    <_>
      <rect>
        11 6 5 6</rect></_>
    <_>
      <rect>
        11 10 1 1</rect></_>
    <_>
      <rect>
        11 11 1 2</rect></_>
    <_>
      <rect>
        11 11 2 2</rect></_>
    <_>
      <rect>
        11 12 5 2</rect></_>
    <_>
      <rect>
        11 12 8 2</rect></_>
    <_>
      <rect>
        11 13 5 2</rect></_>
    <_>
      <rect>
        11 14 11 3</rect></_>
    <_>
      <rect>
        11 15 1 1</rect></_>
    <_>
      <rect>
        12 0 12 5</rect></_>
    <_>
      <rect>
        12 11 1 1</rect></_>
    <_>
      <rect>
        12 11 2 2</rect></_>
    <_>
      <rect>
        12 11 6 9</rect></_>
    <_>
      <rect>
        12 17 2 1</rect></_>
    <_>
      <rect>
        13 0 8 9</rect></_>
    <_>
      <rect>
        13 5 8 5</rect></_>
    <_>
      <rect>
        13 8 1 1</rect></_>
    <_>
      <rect>
        13 10 4 3</rect></_>
    <_>
      <rect>
        13 11 1 1</rect></_>
    <_>
      <rect>
        13 11 1 2</rect></_>
    <_>
      <rect>
        13 12 3 1</rect></_>
    <_>
      <rect>
        13 14 1 1</rect></_>
    <_>
      <rect>
        13 14 4 2</rect></_>
    <_>
      <rect>
        13 15 2 2</rect></_>
    <_>
      <rect>
        14 0 7 11</rect></_>
    <_>
      <rect>
        14 2 3 5</rect></_>
    <_>
      <rect>
        14 10 7 3</rect></_>
    <_>
      <rect>
        14 14 9 2</rect></_>
    <_>
      <rect>
        14 18 1 1</rect></_>
    <_>
      <rect>
        15 2 11 6</rect></_>
    <_>
      <rect>
        15 3 7 6</rect></_>
    <_>
      <rect>
        15 8 1 1</rect></_>
    <_>
      <rect>
        15 8 6 3</rect></_>
    <_>
      <rect>
        16 4 10 7</rect></_>
    <_>
      <rect>
        16 9 1 1</rect></_>
    <_>
      <rect>
        16 11 5 2</rect></_>
    <_>
      <rect>
        16 15 3 2</rect></_>
    <_>
      <rect>
        17 3 2 5</rect></_>
    <_>
      <rect>
        17 8 1 1</rect></_>
    <_>
      <rect>
        17 16 3 1</rect></_>
    <_>
      <rect>
        19 5 9 8</rect></_>
    <_>
      <rect>
        19 7 6 10</rect></_>
    <_>
      <rect>
        19 7 9 7</rect></_>
    <_>
      <rect>
        19 8 1 2</rect></_>
    <_>
      <rect>
        19 9 5 11</rect></_>
    <_>
      <rect>
        19 11 4 5</rect></_>
    <_>
      <rect>
        21 7 5 12</rect></_>
    <_>
      <rect>
        21 11 4 3</rect></_>
    <_>
      <rect>
        21 30 1 1</rect></_>
    <_>
      <rect>
        22 7 6 6</rect></_>
    <_>
      <rect>
        22 13 1 1</rect></_>
    <_>
      <rect>
        22 13 5 3</rect></_>
    <_>
      <rect>
        22 14 2 2</rect></_>
    <_>
      <rect>
        22 15 1 1</rect></_>
    <_>
      <rect>
        22 16 4 3</rect></_>
    <_>
      <rect>
        22 35 1 1</rect></_>
    <_>
      <rect>
        22 36 1 1</rect></_>
    <_>
      <rect>
        23 6 4 5</rect></_>
    <_>
      <rect>
        23 12 1 1</rect></_>
    <_>
      <rect>
        23 14 1 1</rect></_>
    <_>
      <rect>
        23 34 1 1</rect></_>
    <_>
      <rect>
        24 7 8 11</rect></_>
    <_>
      <rect>
        24 15 5 5</rect></_>
    <_>
      <rect>
        24 25 8 7</rect></_>
    <_>
      <rect>
        24 31 1 1</rect></_>
    <_>
      <rect>
        24 36 1 1</rect></_>
    <_>
      <rect>
        25 9 1 1</rect></_>
    <_>
      <rect>
        25 12 5 8</rect></_>
    <_>
      <rect>
        25 13 5 4</rect></_>
    <_>
      <rect>
        25 15 5 8</rect></_>
    <_>
      <rect>
        25 30 1 1</rect></_>
    <_>
      <rect>
        25 31 3 3</rect></_>
    <_>
      <rect>
        26 9 7 11</rect></_>
    <_>
      <rect>
        26 10 5 6</rect></_>
    <_>
      <rect>
        26 13 5 6</rect></_>
    <_>
      <rect>
        27 0 7 5</rect></_>
    <_>
      <rect>
        28 0 2 1</rect></_>
    <_>
      <rect>
        28 2 5 4</rect></_>
    <_>
      <rect>
        28 35 1 1</rect></_>
    <_>
      <rect>
        30 0 4 3</rect></_>
    <_>
      <rect>
        30 0 5 3</rect></_>
    <_>
      <rect>
        30 7 6 12</rect></_>
    <_>
      <rect>
        30 10 6 6</rect></_>
    <_>
      <rect>
        31 0 1 1</rect></_>
    <_>
      <rect>
        31 0 5 2</rect></_>
    <_>
      <rect>
        31 10 1 1</rect></_>
    <_>
      <rect>
        32 0 3 2</rect></_>
    <_>
      <rect>
        32 1 5 3</rect></_>
    <_>
      <rect>
        32 2 4 4</rect></_>
    <_>
      <rect>
        32 8 1 1</rect></_>
    <_>
      <rect>
        33 0 3 5</rect></_>
    <_>
      <rect>
        33 0 5 3</rect></_>
    <_>
      <rect>
        33 6 5 13</rect></_>
    <_>
      <rect>
        34 9 1 1</rect></_>
    <_>
      <rect>
        34 10 1 1</rect></_>
    <_>
      <rect>
        34 11 1 1</rect></_>
    <_>
      <rect>
        35 7 4 8</rect></_>
    <_>
      <rect>
        36 4 4 4</rect></_>
    <_>
      <rect>
        36 28 4 3</rect></_>
    <_>
      <rect>
        36 29 4 3</rect></_>
    <_>
      <rect>
        38 2 3 3</rect></_>
    <_>
      <rect>
        38 26 3 2</rect></_>
    <_>
      <rect>
        39 4 3 3</rect></_>
    <_>
      <rect>
        39 24 3 4</rect></_>
    <_>
      <rect>
        42 13 2 4</rect></_>
    <_>
      <rect>
        42 18 2 3</rect></_>
    <_>
      <rect>
        42 20 2 3</rect></_>
    <_>
      <rect>
        42 26 2 3</rect></_></features></cascade>
</opencv_storage>
