<?xml version="1.0"?>
<opencv_storage>
<cascade>
  <stageType>BOOST</stageType>
  <featureType>LBP</featureType>
  <height>48</height>
  <width>48</width>
  <stageParams>
    <boostType>GAB</boostType>
    <minHitRate>9.9500000476837158e-01</minHitRate>
    <maxFalseAlarm>5.0000000000000000e-01</maxFalseAlarm>
    <weightTrimRate>9.4999999999999996e-01</weightTrimRate>
    <maxDepth>4</maxDepth>
    <maxWeakCount>100</maxWeakCount></stageParams>
  <featureParams>
    <maxCatCount>256</maxCatCount>
    <featSize>1</featSize></featureParams>
  <stageNum>11</stageNum>
  <stages>
    <!-- stage 0 -->
    <_>
      <maxWeakCount>2</maxWeakCount>
      <stageThreshold>-1.4720042943954468e+00</stageThreshold>
      <weakClassifiers>
        <_>
          <internalNodes>
            1 2 161 -21569 -21505 -1426347845 -4216150 -2375745 -263169
            -1145066837 -71325013 3 4 224 -1 -1077937221 -536870913
            -1077938373 -1 -1140851713 -1025 -1077952581 5 6 121 -1
            1068433343 -268435457 724299695 -129 1073725439 -16385
            738197375 7 8 231 -1 -20737 -335545925 -1053969 -67108929
            -257 -83906642 -21829 9 10 30 -1039997918 147099846 1220608
            -1069498360 -804306816 -2130689792 -795874749 -219156341 11
            12 385 -716179804 -771579512 -1994194660 -654063589
            -263200096 -670889829 -1815164799 -53484913 13 14 259
            -285234142 -269488210 1794026112 783215266 -25219324 -17
            -205050876 -389091580 0 -1 49 -11010050 -185142558
            -167780417 -168047442 -581636609 -541329801 -524289 -1 -2 -3
            65 1363190464 -1072135104 1107300417 -1694416895 -788086014
            1082130432 -929922871 -812669301 -4 -5 76 -715603757
            -787250877 69243185 -609942643 -805191597 -1073643519
            1092731483 -3935921 -6 -7 219 -1074886068 -1315090 -16846868
            -536940820 384 -2095054848 16809984 -9664402 -8 -9 298
            -144179201 -1056714622 131075 1140932748 -989216691
            -1742577655 -1065238354 -87033381 -10 -11 54 -150999177
            1728036847 -16777281 -500367633 -134840493 1711144828
            -1073741833 -464527491 -12 -13 246 -238551045 -269553665
            -1073741826 -276828164 -33554434 1073741815 -494895085
            -1083310153 -14 -15 254 125258098 805306367 1736398670
            805240703 36848656 655491071 73401344 21175558</internalNodes>
          <leafValues>
            -9.7909849882125854e-01 -6.1199623346328735e-01
            -8.8505744934082031e-01 6.2365591526031494e-01
            -9.3120390176773071e-01 6.4102566242218018e-01
            -7.5280898809432983e-01 8.6416864395141602e-01
            -9.5341098308563232e-01 5.3333336114883423e-01
            -5.5696201324462891e-01 8.4180790185928345e-01
            -8.7837839126586914e-01 1. -4.5882353186607361e-01
            9.4899815320968628e-01</leafValues></_>
        <_>
          <internalNodes>
            1 2 225 -2102545 -2049 -272848242 -3151186 -335827025 -513
            -34035030 -1316182 3 4 52 -222371870 -51599361 972804015
            -33816841 -713722382 -4718597 -84934657 -1 5 6 124
            1409598720 -169288320 -1075314692 -33703937 1431434737
            -672259 2076172287 -2049 7 8 119 -33554433 -573571107
            -1076564013 -136839303 -68158465 -5121 -8405297 -1 9 10 99
            -254029569 -129314060 1350754039 -863188344 1954804991
            -1258579217 -271778051 -528424224 11 12 265 -26739209
            -70089833 1090978051 -7962157 -215313749 -32931549
            -100157302 -1360075203 13 14 301 -1595528704 682010158
            -293720558 -1969082838 -404865776 -822149122 787910144
            -2144719104 0 -1 116 -262145 -638618671 -573572097 -33558034
            -8915969 -1573965 -134218821 -1 -2 -3 236 1712525461
            -1223163727 1075843469 295772361 1074037029 4194309
            1614932430 -1467785142 -4 -5 444 -50856013 -153124641
            1460261143 -38674289 -158606377 1887520419 -651192985 -1025
            -6 -7 430 -16785918 -1132756993 1879047798 1048493055
            1879046000 1451229055 -67766412 -151846914 -8 -9 149
            -74587137 -1143483449 -1870495585 1297940867 -774269697
            -1920298079 -1597096801 -38161 -10 -11 15 4243460 269484032
            0 138494723 1342178305 0 134267136 -796276773 -12 -13 117
            -720276266 -268009460 83886353 -1744437240 -1610497911
            8519680 -2147450709 -209198976 -14 -15 34 721317606
            149827310 1056927743 237899055 2147450743 109012991
            2147450751 129976191</internalNodes>
          <leafValues>
            -9.6336615085601807e-01 -6.5341629087924957e-02
            -8.9761286973953247e-01 8.4927856922149658e-01
            -8.6000806093215942e-01 3.0440643429756165e-01
            -5.4432970285415649e-01 7.6465195417404175e-01
            -9.3460482358932495e-01 4.0890535712242126e-01
            -8.1314754486083984e-01 7.8095978498458862e-01
            -8.8513642549514771e-01 7.3119884729385376e-01
            -6.6469043493270874e-01 9.4248837232589722e-01</leafValues></_></weakClassifiers></_>
    <!-- stage 1 -->
    <_>
      <maxWeakCount>2</maxWeakCount>
      <stageThreshold>-1.7633769512176514e+00</stageThreshold>
      <weakClassifiers>
        <_>
          <internalNodes>
            1 2 147 -1 -1 -21573 -21829 -16449 -1 -17477 -21589 3 4 187
            -1 1069285311 -35651585 -33 -1 -1 -1 -1 5 6 257 -287379457
            -1649082625 -16781313 -2002718993 -269553681 -257 -318836753
            -2134193010 7 8 123 -1 -4097 -1 -62209 -1 -4097 -32769
            -32769 9 10 253 1171610453 -9 1341075279 2147483647
            779304757 804290723 32966496 265289679 11 12 353 -615548065
            -640577531 414187671 -1113227253 -1114995919 -1079459646
            -1685415699 -873477377 13 14 125 801110719 725596862 -1
            800030639 2147482623 1040171007 -1 935328767 0 -1 85
            -285212673 -16842753 -1 -66561 -67108865 -65 -1 -1 -2 -3 60
            -1343234113 -1426828290 -152043522 -419631108 -8201
            -269156353 -34564981 -402657345 -4 -5 273 1394071007
            -225198075 16879897 -1761378293 134256680 -2139062014
            -522956614 -336597318 -6 -7 281 -324477440 -2066939972
            -285212675 2126512126 -1807708032 -993731138 2005988372
            -1404252324 -8 -9 37 -48761633 -608102329 -1593819073
            -121601129 -928415318 -913743665 -710029157 -3147813 -10 -11
            386 4358664 1073758209 2 -2147483647 33418 -2147483648 136
            131200 -12 -13 381 855836699 1897269504 102401 -1862197248
            -2012217344 -938999799 136314888 -821321717 -14 -15 371
            -1070808064 -2139038484 -1103429840 1287450100 -1994555392
            1283227620 -415972352 -1958816214</internalNodes>
          <leafValues>
            -9.2542529106140137e-01 -4.2637151479721069e-01
            -6.1338287591934204e-01 6.3754045963287354e-01
            -8.3236992359161377e-01 5.3125000000000000e-01
            -5.2380955219268799e-01 8.3742332458496094e-01
            -9.0181815624237061e-01 3.2352942228317261e-01
            -9.4117647409439087e-01 9.1869920492172241e-01
            -9.0666669607162476e-01 6.2857145071029663e-01
            6.8273089826107025e-02 9.6113073825836182e-01</leafValues></_>
        <_>
          <internalNodes>
            1 2 177 -513 -1174405189 -1109524481 -1145064525 -1
            -1073746497 -131073 1001388987 3 4 227 1002389495 469679999
            -1073741825 -1074364417 -1073790977 -1074008129 -1073742340
            -1 5 6 317 -47787 -28673 -131075 -33864625 -179026689 -1
            1383416285 1442006097 7 8 308 1962011615 2138557951
            1912601593 -3151921 41512959 -415745 -1393037425 -3151873 9
            10 358 -329328640 410876766 -80626184 -1084360241 2070385540
            -391674629 -91537618 -16777221 11 12 369 1063206903 -2890789
            -1819192065 -1076144680 556756979 -268962901 1669028341
            -1076367371 13 14 290 -285233630 -1494569009 -1024545276
            -353570898 -134801568 -1879048321 -939525088 -289673714 0 -1
            234 -68157441 -335544465 -272635971 -35651585 -67244033
            -1075905089 -33554433 -5242929 -2 -3 437 -287850601
            -450895995 -988965790 2009395601 2110283122 -70278512
            1201128245 -536871017 -4 -5 104 -36970497 -8662369
            1385550843 -1211112557 -1041659706 -1173454495 -108143617
            -4198465 -6 -7 120 1427505094 664731694 1073770955 67239946
            1364502783 1611827499 1372105187 791263649 -8 -9 419
            -538977285 -138938426 -1824404737 -33564687 -741673477
            -273970390 -70276363 -6292609 -10 -11 237 721621286
            436704256 285278621 -1769000699 -1606287127 -1065254528
            1653606738 -1110547557 -12 -13 10 -929582913 -2138857454
            67125406 -836108286 47024283 16679067 -528313697 -71316413
            -14 -15 79 1073792000 4227584 -8194 -1364530194 1433433588
            1198817236 2146795511 2088075255</internalNodes>
          <leafValues>
            -9.5802688598632812e-01 -2.8722408413887024e-01
            -8.4960144758224487e-01 3.0995294451713562e-01
            -8.9108002185821533e-01 4.2287567257881165e-01
            -5.3602993488311768e-01 6.1786657571792603e-01
            -9.3144255876541138e-01 9.6124894917011261e-02
            -8.3795166015625000e-01 5.4059535264968872e-01
            -8.3562994003295898e-01 4.2580851912498474e-01
            -5.0695949792861938e-01 8.3910447359085083e-01</leafValues></_></weakClassifiers></_>
    <!-- stage 2 -->
    <_>
      <maxWeakCount>2</maxWeakCount>
      <stageThreshold>-1.6357419490814209e+00</stageThreshold>
      <weakClassifiers>
        <_>
          <internalNodes>
            1 2 159 -2098177 -2105889 -547509509 -2118945 -132097
            -2101793 -71320901 -21829 3 4 188 2147483647 332922641
            -33564705 -641 -1 -287297 -1 -1 5 6 252 -17830238 -285217090
            -17826130 -50467110 -591326 -18 -5598 -285285886 7 8 394
            -193 -2097281 -285223681 -1 -339755251 -2081 -1392530657 -1
            9 10 339 -143165441 -574137065 1074253307 -146587377
            1926054591 -301274999 -138846133 -118799359 11 12 5
            -888551505 -2120112573 1157717255 -884922074 1350694811
            453048587 -268305713 -6293505 13 14 166 729164479 1006518207
            799948795 1072639935 805189561 1069498239 805257215
            1073549047 0 -1 196 -17104903 -65604 -9 -16387 -268632131
            -132131 -33829991 -71368936 -2 -3 95 -544343041 -586866168
            1344503882 -742293374 -912807237 -893341687 -1701198865
            -11535649 -4 -5 11 -720769025 -431823437 -805242805
            -520082925 -1073689142 -1878990438 -402596869 -7741657 -6 -7
            404 -323435520 -1427964036 -285233236 -1371603525 -176750032
            903855935 1060509458 -1078067418 -8 -9 345 -193988609
            -241847918 -1995865718 -578301189 -2010388245 -74857337
            -1161041272 -39060529 -10 -11 352 -33554624 -788528960 -390
            -1631584258 -2 -554041345 -152993584 -1940385802 -12 -13 427
            -741492385 1493464097 -905969391 1880162319 -1602158522
            -1023180790 2013458953 -86816637 -14 -15 402 -1363268096
            733708175 -1346392065 -1463902425 775290880 660815635
            35858978 -1439973573</internalNodes>
          <leafValues>
            -9.4840502738952637e-01 -7.1187281608581543e-01
            -6.7604434490203857e-01 4.6527779102325439e-01
            -8.2029950618743896e-01 1.1594203114509583e-01
            -5.5038762092590332e-01 7.1580344438552856e-01
            -9.0496760606765747e-01 1.6940658945086007e-17
            -5.7142859697341919e-01 8.2198953628540039e-01
            -8.2935154438018799e-01 5.3982299566268921e-01
            -4.3795619159936905e-02 9.2657077312469482e-01</leafValues></_>
        <_>
          <internalNodes>
            1 2 256 -285278209 -535041 -268959809 -4333569 -352391489
            -5243921 -16781377 -1431638289 3 4 185 -528739 -35331
            -1048581 -8220 -570511361 -4419 -268435458 -1075951871 5 6
            329 1616920797 -294913 2147352575 -201588997 8650971
            1608470271 937248495 2071428979 7 8 456 -84943885 1742733039
            -216139341 -905976137 2003788647 -805606545 -268438203
            -272640013 9 10 51 -856699198 1859382403 1254295463
            -1034823825 1200843291 1653306243 -269922755 -1057873 11 12
            3 -1484279829 -364604938 -101450371 -1263875061 -842306625
            1655083039 1523297183 -603988869 13 14 33 1711333440
            1088471040 -16386 939523821 1431631701 1165326288 -134742153
            -1048577 0 -1 310 -4194337 -67117057 -545259521 -1283
            1475732735 -4755721 -606225 -4194305 -2 -3 326 1551330559
            2145638295 -716979873 -2534645 1624772607 -1090506261
            -133496562 2116891491 -4 -5 23 -576727073 -11546018
            -263150661 -230170914 -788010032 -111279165 -628438789
            -88084229 -6 -7 325 1189543526 -1611694083 -268501249
            2147483647 48562922 964689919 444018398 1056335855 -8 -9 377
            -672137217 -574120045 -1072827425 2147324285 -353634598
            -362039161 -70516785 -5377 -10 -11 103 -215486448 -592067372
            9512962 -587202280 601063785 -2125918192 604274824 469723722
            -12 -13 69 -201330133 1523650971 1937949000 -601686014
            -534738749 -897023994 -465008613 -542651117 -14 -15 38
            -2098581982 -353337348 -285938960 -1406877702 -285745179
            -1536888843 1446502389 -1914221197</internalNodes>
          <leafValues>
            -9.2386913299560547e-01 -2.5859618186950684e-01
            -8.4694081544876099e-01 1.3259077072143555e-01
            -8.6638593673706055e-01 2.0583295822143555e-01
            -5.7821351289749146e-01 6.2292242050170898e-01
            -8.6888074874877930e-01 5.8164727687835693e-01
            -6.9402617216110229e-01 5.7459425926208496e-01
            -8.5285860300064087e-01 4.3051779270172119e-01
            -1.2941077351570129e-01 8.1896901130676270e-01</leafValues></_></weakClassifiers></_>
    <!-- stage 3 -->
    <_>
      <maxWeakCount>2</maxWeakCount>
      <stageThreshold>-1.6037055253982544e+00</stageThreshold>
      <weakClassifiers>
        <_>
          <internalNodes>
            1 2 118 -35651585 -2097665 -1342330177 -21829 -65 -147457
            -16449 -17473 3 4 154 2012608375 926809875 -536874497 -8195
            -1 -1025 -72484867 -1 5 6 73 -1343295501 -1905594433
            -273156097 -827404694 -1884291073 -940113921 -10489857
            -268960265 7 8 41 -270532609 -286261249 -8388609 -16779265
            -269484033 -33583105 -1048577 -1 9 10 322 2037905407
            -10495041 1167309791 -6299219 1398877151 2063371630
            2035239499 2079285247 11 12 187 -44042275 1006588829
            -49947179 -33695745 -1048543216 -544178048 -377466492
            -1116987 13 14 206 1068761071 -1145307201 -1073741825
            331086783 -1090519041 -16777217 -3 992608239 0 -1 331
            -33554433 -131073 -551616513 -14696469 1718820287 -33025
            -11702273 -2136969 -2 -3 100 -549323796 -719455444 419975365
            -647013939 1970600689 965071523 -643164022 -2114865 -4 -5 50
            -824185889 -454310829 -762054561 -1021577729 -612183569
            -711929170 -70265873 -7341089 -6 -7 28 -269561921 -420544520
            -268435458 -291082488 -1484783649 -308879380 -4097
            -269502829 -8 -9 441 -1578713 -1853752765 -1021054365
            -95960037 -804582639 -788447222 -1064374126 -17 -10 -11 395
            -318845952 -285540385 -16843010 -290783297 -1619077532
            -2147483641 524288 -1072104922 -12 -13 57 -653801729
            -1315856375 1359282244 839929858 1073750083 311099400
            -1610514225 -1501046517 -14 -15 357 -939474944 -2080320112
            -310514064 1764554222 -319454208 -841089070 1732133888
            -865017898</internalNodes>
          <leafValues>
            -9.3099707365036011e-01 -6.4960348606109619e-01
            -7.9492598772048950e-01 9.2896178364753723e-02
            -8.3292078971862793e-01 3.7656903266906738e-02
            -3.2487308979034424e-01 7.5000000000000000e-01
            -8.6265289783477783e-01 1.0382513701915741e-01
            -6.1481481790542603e-01 7.8082191944122314e-01
            -8.3478260040283203e-01 5.0847458839416504e-01
            -3.2051283121109009e-01 9.2579507827758789e-01</leafValues></_>
        <_>
          <internalNodes>
            1 2 318 -67241995 -67117057 -2081 -134484097 -67115265
            -10305 -19270147 -135838719 3 4 417 218000893 -1111826571
            -10493953 -1077985285 -16806402 -270733313 -33883393
            -1074876481 5 6 428 -536912315 -8437905 -1216520259
            -77594769 2094423124 394262111 -319627712 -1090527365 7 8
            106 -285323651 -76186626 -537919489 -16777221 -805347457
            -20721 -33816585 -257 9 10 22 -2622601 -61876541 -551645930
            -1440183642 -98018443 -546861349 1904172222 -195048929 11 12
            181 -1476089957 -1384789563 -983720545 -808940083
            -1727153249 -40903715 -841011783 -1465012562 13 14 87
            1072693230 582987564 -17 791654318 2147446783 1006599679
            -134217857 666892279 0 -1 47 -681574497 -2753034 -69215281
            -528714 -1 -671940610 -84411393 -16385 -2 -3 59 -1424232649
            751666046 -184424045 -287265758 -1396638465 388571611
            1606794087 -19932175 -4 -5 68 -671092745 -153955625
            -211838769 -1459656017 1070455743 -67524165 -489452991
            -103318697 -6 -7 155 726281233 -951983657 394287837
            625837403 555559281 -763330415 -1476363338 -643354480 -8 -9
            218 -12189961 -54345265 -1127827508 -609375282 -82973329
            -372799093 -765198425 -540945 -10 -11 275 -354488788
            -2147434367 -2007757016 -905543153 1476468773 196608
            -448412895 1675463887 -12 -13 334 -795608101 1527841921
            -1319532646 -1525463776 -267153153 -578578430 -1870027511
            -1181892374 -14 -15 378 12 335593469 1862021102 665075455
            930418478 1073692671 1073614670 963055406</internalNodes>
          <leafValues>
            -9.4365888833999634e-01 -4.4812044501304626e-01
            -7.7078467607498169e-01 6.7034117877483368e-02
            -8.1049281358718872e-01 3.2382085919380188e-02
            -6.5489989519119263e-01 5.7891803979873657e-01
            -8.8067919015884399e-01 -1.0191750712692738e-02
            -6.7639982700347900e-01 5.4974198341369629e-01
            -9.2160713672637939e-01 4.4477289915084839e-01
            -6.0890614986419678e-01 8.1146442890167236e-01</leafValues></_></weakClassifiers></_>
    <!-- stage 4 -->
    <_>
      <maxWeakCount>2</maxWeakCount>
      <stageThreshold>-1.6874170303344727e+00</stageThreshold>
      <weakClassifiers>
        <_>
          <internalNodes>
            1 2 272 -1 -1 -77594625 -16777249 -1 -4456449 -4097
            -352391425 3 4 376 -129 -1 -1 -1 -262795 -1 -268435619 -1 5
            6 139 -1414550593 -20497 -1434572117 -21877 -16449 -16385
            -1145062465 -21829 7 8 342 -4241 -285213185 -1179937
            -16777249 -8948393 -17409 -411 -1 9 10 372 -668795186
            -900677169 -737001253 -643641087 -233588758 -1823309814
            -85203985 -2097409 11 12 433 -738470113 -137899205
            -1791552097 -777534481 -1679045307 1929509182 -1596728537
            -76547745 13 14 32 -396170144 -256836878 -272859138
            2130705918 -546183856 -202080265 -1778985352 -541851658 0 -1
            453 -268435457 -35651585 -1048577 -1 -402915435 -25
            -536874123 -65 -2 -3 238 -1218447433 563997115 -113126185
            -2238253 -1732602433 -175538022 -2588005 -607135541 -4 -5
            211 -124422307 -40004331 1560632089 -44575975 -1475810664
            -74341435 -1430082625 -388898324 -6 -7 158 -67192134 -279617
            -67109958 -21321046 -16463 -1 -214 -341136886 -8 -9 72
            -439091905 -744697045 -1002319489 -2046311914 -784289617
            -1695952661 1881776835 -2317 -10 -11 324 -1059008295
            1077940323 -2143223807 1090535489 426 1074387972 264331
            1368084583 -12 -13 96 -776087073 -1072512765 -2130681980
            -1447034679 29462657 134742016 -762753008 -829824169 -14 -15
            383 -458300416 -2080309764 -1095567304 -969343121 -705178412
            -65545 2004866834 -67117070</internalNodes>
          <leafValues>
            -9.3454319238662720e-01 -5.8916479349136353e-01
            -7.6332092285156250e-01 3.4965034574270248e-02
            -8.4114050865173340e-01 9.3457940965890884e-03
            -5.8878505229949951e-01 7.8005117177963257e-01
            -8.8888889551162720e-01 -1.6049382090568542e-01
            -7.1597635746002197e-01 6.1052632331848145e-01
            -8.5294115543365479e-01 3.7062937021255493e-01
            -9.6573211252689362e-02 8.9627659320831299e-01</leafValues></_>
        <_>
          <internalNodes>
            1 2 84 -1343225857 -1930514433 -2228393 -285280002
            -805306369 -301990913 -1537 -268435457 3 4 309 -1361072345
            -1498480961 -27791698 -352796690 -8390793 -9 -139 -8197 5 6
            175 -72220689 -4980805 2013265919 455327675 -1073741825 -1
            -268435473 999013279 7 8 67 -16781441 -865075241 -16843015
            -218169345 -272632541 -266251 -67240009 -16777249 9 10 105
            12133175 -42125481 -509258755 -2296580 -1465009281 -33822710
            -1144201217 -40379571 11 12 388 -707005497 -56768009
            1657098426 1463797495 -73601037 -743792726 -109053054
            -338956373 13 14 287 -285594110 720105135 -286544352
            720301734 -55454 -596122 -268966400 -424744926 0 -1 213
            -134217729 -67372035 -950755563 -536870913 -65 -1073877393
            -8389221 -268451845 -2 -3 288 -11440129 -788143549
            -1806435937 -573064737 -1199219269 -351796049 967525567
            -85249428 -4 -5 416 -1610612991 -1413742609 -1361055876
            -1109393937 -104334455 -540291969 -128999494 -285479169 -6
            -7 289 -289496316 147334786 -1018501880 -321507446
            -114725536 167903368 -930893280 -1027601756 -8 -9 201
            -235473929 1370544055 -578192897 -34106733 1511631295
            832825523 -367402529 -3671042 -10 -11 362 -1866153826
            289735173 33558576 1191319593 16781934 -888668160
            -2147352406 -1160970174 -12 -13 420 1632357363 -543354791
            1359028564 -108936902 -1060788565 1217249712 -2110893692
            -554993157 -14 -15 397 707538688 -1602310342 -1372737618
            -1448345601 422774528 662437753 657336864 -1438986437</internalNodes>
          <leafValues>
            -9.2409610748291016e-01 -3.6889192461967468e-01
            -7.3725122213363647e-01 3.4160685539245605e-01
            -7.9378968477249146e-01 1.5220671775750816e-04
            -6.1966812610626221e-01 5.4002726078033447e-01
            -8.6400902271270752e-01 5.7670038193464279e-02
            -8.4404122829437256e-01 6.9542276859283447e-01
            -8.8186997175216675e-01 4.8605942726135254e-01
            -2.4617816507816315e-01 8.2852667570114136e-01</leafValues></_></weakClassifiers></_>
    <!-- stage 5 -->
    <_>
      <maxWeakCount>3</maxWeakCount>
      <stageThreshold>-1.2621314525604248e+00</stageThreshold>
      <weakClassifiers>
        <_>
          <internalNodes>
            1 2 205 -134217729 -2752513 -10503425 -2101249 -274202625
            -2097665 -69229894 -23889 3 4 183 -1 -4097 -67108865 -1
            -1025 -33 -16449 -53265 5 6 392 -233 -8392833 -213 -8388737
            -134251243 2138570623 -655 -5 7 8 210 -1259594243 -98305
            -35651715 -8617993 -1 -4210689 -68419585 -1078182404 9 10 35
            -428880129 547334151 1677779113 -1039373503 -663751379
            1124180033 -444346146 -235409521 11 12 18 -15863857
            -336467825 -574529265 -1021892085 -880744229 -343903774
            -560595329 -5242881 13 14 148 1431687488 -647054176 -3
            -29372943 1431666559 1576828415 -671481867 -18883089 0 -1
            186 -33554433 -174718977 -276827905 -639639585 -1092616257
            -67108949 -285474817 -1025 -2 -3 455 -3279 -1219048614
            -1519102476 -413734437 1884229991 1958857995 -1601180123
            -34610177 -4 -5 97 -1399655981 -325562159 -247226153
            -473415178 -1005419801 -1414983117 -1048315217 -279193093 -6
            -7 337 751688912 -590544916 -16908321 1870462975 -1510217536
            -721977354 -317009340 -405275174 -8 -9 280 -547357697
            -1907603005 622592 134676480 -153617942 -1835744195
            -204998495 -294655533 -10 -11 295 1960097262 2138898430
            2130640894 -134352899 1610612961 -168493187 -1073741825
            -849805362 -12 -13 294 1164111583 545259780 1359224159
            352321569 1391032571 2063728769 -880117281 -894868982 -14
            -15 63 655685631 67144194 -537526273 11784 2144731125
            2004041725 2004320253 1090838383</internalNodes>
          <leafValues>
            -9.2171806097030640e-01 -4.6666666865348816e-01
            -7.7258807420730591e-01 -1.3874788582324982e-01
            -8.0102038383483887e-01 5.2325580269098282e-02
            -3.8532111048698425e-01 8.2205027341842651e-01
            -8.4658688306808472e-01 -6.7901231348514557e-02
            -5.8974361419677734e-01 7.4834436178207397e-01
            -6.8018019199371338e-01 4.9242424964904785e-01
            -3.0177515745162964e-01 8.9092576503753662e-01</leafValues></_>
        <_>
          <internalNodes>
            1 2 212 -1 865843131 -2621441 -1074003969 -4194305
            -1077952601 -2098241 -1145046085 3 4 247 -89461825 -329217
            -71830537 -66625 -2106881 -540801 -1076101125 -359989265 5 6
            360 1347472078 -573178433 -88539401 -61800577 1615859401
            -107954220 -160038913 -25170177 7 8 58 -76550401 -70293779
            1994850047 1852014318 -430454917 -49195 -25755906 -67928513
            9 10 112 780051451 -363662849 -1055656483 -1897364875
            962108407 -206401281 -1094194177 -2621969 11 12 77
            -203752233 -174698099 -1067782914 -41753014 -1957514918
            -271989857 -1433187561 -701233027 13 14 91 -368392704
            -353714178 2147483518 -286261506 639661824 -151027713
            -984777103 -268435533 0 -1 266 -2097153 -2654737 -52445185
            -102764545 -204226721 -272671895 -145555461 -257 -2 -3 163
            -1357230667 -76231459 -114823009 -6309096 -72163908
            -74475379 -35915539 -878442188 -4 -5 409 -33562881
            -342568618 -116262713 1438644978 -21037092 -540551541
            -604287676 -671352105 -6 -7 405 -1058634240 -2012952136
            1073745925 1911734980 1074074256 -1314782965 868909073
            -724567697 -8 -9 129 -262145 -109095657 -800426657 -68423093
            -1299527025 -16019249 -92411269 -8389233 -10 -11 92
            -960244316 -745553257 -1073377054 1555300418 1346577117
            897714240 1753547820 1128743489 -12 -13 115 -209455649
            1883308309 -2130325227 -1627351722 1090551947 -2013249533
            -1588483534 -7565080 -14 -15 193 302001216 272670818
            -1862246304 1470120580 -1050599016 -1878966272 1906360836
            1737228804</internalNodes>
          <leafValues>
            -8.9553004503250122e-01 -2.2682702541351318e-01
            -7.7318787574768066e-01 8.5928522050380707e-02
            -8.4135949611663818e-01 -4.1057672351598740e-02
            -5.6653767824172974e-01 5.7521569728851318e-01
            -8.2981914281845093e-01 3.7498152256011963e-01
            -7.5607788562774658e-01 4.9153447151184082e-01
            -8.3180707693099976e-01 5.2543181180953979e-01
            -6.1776638031005859e-01 8.1188011169433594e-01</leafValues></_>
        <_>
          <internalNodes>
            1 2 311 -1342197977 -1359282453 -860885472 -1363480852
            -33849565 -1409418257 -170 -8194 3 4 61 -269500513
            -1368457345 2079449019 -805945602 -268831233 -845365513
            -34603011 -4609 5 6 182 -2102346192 -156696655 -268640257
            -196884 1031573489 -1073741827 -1108595220 -335805180 7 8
            199 -13172747 -2229377 -1115138 -270410 -7421957 -71303237
            -262145 -39676 9 10 279 827916080 -741223717 -247402017
            2067972497 -387123452 -92406181 994139663 2080236923 11 12
            278 1324097109 -1076432657 -1081716385 332829497 -1681076227
            -2557205 -69518595 -1343602844 13 14 9 800993255 803942383
            1878487031 188295978 1610579839 1879015423 -1 1873766015 0
            -1 267 -1835009 -235935745 -548413441 -537919547 -562627098
            -37879873 -65605 -12583025 -2 -3 150 1561694617 1565890005
            -1652064039 1557172379 -1857806945 -587083563 -611601014
            -170410599 -4 -5 261 -134549521 -105555770 -789341252
            2104151790 -359945281 315261451 -404228721 -2643009 -6 -7
            244 1068776753 -1885356167 -553666569 -639109 469761343
            -301989889 -2013282456 -302039561 -8 -9 239 2071460863
            -77990433 -1718091809 -2103862 -1187186433 -72642890
            -1544573185 -524337 -10 -11 25 -278668693 1311998814
            268466664 167855823 -350305935 -1157382143 -1027468169
            1140972159 -12 -13 40 -18884641 -1281388353 1385908373
            -1606889069 -739905549 -1148149373 -606340137 -616515717 -14
            -15 303 1727991330 -75497538 -152163838 -1414795730
            561463334 1463795583 1617182724 1090863104</internalNodes>
          <leafValues>
            -9.1562902927398682e-01 -3.2919657230377197e-01
            -8.2643520832061768e-01 2.7470546960830688e-01
            -9.0182137489318848e-01 1.6475661098957062e-01
            -4.3958353996276855e-01 6.9216459989547729e-01
            -8.1780785322189331e-01 5.1121497154235840e-01
            -6.3857877254486084e-01 5.4251611232757568e-01
            -7.6953744888305664e-01 3.6247220635414124e-01
            -4.5577681064605713e-01 7.2405189275741577e-01</leafValues></_></weakClassifiers></_>
    <!-- stage 6 -->
    <_>
      <maxWeakCount>3</maxWeakCount>
      <stageThreshold>-1.2957587242126465e+00</stageThreshold>
      <weakClassifiers>
        <_>
          <internalNodes>
            1 2 306 -150994945 -2113537 -1075970561 -1048617 1157317887
            -1155333 -696321 -32897 3 4 396 -1 -1057 -2630145 -1 -1092
            -16385 -1359017844 -1426064641 5 6 168 1896215808 -134877723
            -1283237557 -34089829 -342377537 -87449464 -1992169309
            -73668450 7 8 101 -4849665 -6741286 -11077893 -712010
            -538189829 -268774406 -35684353 -34953 9 10 45 -145753345
            -924672826 -1957750629 -293448832 -1702128961 1670095043
            -2135962689 -1082585 11 12 443 -706745537 2031599711
            -1065160233 1325523275 -522378744 1129078857 -1332888566
            -606076961 13 14 366 -608436500 -756220036 679072416
            137411494 -33820950 -453136900 -56891392 59402 0 -1 349
            -617745414 1299504492 -154217605 -176948257 -4725112
            -194446601 -820781502 -273678341 -2 -3 109 -749209618
            -201468994 -508305174 -606077958 1963326205 -942554476
            -1113474854 -4996869 -4 -5 418 -603982861 -1794715221
            -869496489 -1644720989 -1877222525 -125058936 -1035798144
            -289407029 -6 -7 136 1431676292 -102903800 -33554435
            1577053563 -172457987 1608548341 -1 -1120403971 -8 -9 312
            -639894529 -51280495 285852623 -544220717 -242355713
            -136642328 -1181762629 -1161971537 -10 -11 179 -778721914
            -788496236 16779289 1698742336 648 -1073672192 1207992778
            868821706 -12 -13 44 -248006857 -985221045 1078002131
            -1560231936 -2013101873 -1811775480 -1072852069 -671634959
            -14 -15 86 100728543 782696171 2138570735 61422 2147352567
            -1572865 1072168958 18153326</internalNodes>
          <leafValues>
            -9.3096536397933960e-01 -7.0720863342285156e-01
            -7.5792878866195679e-01 8.9887641370296478e-03
            -8.5337245464324951e-01 -6.5088756382465363e-02
            -4.6695095300674438e-01 6.1344540119171143e-01
            -8.7346220016479492e-01 7.9646021127700806e-02
            -7.4193549156188965e-01 6.1344540119171143e-01
            -7.7477478981018066e-01 3.7634408473968506e-01
            -6.3043481111526489e-01 7.9420667886734009e-01</leafValues></_>
        <_>
          <internalNodes>
            1 2 233 -1426310795 -1107526145 -24577 -1074102345 -67305539
            -147457 -65 -1162331336 3 4 226 -42721995 1006436223 -1
            -75595777 -1090749955 -1073807361 -180225 -328195 5 6 434
            -152050944 919664455 -1365578869 -65 2038371106 589772658
            -1951431894 -201851141 7 8 293 -237502465 -533537 -538198049
            -145886593 -235604481 -140481 -17432609 -20753 9 10 400
            -697307136 886874092 1024393088 2107624443 -225707113
            -1282815613 -105121042 -1342445073 11 12 17 -386929974
            1146449637 -603569682 -545997666 1978291831 4675739
            -443069840 -42074117 13 14 204 -139423796 -5247236
            2080205422 -68227350 -1073758321 -1048593 -1115706742
            -80762230 0 -1 93 -3147009 2146434815 -21038353 -135995697
            1601945599 -538870999 -77597185 -829841 -2 -3 48 1241768003
            -1249869821 90946 -418143998 -1071864576 -1878917118
            -1065324470 -628661625 -4 -5 387 -10487825 -106987193
            -1291661049 -140548533 -102766601 -62668405 -121652741
            -4197377 -6 -7 74 1996619503 80006730 -801025835 33980608
            1239571844 1715724507 -1033517024 1472323820 -8 -9 232
            -204081170 2103431903 1925834371 -536872710 -1282024977
            -905936758 1792016174 -539120165 -10 -11 197 -1178339844
            -586299309 16877659 -1309291464 1376319916 -13939644
            466323927 768034727 -12 -13 200 -179604033 -1319388242
            85706368 -81820789 -1073631057 139403 -1171721462 1086540706
            -14 -15 166 246295200 968785775 268316410 1069530857
            792608698 1006583807 1072578366 767364469</internalNodes>
          <leafValues>
            -9.0073567628860474e-01 -4.3830186128616333e-01
            -7.7347886562347412e-01 5.8558303117752075e-01
            -8.6725002527236938e-01 4.4451436400413513e-01
            -7.1210044622421265e-01 4.8130747675895691e-01
            -8.1973993778228760e-01 -1.4622205495834351e-01
            -4.8891893029212952e-01 4.5059496164321899e-01
            -7.3479431867599487e-01 3.0124625563621521e-01
            -4.9946999549865723e-01 7.3682326078414917e-01</leafValues></_>
        <_>
          <internalNodes>
            1 2 411 -2146499 -2228769 -337708099 -42221633 -33685660
            -1116212613 -289539212 -21299265 3 4 262 -134482009
            598734775 2077864279 -301998609 -1146421889 654702971
            2072507319 -134223873 5 6 373 1086361230 1363181551
            -390533378 2134048607 -137189494 -42637314 2080095675
            -549386273 7 8 249 -4718593 1448898549 -545448400 -369632331
            -651297861 75713166 -1615864913 -100671685 9 10 81 -566753
            -782867105 1444543572 944770578 973855060 -808748485
            1028051716 -618510766 11 12 162 1591394234 -212231785
            -1770937345 1573294243 -1001261922 -2138796928 -1161696001
            -404251761 13 14 122 737816361 1059830327 682535738
            -1422218710 1073692466 -1077952577 -1346684102 993930794 0
            -1 346 -687865861 1943984493 -607137285 -1648361513
            -69469249 -1113065043 -3154177 -67108897 -2 -3 82 -698354755
            -49556969 542950750 -1231892477 -804624055 -1851281408
            -99028625 -1104737958 -4 -5 130 -537141249 -40160781
            -705617271 1029640763 -87796996 -1359475313 -139826949
            -537986241 -6 -7 215 679642030 -438898474 -922663483
            -362905396 -795430424 -670693246 774565002 -1460786550 -8 -9
            263 -249572353 -199374845 -854277385 -313027749 -36467201
            2031759369 -1526407553 -537395205 -10 -11 53 -2031625906
            1608384944 -1609891768 816251094 1636048962 411206149
            1629718604 -45953023 -12 -13 335 2039870455 286334993
            811631157 -1073709056 -99894842 1946880257 -1313879266
            1528803435 -14 -15 291 -353464830 178978790 -823474048
            14871300 -134775037 2013265919 -948550396 -1029312956</internalNodes>
          <leafValues>
            -8.4610086679458618e-01 -3.5885325632989407e-03
            -6.9698411226272583e-01 4.5396286249160767e-01
            -7.3554855585098267e-01 3.2924047112464905e-01
            -6.5854269266128540e-01 5.0398051738739014e-01
            -8.6295199394226074e-01 2.3467722535133362e-01
            -7.2575992345809937e-01 5.0851899385452271e-01
            -8.8958412408828735e-01 3.9726060628890991e-01
            -1.1469326913356781e-01 7.8571200370788574e-01</leafValues></_></weakClassifiers></_>
    <!-- stage 7 -->
    <_>
      <maxWeakCount>3</maxWeakCount>
      <stageThreshold>-1.5057616233825684e+00</stageThreshold>
      <weakClassifiers>
        <_>
          <internalNodes>
            1 2 160 -11141121 -774508064 -71835929 -705302315 -78644993
            -2760705 -40894737 -1050625 3 4 19 -4097 -2232577 -12375281
            -69341733 -69468161 -1310721 -74055681 -1 5 6 283 1154803199
            -1081345 -4097 -5 3408127 -34817 872088575 -61697 7 8 323 -1
            -536871425 -202376193 -4194321 -72351745 -4985937 -134221841
            -1054937 9 10 64 -2058287683 -665779823 -2129362799
            -40558207 -1602224099 -1065336640 -1937429960 -542633708 11
            12 78 -691612677 -574424073 -1642652173 -184494846
            -1333929729 -605892354 -1999643193 -526219 13 14 4
            -1431371778 -1440546834 1341718527 -295653656 1172831739
            1190326262 268105703 -570429441 0 -1 165 -21037569 -4983816
            -2108673 -592016 -1176648705 -17830145 -1207980037 -43660 -2
            -3 412 -774376001 -179961727 -1069462761 -799718567
            1968221743 762150936 -1610183634 -1346385157 -4 -5 320
            -179838721 -1047199735 -2109718390 -1824325627 -520560130
            -1987620480 549961914 -271584049 -6 -7 363 -261098328
            -1656946945 -29427852 1047133176 -37749276 -1221067268
            -813712846 456190516 -8 -9 365 1952012543 -44063429
            773017823 -940244469 1473327551 -71606126 -626077969
            -73405521 -10 -11 355 285313279 1375785349 1157629121
            -654278656 272820616 2064138240 454002764 957179206 -12 -13
            113 -2020444393 -837270525 352395527 -1493106431 -2011856895
            -1967062912 -1602184943 -1080866555 -14 -15 217 -18006272
            -89194922 -37781916 -16777218 -33718976 -34111625 1023245648
            2088697339</internalNodes>
          <leafValues>
            -8.7361466884613037e-01 -5.7722467184066772e-01
            -6.5048545598983765e-01 2.7137547731399536e-01
            -7.8119659423828125e-01 4.2307692766189575e-01
            -4.3589743971824646e-01 7.4183005094528198e-01
            -8.5505008697509766e-01 -7.6923079788684845e-02
            -6.4102566242218018e-01 5.2595937252044678e-01
            -6.7198175191879272e-01 4.5528456568717957e-01
            -3.2051283121109009e-01 8.8255035877227783e-01</leafValues></_>
        <_>
          <internalNodes>
            1 2 258 -2105345 -565305 2136471543 -549881001 -54534177
            -4202745 -2097153 -1440022529 3 4 445 -268959817 -965479545
            -1866 -269500954 1199563495 -1917197785 1675064864
            -402656797 5 6 170 1359345408 -148767011 1475439776
            -537034763 903198141 -537591843 2124414461 -537547307 7 8
            414 -54534315 920510271 -1348599841 -1209010189 -9000
            -8651466 -1196900712 -1426325505 9 10 341 -228989185
            -172844725 -1035678337 -81855655 182011615 -99904785
            -20230168 -17479826 11 12 307 -221974017 -16282737
            1604383187 -175976161 542198269 -40918134 -1083220993
            -3445090 13 14 12 -1372657765 547549162 -286263726
            1084419008 -411044585 21364607 -704650703 1154471355 0 -1
            389 -572522573 -1183495 -337642503 -135266533 -2098177
            -1080317185 2146156195 -262661 -2 -3 207 -646325517
            -614804720 1279579509 -1063264005 -528285143 -2013036416
            -346693315 -579388513 -4 -5 189 -204584806 -740306055
            1971435309 -537431147 -1730004806 1488129019 1931104079
            1275004939 -6 -7 55 -677556134 -102477674 -1039925238
            -1562336670 -1050836350 1173659688 -1719663613 1363493444 -8
            -9 90 -612370465 -273819169 -879765249 -305357427
            -2136362289 -1182553969 -500534789 -9438981 -10 -11 382
            -2143178196 -1778335655 1359024466 -922632192 -1828222720
            209821896 -1442643424 -1509426386 -12 -13 13 -965483865
            -2098740705 -1005555712 1107656731 -1961766217 -400326238
            -1290702590 -187446614 -14 -15 356 8910 905068415
            -1073741834 939491327 268110762 1073709055 1878985740
            615523653</internalNodes>
          <leafValues>
            -8.7149339914321899e-01 -2.7169027924537659e-01
            -6.1465722322463989e-01 2.6628178358078003e-01
            -7.9031288623809814e-01 -5.8536035940051079e-03
            -6.9427454471588135e-01 5.1714557409286499e-01
            -7.9374361038208008e-01 1.3134816288948059e-01
            -6.3287001848220825e-01 5.8227479457855225e-01
            -5.9955614805221558e-01 4.5721822977066040e-01
            -4.9304068088531494e-01 7.5932168960571289e-01</leafValues></_>
        <_>
          <internalNodes>
            1 2 164 -203425842 -704645203 -855916565 -704807009
            -1611681825 -1073778969 -271612753 738195375 3 4 316
            783817845 -1879281795 -134811651 -1095098379 -677822467
            -1140999171 -1124143178 -1097318824 5 6 302 -319347196
            754905079 -352342418 -1360490834 -1073908429 -2097297
            -142645468 -152058624 7 8 457 -538181705 -85983297
            -2005034660 -268449313 -577393161 -63444849 -93916811
            -67635589 9 10 26 -218644738 -750539109 -1270845796
            304280679 -227116428 -716784773 -745086997 -532194693 11 12
            110 -77926409 -755773289 -184321073 -1194163050 -202515746
            -1714281911 -350064162 -144451717 13 14 384 524 306205532
            -945862449 1977381086 1120669406 1070467231 1603800602
            1001531935 0 -1 380 -2107649 -538975299 -136344579 -67108873
            -71565313 -1900037957 -170926885 -2097153 -2 -3 42 -86141357
            1958881619 -402230915 13222081 -796735213 1501560843
            352378987 -607389479 -4 -5 20 -67376129 1990110807
            -2108765601 -656617006 -124887211 -193806041 -1342440769
            -956565278 -6 -7 141 1364317408 1145624656 -1071588764
            -844208961 239901475 2003404960 445166 1369254383 -8 -9 138
            -201326865 -170660355 1377013899 -308283349 -1165315221
            -72377947 -2138603365 -529 -10 -11 296 -347175969 -712732669
            335546514 -134183466 -2141683063 -2146172923 -1056796070
            130519467 -12 -13 221 -788400513 -743061115 -1609869097
            -11021873 1208582847 -11960271 -643073409 -5383521 -14 -15
            422 -936460288 -1931150049 -1128747612 19914216 -411618560
            1367342003 640229920 -1396709445</internalNodes>
          <leafValues>
            -8.9599919319152832e-01 -2.7613366022706032e-02
            -8.0104762315750122e-01 4.5572313666343689e-01
            -7.9674232006072998e-01 -1.5003960579633713e-03
            -5.5735933780670166e-01 4.4933363795280457e-01
            -8.7149590253829956e-01 1.8909160792827606e-01
            -6.2886887788772583e-01 6.9373393058776855e-01
            -8.2358235120773315e-01 5.0014603137969971e-01
            -5.7043515145778656e-02 7.0306617021560669e-01</leafValues></_></weakClassifiers></_>
    <!-- stage 8 -->
    <_>
      <maxWeakCount>7</maxWeakCount>
      <stageThreshold>-4.6752715110778809e+00</stageThreshold>
      <weakClassifiers>
        <_>
          <internalNodes>
            1 2 80 -486551809 -67110945 -421531649 -67108897 -1 -1064245
            -1 -1025 3 4 132 -36176385 -2753569 -2228227 -33690882
            -52559873 -2696769 -807403585 -4216021 5 6 270 -4122 -281
            -1114113 -1052770 -65 -65 -33559762 -553652702 7 8 89
            -136318977 -134771997 -1113632769 -589125 -809009153
            -73679138 2128314207 -32833 9 10 14 -679482641 -1010457813
            1258414379 -1417074656 -1547148973 1588229435 -124686529
            -1310853 11 12 209 -578773761 -783449891 1360341205
            -578436067 -658204199 -934492980 -2116712295 -1200935 13 14
            27 -1360073733 1860878334 788529151 -294589220 -50342657
            -420282370 1995440127 -1981822981 0 -1 433 -8913137
            -134742157 -271657153 -1573025 -2302711 -12598403 -285754977
            -25165825 -2 -3 6 -1549015041 -461274654 -1865817805
            -526691639 -1332811269 542826647 -1047797557 -973080417 -4
            -5 75 -648937473 -273221086 -1870589429 -34353029
            -1342049753 -149637019 -1028913533 -545787045 -6 -7 429
            1073479211 -83886149 -1358974993 1006632959 935202562
            709325821 782839308 -1344274689 -8 -9 169 -102760961
            -44186795 -998074102 -114186599 1653309871 -794721907
            1107800207 1576516251 -10 -11 451 -67109323 -1627389963
            2130702181 -1073741892 -134217899 2147483647 -143141003
            -1221066886 -12 -13 424 -1794247997 1359538321 1426065613
            1367576772 -1978953297 -394133504 1073946675 -271855125 -14
            -15 260 1208763392 1145757686 -1 1609564159 860292608
            -1610645513 2139062031 -1073754116</internalNodes>
          <leafValues>
            -9.0800952911376953e-01 -6.3320940732955933e-01
            -7.4781662225723267e-01 -2.4618992581963539e-02
            -7.8216475248336792e-01 -8.6206898093223572e-02
            -3.7313431501388550e-01 6.2135922908782959e-01
            -8.5208010673522949e-01 -4.3478261679410934e-02
            -5.0122249126434326e-01 5.8778625726699829e-01
            -7.6190477609634399e-01 4.8201438784599304e-01
            -2.9577463865280151e-01 8.7651473283767700e-01</leafValues></_>
        <_>
          <internalNodes>
            1 2 423 -1093134091 -1107525764 -1075841025 -1073836097
            -33883203 -8389633 -212995 -1364709748 3 4 152 -97781249
            -11082758 -136463497 -82272 -348324173 -12983361 -1098917185
            -33853163 5 6 242 -208359761 -706750609 -2012174166
            1942481454 -120539713 -778797961 -1051450710 -238161234 7 8
            432 -67108929 -1619060753 1289617150 -220996129 -542122625
            -546612549 -37880325 -132097 9 10 284 -185270321 -163980769
            -587083565 -712829669 1620051187 -113000312 -215929378
            -1073872773 11 12 449 -18882781 1068496095 -1849567073
            -212516865 1461654331 1037811713 -1948677534 -25167381 13 14
            167 -715786848 -34219667 -1241516548 -235407921 -1260931075
            -496599714 -166409 -574898690 0 -1 190 -8705 -4193
            -1078735331 -614736139 -8716833 -1094993729 -1642497 -16449
            -2 -3 223 -218776746 -249052666 -691237963 -894336307
            167964875 -1979678720 -546661910 1816223631 -4 -5 214
            -944505617 -711600137 -780135577 -40216882 1422867386
            2039718032 -1414849953 -143192197 -6 -7 16 -1609497173
            238659119 1073741824 645931014 -1878484895 51211 671222023
            1119971895 -8 -9 191 -75764001 2111698667 -1121992225
            -1216668257 1476958942 -43349573 -359991361 -80774273 -10
            -11 285 -188421126 -746123119 -761659308 -1517858559 4250345
            -771651456 820027563 912474891 -12 -13 438 -69731421
            -2067016911 -184356576 1996616065 -922097754 446611603
            1988867781 -671875913 -14 -15 282 -465504568 -865272636
            -268435543 -318898210 1073975424 335601382 1920953370
            -833685525</internalNodes>
          <leafValues>
            -8.5808348655700684e-01 -5.4073322564363480e-02
            -7.7677959203720093e-01 1.0678883641958237e-01
            -7.8431373834609985e-01 1.2876740097999573e-01
            -8.5591858625411987e-01 5.6155258417129517e-01
            -8.5886728763580322e-01 5.1470249891281128e-03
            -7.6409202814102173e-01 3.8386884331703186e-01
            -5.8567571640014648e-01 2.7245247364044189e-01
            -1.6566707193851471e-01 7.1430921554565430e-01</leafValues></_>
        <_>
          <internalNodes>
            1 2 140 -4353 -63570 2137593853 -134273729 -37889 -2168869
            -32769 -32801 3 4 299 -1 -10487849 -11377 -138714273
            -1069482001 -67114689 -496960513 -8916993 5 6 7 -928536577
            -1360230998 1192677851 -930447166 -1040459013 1142333625
            -794830597 1174400255 7 8 399 -4194305 -4195105 -1351352321
            -132097 -147779 -264337 -1358977908 -1360009473 9 10 421
            -239118987 1572188267 -1877403809 -1612881645 -107301840
            -553461499 -1431590064 -1098908677 11 12 439 -201590081
            -954009385 -1694269019 -548290537 -1415972097 1137566241
            -209594191 -538979609 13 14 359 174534606 -1150062785
            -268701698 -1145196545 1997538504 2137272239 1467240157
            1948601604 0 -1 374 -536871429 -1051207 1865230841 -1049185
            -1346389057 -108274709 -135303429 -2097153 -2 -3 297
            -547756033 -726535486 1355321373 -680542205 213966956
            -618614615 -1842232160 -842018181 -4 -5 228 1178071897
            -31604456 -2129587553 -15474987 -1960860417 -767932281
            -116446835 -525125 -6 -7 135 1392546176 1083552386 196995
            -1966755327 1091141749 -2105343742 822280195 -246427261 -8
            -9 375 -536879617 -618956133 -293375151 -711732965
            -1458855521 -880177021 -180697605 -4195633 -10 -11 180
            352354709 1347489856 16777857 -1862204415 -2080108388 4096
            -2013230950 -989855479 -12 -13 229 -787361447 1363267584
            1090557015 1342259279 -929968433 -2122166271 -838827558
            -110386914 -14 -15 134 -728180704 -268501321 4461312
            1074554068 2147450833 -1 -11415724 1549040964</internalNodes>
          <leafValues>
            -8.7499332427978516e-01 -3.6927905678749084e-01
            -6.8191266059875488e-01 1.8147011101245880e-01
            -8.3043509721755981e-01 2.4966555833816528e-01
            -6.9216543436050415e-01 6.3929945230484009e-01
            -8.1956636905670166e-01 5.4301553964614868e-01
            -8.0597472190856934e-01 6.2741202116012573e-01
            -8.4198534488677979e-01 5.6092697381973267e-01
            -6.2953281402587891e-01 8.2075071334838867e-01</leafValues></_>
        <_>
          <internalNodes>
            1 2 8 -269488145 -1343247446 -157286529 -1343812062
            -336594945 702151999 -67109377 -5 3 4 98 -940834817
            -486871553 -40140801 -268505956 -604512577 -810024977
            -537134081 -805319177 5 6 220 -44588073 -585855671
            -799733539 -674919315 -1862035041 -935278204 298943130
            -101736262 7 8 277 2123126773 -67211273 2076180479 -280981
            -67239940 -52549 -5296129 -1141166149 9 10 435 -684206303
            -1139677219 855842644 -1352149601 985332655 -122830783
            1342959833 -1312930 11 12 300 -674498561 -715657966
            1365446793 -744757049 -415847700 -1345959890 -260838658
            -77133201 13 14 368 -1145074935 -76578819 -1358970898
            -16781377 469482766 -269062233 725560846 -1220546641 0 -1
            157 -556007457 -134260241 2132212639 -67687945 -33820673
            -309778 -1839121 -46081 -2 -3 114 -234883617 -718430520
            -421562507 -856762485 -1264603005 -2113306110 -1323303393
            -74452037 -4 -5 319 -68288517 -603485745 -1995374221
            -100535613 -487589160 -1589204082 -112079682 -540036133 -6
            -7 176 889215998 2013196270 -16846852 -134418738 -2147467521
            -2094981120 -285213174 -67189684 -8 -9 174 1574959071
            -3862219 -1022727811 -541392301 -528443650 -913110644
            -605555777 -2099009 -10 -11 425 -1744379648 32833664 4214786
            -1056865792 -2013228631 604635272 -2113916896 -746339961 -12
            -13 431 -580673117 -1081671419 83960091 -176081129
            1485013925 -1731411702 1384366084 -971262977 -14 -15 62
            -219619776 -219250724 182461184 -2133327872 -50497744
            2139095037 -570524384 -1670350588</internalNodes>
          <leafValues>
            -8.9278876781463623e-01 -1.8793073296546936e-01
            -6.6251224279403687e-01 4.1602250933647156e-01
            -7.6305663585662842e-01 2.0832282304763794e-01
            -6.2180280685424805e-01 6.2993669509887695e-01
            -8.5591948032379150e-01 4.2053845524787903e-01
            -7.7078676223754883e-01 6.6343605518341064e-01
            -6.7533177137374878e-01 5.1095032691955566e-01
            -5.1797395944595337e-01 8.5663235187530518e-01</leafValues></_>
        <_>
          <internalNodes>
            1 2 31 -427824417 50300110 -892875894 1893146850 -1042286817
            1577811455 1643640558 -262145 3 4 127 -285214721 -155189257
            -556280837 -419766274 -19931673 -704906773 -84934665
            -84934657 5 6 137 -1516661313 -44198607 -1472195937
            -1181507175 -561345123 -934755135 -1108835687 -541746373 7 8
            255 -203425857 -298017 -1755852525 2147351023 -201331793
            -1076170489 -83940657 -1436031185 9 10 274 -859287553
            -573566967 -1861181601 -179891963 8388863 -1709965182
            679545855 -60356369 11 12 336 -170134529 -988820542
            -721092333 -117374845 -148439446 -35618017 -368727825
            -73401349 13 14 304 -1426706684 -1362362388 -319292380
            -1494290566 -197001 -806354945 -134222076 -385954200 0 -1
            268 -1 -81922065 -90245537 -1412434241 -680136705 -38273155
            -12584449 -9437185 -2 -3 354 -26738946 -846662881 537157841
            -720322167 -527326240 -125386589 -1609311582 -806360465 -4
            -5 111 -783059201 1408303385 1349594015 2030776469
            1149946091 -1719580669 -1014461778 -71607425 -6 -7 202
            -1792706652 -653983545 336134216 983535891 -2130476671
            756551682 402735104 1098920000 -8 -9 173 -649243393
            -547372555 -1052419977 -544008521 -41759061 -652537726
            2087250910 -537667745 -10 -11 250 251572173 -1392640267
            -376851 -826277889 805084797 519953845 -8331 745807739 -12
            -13 401 -174205701 -654094334 1075910958 -780124151
            -796802930 17375619 -523845048 -74454842 -14 -15 56
            -16777625 1747373886 -30414302 14741026 -8396961 1820327805
            -42008604 -797709484</internalNodes>
          <leafValues>
            -9.1865479946136475e-01 -2.9622098803520203e-01
            -7.8177273273468018e-01 1.3744013383984566e-02
            -8.2401281595230103e-01 4.0740847587585449e-01
            -6.8340247869491577e-01 6.3285893201828003e-01
            -8.3764493465423584e-01 1.5019091963768005e-01
            -6.8084824085235596e-01 8.4688907861709595e-01
            -8.7827420234680176e-01 5.4920595884323120e-01
            -3.3789095282554626e-01 8.1663268804550171e-01</leafValues></_>
        <_>
          <internalNodes>
            1 2 29 -2049 -555287041 -2097763 -268796822 -402657809
            -1024013313 -1025 -9217 3 4 66 -353370225 -287117827
            -458557249 -2012291089 -352336769 -639135997 -353648905
            -87032929 5 6 146 -131333 -67141633 -206656581 -239097157
            -67125253 -17 -1346653383 -109081671 7 8 0 15336746 67633010
            -237445566 -2040140862 1132420933 -529797878 339153152
            1141749217 9 10 338 -753543971 -653026549 1763807503
            -251195391 846989513 -100015589 1657833214 -1159397141 11 12
            171 -287867913 -808402084 943759747 -24215105 -1734630659
            -1843705725 -753143557 -88161560 13 14 372 -869210100
            336620798 -138739717 1571089918 -8654902 -536870918 -8919390
            -564134750 0 -1 24 -2099201 -140782625 1108333919 -572007993
            -242484257 -385120879 -1156912145 -2305 -2 -3 406 810728853
            -1187077665 -842272257 -6456705 -271059014 -15717 -169160785
            -1363629395 -4 -5 240 1310676731 -571056673 -2122120937
            1929882203 1217044972 -125147081 -79308629 -1074063653 -6 -7
            442 1051715519 -810025090 -139 -286588929 -403192029
            -1527316553 70669377 -2136482446 -8 -9 248 -712510473
            -1065295744 21067377 -585813993 -223388673 -83197951
            -276316897 -371195921 -10 -11 321 1381089148 1342243360
            -1870572509 1342226441 671134094 545783938 46600586
            1602601359 -12 -13 436 -253757054 1460469982 32829 327405586
            -1056657217 -1005977592 1745459362 -653279079 -14 -15 128
            -1633502080 -69650 2129591808 -155537874 1987398908
            762740708 1399018512 1158676672</internalNodes>
          <leafValues>
            -9.8767358064651489e-01 7.1087867021560669e-01
            -7.6394194364547729e-01 -1.8043939769268036e-01
            -7.9438424110412598e-01 2.3707939684391022e-01
            -3.8064175844192505e-01 7.0807576179504395e-01
            -8.9057523012161255e-01 1.2649028003215790e-01
            -6.1614066362380981e-01 6.3327276706695557e-01
            -8.4159833192825317e-01 4.3058219552040100e-01
            -5.2933722734451294e-01 8.3953475952148438e-01</leafValues></_>
        <_>
          <internalNodes>
            1 2 0 36046336 167680 -212332544 71346304 1157895680 2649088
            1143357440 5184 3 4 108 -806625793 -606134166 -1718419075
            -49479677 -1568101717 -1970798592 167807176 -1442119549 5 6
            144 -1426063361 -1397827889 -1183846409 -1895861539
            -814481441 -840177153 -303047169 -10241 7 8 70 -748684833
            -247365503 -1861905009 -1182576361 -1308080465 -1039955966
            58825402 -74452945 0 -1 2 -1073741824 65536 0 0 0 0 0
            8388608 9 10 126 972631359 -71305155 -1311457349 -585387
            -288523138 -3654758 -3084401 -15742529 11 12 151 10061979
            -1990916707 121964857 -1122497267 1207998907 -452980592
            -1861669958 -271737449 -2 -3 94 -203031585 -782262005
            268451979 1897386655 -1061041506 -2147450878 285253769
            -127665669 -4 -5 1 0 0 0 0 0 0 0 -2147352576 -6 -7 398
            -2097671 -1075707911 2013233113 -1611138571 -1147158533
            -7869441 837810687 -8209 -8 -9 364 -758251794 -598874117
            1410045086 -1072969508 -510919713 -124616518 2025966319
            -131470594 -10 -11 327 -136317953 -737820605 -2142895872
            -855441021 1819620128 1375930950 -326775729 1952967535 -12
            -13 133 -178916340 1560552480 2113798143 1509544992
            1970304882 1366589428 -536879618 -380267048</internalNodes>
          <leafValues>
            -1. 1. -9.9992811679840088e-01 1. -1. 1.
            -8.4631216526031494e-01 -2.3210871219635010e-01
            -5.8656191825866699e-01 3.0606305599212646e-01
            -7.3145055770874023e-01 1.3884352147579193e-01
            -3.4199386835098267e-01 7.1854627132415771e-01</leafValues></_></weakClassifiers></_>
    <!-- stage 9 -->
    <_>
      <maxWeakCount>3</maxWeakCount>
      <stageThreshold>-9.7853142023086548e-01</stageThreshold>
      <weakClassifiers>
        <_>
          <internalNodes>
            1 2 102 -74252301 -4000832 -841654094 -4190144 -1191126029
            -604325979 2079745399 -560525 3 4 393 -2099329 -10494593
            -778856065 -35949577 -1194853003 -74729429 -639648211
            -1079001365 5 6 403 -8389607 -545263795 -16777218 -38035713
            -193225724 1976393040 -1931575296 -339738817 7 8 391
            -69216261 -1045712110 -745813167 -840452203 -877939269
            -1120689265 -1074280205 -541065297 9 10 271 -508040245
            -1718550525 -1073544893 -1852076002 -569720182 -2013166847
            -2130500981 -494745045 11 12 332 -879237330 -937533015
            -703577636 -296625766 -502613706 -637517686 -955328960
            -4199762 13 14 340 4210926 1374953471 1677586429 -738271233
            2097290 1591549439 1652492207 1542917167 0 -1 241 -8737
            -39071027 -1074536993 -2105447 -114557953 -9256498
            -1212153973 -4203553 -2 -3 208 1132111834 1493244552
            -398162377 -1755871734 -2107041014 -1602158587 -431478056
            -28564854 -4 -5 243 -82578449 -511324544 26247883 -880467773
            -2138533237 206258186 8986763 -644103510 -6 -7 410
            1843133987 776667046 -19616 -281149833 -1895891035
            -805568649 905401601 218580465 -8 -9 269 1956549533
            -262698544 285279451 -543616937 -880543271 -217427322
            -71574149 -1080095953 -10 -11 350 -599526836 1141179216
            142802986 -1711271789 -1987533868 -1735819130 809738240
            115218 -12 -13 330 27580783 -48824319 1207959809 293666944
            -805229872 -919387968 -1283126550 2030568075 -14 -15 46
            -1342230641 15675311 -16637 250087942 -24577 1207922559 -161
            176107375</internalNodes>
          <leafValues>
            -8.2735347747802734e-01 8.7999999523162842e-02
            -7.1957671642303467e-01 2.2651933133602142e-01
            -6.9384837150573730e-01 3.4463277459144592e-01
            -3.4959349036216736e-01 7.0395869016647339e-01
            -7.4398249387741089e-01 1.0424710065126419e-01
            -6.5461850166320801e-01 4.6082949638366699e-01
            -7.7777779102325439e-01 3.6363637447357178e-01
            -1.2101911008358002e-01 8.4912961721420288e-01</leafValues></_>
        <_>
          <internalNodes>
            1 2 142 -419434497 -822289929 -712269825 -1026359874
            -569386477 -342378966 -138290699 -352658732 3 4 71
            -103850019 -880439445 -733653131 1340542769 -619067173
            -22348869 -117182470 -69241473 5 6 178 -180488261 -708717120
            -134217889 1375073725 1062567387 -543686790 -9175109
            -572561925 7 8 415 -1096286763 -1207987982 -181300899
            -1241779317 -1112097863 -1098331681 -1164190023 -1382351009
            9 10 43 -1947490305 -998095166 -649981864 -228927360
            -892759491 -497907061 -2117357533 -304102721 11 12 264
            -1402997470 -1979821675 -721354479 -44330079 327416977
            -2085535353 -1794936523 -1353505 13 14 192 116663380
            -1360232772 -1342292484 -1426299268 -1107471116 -536870913
            -1610776844 719895668 0 -1 83 -4097 -6433321 -1068831649
            -142091009 -609358641 -27540539 -347866625 -5 -2 -3 452
            -1012693929 -2103275519 -2147414010 -788396784 721662093
            -1868365690 -1654570523 -575155125 -4 -5 313 -778313985
            -1643962302 -439811502 -552752167 998877947 -2079874935
            1607060178 -905323861 -6 -7 230 1212420213 -1995112427 9
            1090551944 135832020 -1962377088 1312021 17359998 -8 -9 448
            -529305 -673349453 -1731633105 1120370752 2066418189
            954335240 -1349588727 -1293952169 -10 -11 328 1987460863
            -147457 -20546 2080112575 1114521836 -1150320897 -428389685
            1853058665 -12 -13 245 -645709381 1426065408 285213177
            -921632766 32776 -2138963584 1115818124 -1467906040 -14 -15
            379 4456452 1970306872 1827581870 -1878495321 79982260
            -1214222479 1727782874 805323800</internalNodes>
          <leafValues>
            -8.5157281160354614e-01 3.0347099900245667e-01
            -6.4209508895874023e-01 4.2608979344367981e-01
            -7.6801425218582153e-01 2.8991031646728516e-01
            -5.5650907754898071e-01 7.0512235164642334e-01
            -7.4637252092361450e-01 7.8628256916999817e-02
            -3.4283298254013062e-01 5.9136110544204712e-01
            -9.2493534088134766e-01 7.2330933809280396e-01
            -2.8844338655471802e-01 8.1376016139984131e-01</leafValues></_>
        <_>
          <internalNodes>
            1 2 333 -92279762 -572730065 -389877785 -91786733 1630618637
            1899296849 1727786431 1933506167 3 4 446 -1084498583
            -1396730934 -510133290 -1077941828 -829760690 -1413758751
            969643669 -1321567 5 6 367 452134197 1341530103 -286560289
            696254269 -537637551 -360901 -631967967 -613785769 7 8 390
            -36178465 -539362576 1427100049 -171974203 -372779009
            -279342587 1440218095 -3585 9 10 145 -1977531859 76599569
            269504856 -464992171 -1038057063 1426194465 973309955
            -1563200847 11 12 216 1464850150 -753302904 -295532289
            -325392338 -125633593 -928415682 -65865427 -288642134 13 14
            222 427923853 864244169 65814 322000792 289460416
            -2129395712 -1677638513 19009792 0 -1 276 -21537 -67450541
            -1050965031 -140273505 -660878339 -75265895 -1043859969
            -9761 -2 -3 454 1091174914 -1073676144 4194304 1090523137
            -536870910 -2080374782 32944 25329728 -4 -5 314 -788008047
            352440585 17318173 -1860894711 134320298 -1213593471
            1820360927 -1077214965 -6 -7 450 -978785008 939458421
            2113388400 -1392574537 2105409398 1736441215 -559312
            -315103496 -8 -9 172 -206058241 1464067503 -1861987353
            -8795581 -2138924886 -910585278 -1686092869 -306181 -10 -11
            348 570517927 -1040154624 75497488 1678319624 178297326
            -869482368 706396549 2020466630 -12 -13 351 -125570339
            1082519641 16777347 287080962 -1837031157 -1526497239
            -1593605622 -1291074661 -14 -15 344 -22560840 -992088326
            -1694552064 67337360 -42468100 -2011189530 -1327423488
            2097154</internalNodes>
          <leafValues>
            -8.1240409612655640e-01 1.2772981822490692e-01
            -9.4625729322433472e-01 8.5306715965270996e-01
            -8.4183520078659058e-01 6.7960518598556519e-01
            -3.9736884832382202e-01 6.8544405698776245e-01
            -7.7089077234268188e-01 2.8547331690788269e-01
            -5.5934077501296997e-01 6.1618882417678833e-01
            -8.8564562797546387e-01 5.7634520530700684e-01
            -1.1113979667425156e-01 7.3253327608108521e-01</leafValues></_></weakClassifiers></_>
    <!-- stage 10 -->
    <_>
      <maxWeakCount>2</maxWeakCount>
      <stageThreshold>-1.2680432796478271e+00</stageThreshold>
      <weakClassifiers>
        <_>
          <internalNodes>
            1 2 347 -67373835 -2360969 -945847585 -271377 -76553219
            -123761977 -33564179 -67156655 3 4 36 -481 1627258723
            -934090729 -488463009 1561479763 1350452133 -283575641
            -17040417 5 6 361 1356131022 -782909699 -361042194 -84789254
            -235539505 -52465955 -202178625 -67131778 7 8 88 -820253201
            -280566813 -1447076077 2093207844 2023585501 682713883
            1897365475 -537166057 9 10 195 688033053 1166049613
            -1793812069 1837465993 -1056402948 -670530416 436505018
            -1618236008 11 12 198 -788409989 -720272191 -1862168301
            1901925147 -268402263 -391274446 -637417045 -860247525 13 14
            292 -387199998 -327503959 -360831488 1625599022 2012740389
            -17334275 -143325950 -437015902 0 -1 305 -136314881
            -545134383 -721297443 -134623037 -102763521 -1549086294
            -68568065 -1049941 -2 -3 286 -101723137 -2080255733 4292619
            369872921 -1132268561 -1976662000 1095231739 -13636865 -4 -5
            251 1464917339 -1248743272 320913821 -1286471661 -627969863
            -665646954 -74933590 -1077278077 -6 -7 156 1359464224
            -1817108134 17826176 -946662652 -2147475231 -1610612576
            -2146295648 -1996189504 -8 -9 343 -218175569 -1102999419
            -2147352563 -1252981375 1669341245 863180857 1845632991
            -1148400868 -10 -11 39 732888314 737869823 -1077985473
            1191679 -262142 2147483647 -8912937 187840335 -12 -13 21
            -795620737 -1803058409 -2147172288 -1040183604 -2130607549
            1476460544 -2113273725 -730340821 -14 -15 107 1107584512
            -428871766 2147413934 -134217810 877755700 -411172874
            -134422657 -34816927</internalNodes>
          <leafValues>
            -8.9154702425003052e-01 3.0232557654380798e-01
            -5.9075909852981567e-01 5.2258062362670898e-01
            -7.4580335617065430e-01 1.4871795475482941e-01
            -5.6521737575531006e-01 4.5325443148612976e-01
            -8.1423401832580566e-01 -1.3458262383937836e-01
            -5.2941179275512695e-01 6.1620467901229858e-01
            -6.1336517333984375e-01 3.9259257912635803e-01
            -3.3018869161605835e-01 8.2535004615783691e-01</leafValues></_>
        <_>
          <internalNodes>
            1 2 235 -1342263648 -1345376891 -573253153 -1076379699
            -1075129411 -1343507985 -1394607115 -1358954513 3 4 194
            -1426440331 -2707617 -712532065 -538970119 -1076325379
            -67401339 -342164757 -1078436295 5 6 440 -545300113
            -551321801 -1233158625 1893695095 754782789 1970011517
            377202790 -80478417 7 8 426 -944769029 -82967277 956684769
            -537942136 -1186086977 -621548877 -169666123 -539497477 9 10
            413 -1130654508 -1661053739 159592861 -459976035 -1694312244
            -75282287 -1164129880 -1430725681 11 12 184 -1685864108
            -582643311 1761696013 -174018539 -1593724256 -105611135
            -49509955 -124670061 13 14 370 598265338 2071068669
            1006632957 -1880096769 691735054 1073528767 65341765
            1056778077 0 -1 203 -539248897 -76411938 -451293932
            -540044897 -745874465 -71509841 -107814913 -2565 -2 -3 153
            502600657 1430897028 -1023311639 622977 -1602164567
            1229032475 43125531 1590414218 -4 -5 143 -680269585
            -1311554833 -1607892871 -187940605 1504407944 -275185620
            -1953916178 -16537069 -6 -7 131 -2100397212 2063532031
            -353603836 -1427325274 2129772337 -50397313 1083449392
            -626206538 -8 -9 447 -69224673 2000784899 10797340
            -393920253 -486420137 1503299617 -1104748146 -155977249 -10
            -11 408 909913788 452861951 1040138239 1073627135 -21106755
            1073741823 -1078026754 35667502 -12 -13 315 25943636
            22053057 -2130179939 1191248152 80032 -1458405248
            -1039429393 -1417033557 -14 -15 407 204210176 1056583606
            805224103 1022141807 1316927993 -1090637890 1017162937 3236</internalNodes>
          <leafValues>
            -8.7116777896881104e-01 -1.1967438459396362e-01
            -6.5020418167114258e-01 4.6149912476539612e-01
            -7.2992122173309326e-01 2.1884950995445251e-01
            -4.9803411960601807e-01 5.8012801408767700e-01
            -6.7728418111801147e-01 2.4029889702796936e-01
            -5.7714378833770752e-01 6.3178849220275879e-01
            -6.9734668731689453e-01 5.8418405055999756e-01
            -2.2637763619422913e-01 8.2483649253845215e-01</leafValues></_></weakClassifiers></_></stages>
  <features>
    <_>
      <rect>
        0 0 1 1</rect></_>
    <_>
      <rect>
        0 0 1 3</rect></_>
    <_>
      <rect>
        0 0 1 9</rect></_>
    <_>
      <rect>
        0 0 4 5</rect></_>
    <_>
      <rect>
        0 0 6 4</rect></_>
    <_>
      <rect>
        0 1 5 7</rect></_>
    <_>
      <rect>
        0 2 3 3</rect></_>
    <_>
      <rect>
        0 2 4 4</rect></_>
    <_>
      <rect>
        0 2 4 6</rect></_>
    <_>
      <rect>
        0 2 8 7</rect></_>
    <_>
      <rect>
        0 3 6 5</rect></_>
    <_>
      <rect>
        0 3 6 7</rect></_>
    <_>
      <rect>
        0 4 3 3</rect></_>
    <_>
      <rect>
        0 4 5 9</rect></_>
    <_>
      <rect>
        0 5 4 5</rect></_>
    <_>
      <rect>
        0 5 14 10</rect></_>
    <_>
      <rect>
        0 7 5 4</rect></_>
    <_>
      <rect>
        0 8 3 6</rect></_>
    <_>
      <rect>
        0 8 4 4</rect></_>
    <_>
      <rect>
        0 9 5 4</rect></_>
    <_>
      <rect>
        0 16 2 3</rect></_>
    <_>
      <rect>
        0 20 4 5</rect></_>
    <_>
      <rect>
        0 20 6 7</rect></_>
    <_>
      <rect>
        0 21 6 7</rect></_>
    <_>
      <rect>
        0 25 4 7</rect></_>
    <_>
      <rect>
        0 27 6 6</rect></_>
    <_>
      <rect>
        0 28 7 5</rect></_>
    <_>
      <rect>
        1 0 6 4</rect></_>
    <_>
      <rect>
        1 2 5 4</rect></_>
    <_>
      <rect>
        1 3 6 3</rect></_>
    <_>
      <rect>
        1 6 5 9</rect></_>
    <_>
      <rect>
        1 7 2 5</rect></_>
    <_>
      <rect>
        1 9 7 9</rect></_>
    <_>
      <rect>
        1 9 9 8</rect></_>
    <_>
      <rect>
        1 10 8 3</rect></_>
    <_>
      <rect>
        1 13 2 3</rect></_>
    <_>
      <rect>
        1 17 2 2</rect></_>
    <_>
      <rect>
        1 25 5 4</rect></_>
    <_>
      <rect>
        2 0 7 4</rect></_>
    <_>
      <rect>
        2 0 10 7</rect></_>
    <_>
      <rect>
        2 0 13 16</rect></_>
    <_>
      <rect>
        2 2 3 2</rect></_>
    <_>
      <rect>
        2 2 11 12</rect></_>
    <_>
      <rect>
        2 3 3 3</rect></_>
    <_>
      <rect>
        2 3 4 5</rect></_>
    <_>
      <rect>
        2 3 5 4</rect></_>
    <_>
      <rect>
        2 3 5 6</rect></_>
    <_>
      <rect>
        2 4 9 10</rect></_>
    <_>
      <rect>
        2 5 3 8</rect></_>
    <_>
      <rect>
        2 8 8 10</rect></_>
    <_>
      <rect>
        2 10 2 3</rect></_>
    <_>
      <rect>
        2 11 4 4</rect></_>
    <_>
      <rect>
        2 12 7 7</rect></_>
    <_>
      <rect>
        2 17 7 5</rect></_>
    <_>
      <rect>
        2 19 3 3</rect></_>
    <_>
      <rect>
        2 21 7 5</rect></_>
    <_>
      <rect>
        2 22 4 2</rect></_>
    <_>
      <rect>
        2 26 6 6</rect></_>
    <_>
      <rect>
        2 30 6 3</rect></_>
    <_>
      <rect>
        3 0 3 7</rect></_>
    <_>
      <rect>
        3 0 4 4</rect></_>
    <_>
      <rect>
        3 1 4 3</rect></_>
    <_>
      <rect>
        3 1 12 12</rect></_>
    <_>
      <rect>
        3 3 8 10</rect></_>
    <_>
      <rect>
        3 10 12 3</rect></_>
    <_>
      <rect>
        3 12 7 6</rect></_>
    <_>
      <rect>
        3 15 1 2</rect></_>
    <_>
      <rect>
        3 16 2 4</rect></_>
    <_>
      <rect>
        3 17 11 7</rect></_>
    <_>
      <rect>
        3 20 5 7</rect></_>
    <_>
      <rect>
        3 23 6 8</rect></_>
    <_>
      <rect>
        4 0 5 10</rect></_>
    <_>
      <rect>
        4 2 4 6</rect></_>
    <_>
      <rect>
        4 3 4 2</rect></_>
    <_>
      <rect>
        4 4 7 9</rect></_>
    <_>
      <rect>
        4 4 7 12</rect></_>
    <_>
      <rect>
        4 4 12 9</rect></_>
    <_>
      <rect>
        4 6 11 4</rect></_>
    <_>
      <rect>
        4 7 4 3</rect></_>
    <_>
      <rect>
        4 8 7 8</rect></_>
    <_>
      <rect>
        4 14 3 3</rect></_>
    <_>
      <rect>
        4 19 4 7</rect></_>
    <_>
      <rect>
        4 26 4 3</rect></_>
    <_>
      <rect>
        4 32 5 4</rect></_>
    <_>
      <rect>
        5 0 3 3</rect></_>
    <_>
      <rect>
        5 0 5 4</rect></_>
    <_>
      <rect>
        5 0 7 10</rect></_>
    <_>
      <rect>
        5 9 7 4</rect></_>
    <_>
      <rect>
        5 11 2 2</rect></_>
    <_>
      <rect>
        5 12 3 2</rect></_>
    <_>
      <rect>
        5 12 14 12</rect></_>
    <_>
      <rect>
        5 14 4 5</rect></_>
    <_>
      <rect>
        5 19 6 4</rect></_>
    <_>
      <rect>
        5 29 6 3</rect></_>
    <_>
      <rect>
        6 0 4 12</rect></_>
    <_>
      <rect>
        6 1 6 13</rect></_>
    <_>
      <rect>
        6 1 14 14</rect></_>
    <_>
      <rect>
        6 2 4 3</rect></_>
    <_>
      <rect>
        6 4 3 2</rect></_>
    <_>
      <rect>
        6 6 7 3</rect></_>
    <_>
      <rect>
        6 10 6 7</rect></_>
    <_>
      <rect>
        6 11 3 2</rect></_>
    <_>
      <rect>
        6 12 3 1</rect></_>
    <_>
      <rect>
        6 12 7 10</rect></_>
    <_>
      <rect>
        6 13 6 11</rect></_>
    <_>
      <rect>
        6 14 10 2</rect></_>
    <_>
      <rect>
        6 15 3 3</rect></_>
    <_>
      <rect>
        6 15 5 4</rect></_>
    <_>
      <rect>
        6 15 13 4</rect></_>
    <_>
      <rect>
        6 16 6 5</rect></_>
    <_>
      <rect>
        6 24 3 3</rect></_>
    <_>
      <rect>
        6 28 5 4</rect></_>
    <_>
      <rect>
        7 0 3 3</rect></_>
    <_>
      <rect>
        7 0 6 3</rect></_>
    <_>
      <rect>
        7 0 12 16</rect></_>
    <_>
      <rect>
        7 3 10 9</rect></_>
    <_>
      <rect>
        7 4 6 14</rect></_>
    <_>
      <rect>
        7 7 4 3</rect></_>
    <_>
      <rect>
        7 7 10 5</rect></_>
    <_>
      <rect>
        7 7 13 13</rect></_>
    <_>
      <rect>
        7 8 6 5</rect></_>
    <_>
      <rect>
        7 8 7 4</rect></_>
    <_>
      <rect>
        7 9 9 4</rect></_>
    <_>
      <rect>
        7 10 3 3</rect></_>
    <_>
      <rect>
        7 10 5 8</rect></_>
    <_>
      <rect>
        7 10 6 3</rect></_>
    <_>
      <rect>
        7 12 9 3</rect></_>
    <_>
      <rect>
        7 19 1 2</rect></_>
    <_>
      <rect>
        7 20 5 3</rect></_>
    <_>
      <rect>
        7 26 3 4</rect></_>
    <_>
      <rect>
        7 28 6 6</rect></_>
    <_>
      <rect>
        8 0 13 13</rect></_>
    <_>
      <rect>
        8 2 9 7</rect></_>
    <_>
      <rect>
        8 3 5 13</rect></_>
    <_>
      <rect>
        8 4 10 12</rect></_>
    <_>
      <rect>
        8 5 4 11</rect></_>
    <_>
      <rect>
        8 6 5 12</rect></_>
    <_>
      <rect>
        8 8 9 5</rect></_>
    <_>
      <rect>
        8 9 7 11</rect></_>
    <_>
      <rect>
        8 9 10 4</rect></_>
    <_>
      <rect>
        8 12 1 2</rect></_>
    <_>
      <rect>
        8 12 6 9</rect></_>
    <_>
      <rect>
        8 22 1 1</rect></_>
    <_>
      <rect>
        8 34 4 2</rect></_>
    <_>
      <rect>
        9 0 2 2</rect></_>
    <_>
      <rect>
        9 2 1 1</rect></_>
    <_>
      <rect>
        9 4 9 7</rect></_>
    <_>
      <rect>
        9 5 9 6</rect></_>
    <_>
      <rect>
        9 7 4 10</rect></_>
    <_>
      <rect>
        9 9 2 4</rect></_>
    <_>
      <rect>
        9 9 9 4</rect></_>
    <_>
      <rect>
        9 11 12 3</rect></_>
    <_>
      <rect>
        9 12 1 1</rect></_>
    <_>
      <rect>
        9 12 7 10</rect></_>
    <_>
      <rect>
        9 13 6 3</rect></_>
    <_>
      <rect>
        9 14 2 2</rect></_>
    <_>
      <rect>
        9 17 4 4</rect></_>
    <_>
      <rect>
        9 27 6 2</rect></_>
    <_>
      <rect>
        10 0 8 8</rect></_>
    <_>
      <rect>
        10 3 10 7</rect></_>
    <_>
      <rect>
        10 5 5 11</rect></_>
    <_>
      <rect>
        10 5 9 6</rect></_>
    <_>
      <rect>
        10 8 9 6</rect></_>
    <_>
      <rect>
        10 11 1 1</rect></_>
    <_>
      <rect>
        10 11 4 2</rect></_>
    <_>
      <rect>
        10 12 1 1</rect></_>
    <_>
      <rect>
        10 12 3 2</rect></_>
    <_>
      <rect>
        10 12 4 7</rect></_>
    <_>
      <rect>
        10 13 4 5</rect></_>
    <_>
      <rect>
        10 13 5 10</rect></_>
    <_>
      <rect>
        10 15 4 4</rect></_>
    <_>
      <rect>
        10 22 1 1</rect></_>
    <_>
      <rect>
        10 28 4 5</rect></_>
    <_>
      <rect>
        10 29 3 5</rect></_>
    <_>
      <rect>
        10 30 4 4</rect></_>
    <_>
      <rect>
        11 2 4 7</rect></_>
    <_>
      <rect>
        11 4 7 4</rect></_>
    <_>
      <rect>
        11 6 5 6</rect></_>
    <_>
      <rect>
        11 6 5 12</rect></_>
    <_>
      <rect>
        11 8 2 4</rect></_>
    <_>
      <rect>
        11 8 10 5</rect></_>
    <_>
      <rect>
        11 8 11 4</rect></_>
    <_>
      <rect>
        11 11 1 1</rect></_>
    <_>
      <rect>
        11 11 1 2</rect></_>
    <_>
      <rect>
        11 11 3 1</rect></_>
    <_>
      <rect>
        11 12 1 1</rect></_>
    <_>
      <rect>
        11 12 5 8</rect></_>
    <_>
      <rect>
        11 13 5 2</rect></_>
    <_>
      <rect>
        11 14 5 2</rect></_>
    <_>
      <rect>
        11 26 6 4</rect></_>
    <_>
      <rect>
        11 28 5 5</rect></_>
    <_>
      <rect>
        11 32 4 3</rect></_>
    <_>
      <rect>
        12 0 5 4</rect></_>
    <_>
      <rect>
        12 1 8 6</rect></_>
    <_>
      <rect>
        12 9 1 1</rect></_>
    <_>
      <rect>
        12 9 10 4</rect></_>
    <_>
      <rect>
        12 11 1 1</rect></_>
    <_>
      <rect>
        12 11 2 2</rect></_>
    <_>
      <rect>
        12 11 4 1</rect></_>
    <_>
      <rect>
        12 12 1 1</rect></_>
    <_>
      <rect>
        12 15 6 8</rect></_>
    <_>
      <rect>
        12 17 5 3</rect></_>
    <_>
      <rect>
        12 20 3 3</rect></_>
    <_>
      <rect>
        12 27 5 5</rect></_>
    <_>
      <rect>
        13 2 7 6</rect></_>
    <_>
      <rect>
        13 3 9 7</rect></_>
    <_>
      <rect>
        13 4 4 6</rect></_>
    <_>
      <rect>
        13 5 8 14</rect></_>
    <_>
      <rect>
        13 5 9 9</rect></_>
    <_>
      <rect>
        13 6 9 6</rect></_>
    <_>
      <rect>
        13 8 1 1</rect></_>
    <_>
      <rect>
        13 11 2 1</rect></_>
    <_>
      <rect>
        13 12 4 2</rect></_>
    <_>
      <rect>
        13 12 7 10</rect></_>
    <_>
      <rect>
        13 20 4 3</rect></_>
    <_>
      <rect>
        14 0 5 7</rect></_>
    <_>
      <rect>
        14 0 8 14</rect></_>
    <_>
      <rect>
        14 0 11 4</rect></_>
    <_>
      <rect>
        14 2 9 14</rect></_>
    <_>
      <rect>
        14 3 7 5</rect></_>
    <_>
      <rect>
        14 4 8 7</rect></_>
    <_>
      <rect>
        14 5 10 9</rect></_>
    <_>
      <rect>
        14 6 4 6</rect></_>
    <_>
      <rect>
        14 6 7 11</rect></_>
    <_>
      <rect>
        14 7 3 5</rect></_>
    <_>
      <rect>
        14 8 7 3</rect></_>
    <_>
      <rect>
        14 9 1 1</rect></_>
    <_>
      <rect>
        14 14 1 1</rect></_>
    <_>
      <rect>
        14 29 10 6</rect></_>
    <_>
      <rect>
        15 1 8 9</rect></_>
    <_>
      <rect>
        15 1 11 10</rect></_>
    <_>
      <rect>
        15 3 7 7</rect></_>
    <_>
      <rect>
        15 6 6 9</rect></_>
    <_>
      <rect>
        15 8 1 1</rect></_>
    <_>
      <rect>
        15 9 6 13</rect></_>
    <_>
      <rect>
        15 13 1 1</rect></_>
    <_>
      <rect>
        15 13 9 9</rect></_>
    <_>
      <rect>
        15 14 1 1</rect></_>
    <_>
      <rect>
        15 14 3 2</rect></_>
    <_>
      <rect>
        15 16 9 5</rect></_>
    <_>
      <rect>
        15 30 4 3</rect></_>
    <_>
      <rect>
        15 30 11 6</rect></_>
    <_>
      <rect>
        16 9 6 3</rect></_>
    <_>
      <rect>
        16 13 3 7</rect></_>
    <_>
      <rect>
        16 16 1 1</rect></_>
    <_>
      <rect>
        16 16 7 3</rect></_>
    <_>
      <rect>
        16 18 8 9</rect></_>
    <_>
      <rect>
        17 0 2 6</rect></_>
    <_>
      <rect>
        17 2 9 9</rect></_>
    <_>
      <rect>
        17 12 3 8</rect></_>
    <_>
      <rect>
        17 23 3 6</rect></_>
    <_>
      <rect>
        17 30 3 2</rect></_>
    <_>
      <rect>
        18 0 4 10</rect></_>
    <_>
      <rect>
        18 1 9 8</rect></_>
    <_>
      <rect>
        18 2 9 8</rect></_>
    <_>
      <rect>
        18 4 2 5</rect></_>
    <_>
      <rect>
        18 5 2 4</rect></_>
    <_>
      <rect>
        18 7 2 3</rect></_>
    <_>
      <rect>
        18 8 1 2</rect></_>
    <_>
      <rect>
        18 10 4 2</rect></_>
    <_>
      <rect>
        18 10 10 6</rect></_>
    <_>
      <rect>
        18 14 3 4</rect></_>
    <_>
      <rect>
        18 15 2 1</rect></_>
    <_>
      <rect>
        18 16 6 9</rect></_>
    <_>
      <rect>
        18 17 1 1</rect></_>
    <_>
      <rect>
        19 8 1 2</rect></_>
    <_>
      <rect>
        19 11 6 10</rect></_>
    <_>
      <rect>
        19 12 8 9</rect></_>
    <_>
      <rect>
        19 17 6 9</rect></_>
    <_>
      <rect>
        19 26 3 3</rect></_>
    <_>
      <rect>
        20 1 3 9</rect></_>
    <_>
      <rect>
        20 7 1 3</rect></_>
    <_>
      <rect>
        20 8 1 2</rect></_>
    <_>
      <rect>
        20 9 7 12</rect></_>
    <_>
      <rect>
        20 10 6 4</rect></_>
    <_>
      <rect>
        20 11 3 5</rect></_>
    <_>
      <rect>
        20 24 9 8</rect></_>
    <_>
      <rect>
        20 32 2 2</rect></_>
    <_>
      <rect>
        20 36 2 2</rect></_>
    <_>
      <rect>
        21 4 9 8</rect></_>
    <_>
      <rect>
        21 6 8 14</rect></_>
    <_>
      <rect>
        21 7 9 11</rect></_>
    <_>
      <rect>
        21 8 9 10</rect></_>
    <_>
      <rect>
        21 10 6 5</rect></_>
    <_>
      <rect>
        21 10 6 6</rect></_>
    <_>
      <rect>
        21 10 6 8</rect></_>
    <_>
      <rect>
        21 10 6 12</rect></_>
    <_>
      <rect>
        21 11 2 2</rect></_>
    <_>
      <rect>
        21 11 5 3</rect></_>
    <_>
      <rect>
        21 12 2 5</rect></_>
    <_>
      <rect>
        21 13 2 1</rect></_>
    <_>
      <rect>
        21 13 2 2</rect></_>
    <_>
      <rect>
        21 13 2 3</rect></_>
    <_>
      <rect>
        21 13 6 8</rect></_>
    <_>
      <rect>
        21 14 6 2</rect></_>
    <_>
      <rect>
        21 14 6 5</rect></_>
    <_>
      <rect>
        21 20 5 5</rect></_>
    <_>
      <rect>
        22 0 7 16</rect></_>
    <_>
      <rect>
        22 3 6 14</rect></_>
    <_>
      <rect>
        22 6 5 12</rect></_>
    <_>
      <rect>
        22 7 6 12</rect></_>
    <_>
      <rect>
        22 11 1 2</rect></_>
    <_>
      <rect>
        22 11 2 2</rect></_>
    <_>
      <rect>
        22 11 3 3</rect></_>
    <_>
      <rect>
        22 13 1 1</rect></_>
    <_>
      <rect>
        22 13 3 3</rect></_>
    <_>
      <rect>
        22 13 5 2</rect></_>
    <_>
      <rect>
        22 13 5 4</rect></_>
    <_>
      <rect>
        22 13 6 4</rect></_>
    <_>
      <rect>
        22 14 1 1</rect></_>
    <_>
      <rect>
        22 15 5 6</rect></_>
    <_>
      <rect>
        22 16 1 1</rect></_>
    <_>
      <rect>
        22 18 5 3</rect></_>
    <_>
      <rect>
        22 25 8 5</rect></_>
    <_>
      <rect>
        22 29 5 2</rect></_>
    <_>
      <rect>
        22 30 4 2</rect></_>
    <_>
      <rect>
        22 31 1 1</rect></_>
    <_>
      <rect>
        23 0 4 9</rect></_>
    <_>
      <rect>
        23 1 3 7</rect></_>
    <_>
      <rect>
        23 2 7 15</rect></_>
    <_>
      <rect>
        23 3 4 15</rect></_>
    <_>
      <rect>
        23 3 6 9</rect></_>
    <_>
      <rect>
        23 5 6 6</rect></_>
    <_>
      <rect>
        23 7 2 3</rect></_>
    <_>
      <rect>
        23 8 5 7</rect></_>
    <_>
      <rect>
        23 8 6 5</rect></_>
    <_>
      <rect>
        23 9 5 5</rect></_>
    <_>
      <rect>
        23 10 3 9</rect></_>
    <_>
      <rect>
        23 10 5 3</rect></_>
    <_>
      <rect>
        23 10 5 4</rect></_>
    <_>
      <rect>
        23 10 5 7</rect></_>
    <_>
      <rect>
        23 11 4 2</rect></_>
    <_>
      <rect>
        23 14 1 1</rect></_>
    <_>
      <rect>
        23 15 3 2</rect></_>
    <_>
      <rect>
        23 20 7 5</rect></_>
    <_>
      <rect>
        24 2 6 11</rect></_>
    <_>
      <rect>
        24 3 6 13</rect></_>
    <_>
      <rect>
        24 4 8 12</rect></_>
    <_>
      <rect>
        24 8 4 7</rect></_>
    <_>
      <rect>
        24 9 3 4</rect></_>
    <_>
      <rect>
        24 10 5 5</rect></_>
    <_>
      <rect>
        24 11 4 3</rect></_>
    <_>
      <rect>
        24 15 1 1</rect></_>
    <_>
      <rect>
        24 17 3 2</rect></_>
    <_>
      <rect>
        24 18 7 6</rect></_>
    <_>
      <rect>
        24 21 8 4</rect></_>
    <_>
      <rect>
        24 26 8 4</rect></_>
    <_>
      <rect>
        25 1 2 6</rect></_>
    <_>
      <rect>
        25 1 5 9</rect></_>
    <_>
      <rect>
        25 3 7 14</rect></_>
    <_>
      <rect>
        25 16 7 6</rect></_>
    <_>
      <rect>
        25 17 2 4</rect></_>
    <_>
      <rect>
        25 19 7 4</rect></_>
    <_>
      <rect>
        26 0 5 3</rect></_>
    <_>
      <rect>
        26 1 7 15</rect></_>
    <_>
      <rect>
        26 5 5 7</rect></_>
    <_>
      <rect>
        26 7 5 5</rect></_>
    <_>
      <rect>
        26 7 7 11</rect></_>
    <_>
      <rect>
        26 9 7 7</rect></_>
    <_>
      <rect>
        26 11 4 2</rect></_>
    <_>
      <rect>
        26 11 4 7</rect></_>
    <_>
      <rect>
        26 11 5 7</rect></_>
    <_>
      <rect>
        26 12 5 8</rect></_>
    <_>
      <rect>
        26 12 6 9</rect></_>
    <_>
      <rect>
        26 14 6 6</rect></_>
    <_>
      <rect>
        26 16 3 3</rect></_>
    <_>
      <rect>
        26 16 6 6</rect></_>
    <_>
      <rect>
        27 0 4 2</rect></_>
    <_>
      <rect>
        27 0 7 9</rect></_>
    <_>
      <rect>
        27 2 1 1</rect></_>
    <_>
      <rect>
        27 4 5 7</rect></_>
    <_>
      <rect>
        27 6 7 10</rect></_>
    <_>
      <rect>
        27 9 5 9</rect></_>
    <_>
      <rect>
        27 12 4 6</rect></_>
    <_>
      <rect>
        27 26 7 6</rect></_>
    <_>
      <rect>
        27 29 5 5</rect></_>
    <_>
      <rect>
        28 0 5 3</rect></_>
    <_>
      <rect>
        28 3 6 12</rect></_>
    <_>
      <rect>
        28 11 4 5</rect></_>
    <_>
      <rect>
        28 16 3 4</rect></_>
    <_>
      <rect>
        28 21 6 7</rect></_>
    <_>
      <rect>
        29 0 6 6</rect></_>
    <_>
      <rect>
        29 3 6 5</rect></_>
    <_>
      <rect>
        29 8 6 9</rect></_>
    <_>
      <rect>
        29 10 3 5</rect></_>
    <_>
      <rect>
        29 11 6 9</rect></_>
    <_>
      <rect>
        29 12 4 7</rect></_>
    <_>
      <rect>
        29 16 6 10</rect></_>
    <_>
      <rect>
        29 18 6 7</rect></_>
    <_>
      <rect>
        29 25 5 5</rect></_>
    <_>
      <rect>
        29 26 5 5</rect></_>
    <_>
      <rect>
        29 27 6 4</rect></_>
    <_>
      <rect>
        30 0 5 2</rect></_>
    <_>
      <rect>
        30 0 5 3</rect></_>
    <_>
      <rect>
        30 1 6 8</rect></_>
    <_>
      <rect>
        30 2 6 12</rect></_>
    <_>
      <rect>
        30 4 5 4</rect></_>
    <_>
      <rect>
        30 5 6 7</rect></_>
    <_>
      <rect>
        30 29 4 4</rect></_>
    <_>
      <rect>
        31 4 5 5</rect></_>
    <_>
      <rect>
        31 12 5 6</rect></_>
    <_>
      <rect>
        31 19 4 8</rect></_>
    <_>
      <rect>
        32 0 5 9</rect></_>
    <_>
      <rect>
        32 2 5 4</rect></_>
    <_>
      <rect>
        32 7 5 8</rect></_>
    <_>
      <rect>
        32 8 5 10</rect></_>
    <_>
      <rect>
        32 10 2 1</rect></_>
    <_>
      <rect>
        32 11 2 2</rect></_>
    <_>
      <rect>
        32 12 2 2</rect></_>
    <_>
      <rect>
        32 26 5 4</rect></_>
    <_>
      <rect>
        32 33 4 3</rect></_>
    <_>
      <rect>
        33 1 3 2</rect></_>
    <_>
      <rect>
        33 4 5 6</rect></_>
    <_>
      <rect>
        33 9 3 2</rect></_>
    <_>
      <rect>
        33 10 3 2</rect></_>
    <_>
      <rect>
        33 11 3 2</rect></_>
    <_>
      <rect>
        33 11 5 3</rect></_>
    <_>
      <rect>
        33 16 1 1</rect></_>
    <_>
      <rect>
        33 18 5 5</rect></_>
    <_>
      <rect>
        33 24 4 5</rect></_>
    <_>
      <rect>
        33 25 5 4</rect></_>
    <_>
      <rect>
        34 3 3 2</rect></_>
    <_>
      <rect>
        34 6 4 8</rect></_>
    <_>
      <rect>
        34 10 1 1</rect></_>
    <_>
      <rect>
        34 23 4 5</rect></_>
    <_>
      <rect>
        34 27 3 3</rect></_>
    <_>
      <rect>
        34 30 4 4</rect></_>
    <_>
      <rect>
        35 1 2 2</rect></_>
    <_>
      <rect>
        35 1 3 3</rect></_>
    <_>
      <rect>
        35 2 4 7</rect></_>
    <_>
      <rect>
        35 4 4 1</rect></_>
    <_>
      <rect>
        35 24 2 2</rect></_>
    <_>
      <rect>
        36 0 3 1</rect></_>
    <_>
      <rect>
        36 0 4 4</rect></_>
    <_>
      <rect>
        36 3 4 8</rect></_>
    <_>
      <rect>
        36 12 3 4</rect></_>
    <_>
      <rect>
        36 21 3 5</rect></_>
    <_>
      <rect>
        36 23 4 5</rect></_>
    <_>
      <rect>
        36 24 4 4</rect></_>
    <_>
      <rect>
        36 29 4 3</rect></_>
    <_>
      <rect>
        37 0 2 2</rect></_>
    <_>
      <rect>
        37 1 3 11</rect></_>
    <_>
      <rect>
        37 20 3 4</rect></_>
    <_>
      <rect>
        38 0 3 7</rect></_>
    <_>
      <rect>
        38 14 3 4</rect></_>
    <_>
      <rect>
        38 22 3 4</rect></_>
    <_>
      <rect>
        38 35 1 1</rect></_>
    <_>
      <rect>
        39 1 3 4</rect></_>
    <_>
      <rect>
        39 5 3 4</rect></_>
    <_>
      <rect>
        39 7 3 4</rect></_>
    <_>
      <rect>
        39 12 2 5</rect></_>
    <_>
      <rect>
        39 15 2 2</rect></_>
    <_>
      <rect>
        39 26 3 4</rect></_>
    <_>
      <rect>
        40 18 2 3</rect></_>
    <_>
      <rect>
        41 6 2 3</rect></_>
    <_>
      <rect>
        41 9 2 5</rect></_>
    <_>
      <rect>
        42 12 2 5</rect></_>
    <_>
      <rect>
        42 12 2 7</rect></_></features></cascade>
</opencv_storage>
